<?xml version="1.0"?>
<opencv_storage>
<opencv_ml_svm>
  <format>3</format>
  <svmType>C_SVC</svmType>
  <kernel>
    <type>LINEAR</type></kernel>
  <C>1.0000000000000001e-01</C>
  <term_criteria><iterations>10000000</iterations></term_criteria>
  <var_count>2304</var_count>
  <class_count>2</class_count>
  <class_labels type_id="opencv-matrix">
    <rows>2</rows>
    <cols>1</cols>
    <dt>i</dt>
    <data>
      0 1</data></class_labels>
  <sv_total>1</sv_total>
  <support_vectors>
    <_>
      6.63696509e-03 -3.03946957e-02 -1.10230390e-02 -2.32203249e-02
      -3.50999087e-02 -2.49282587e-02 -2.91849598e-02 -2.11140122e-02
      2.33136793e-03 -1.65413378e-03 -5.94607973e-03 -8.71889200e-03
      -8.17745179e-03 -4.20558173e-03 1.21172890e-02 3.18286978e-02
      -5.16987126e-03 -2.94247027e-02 1.60290906e-03 -1.84229910e-02
      -1.46477912e-02 -4.27657459e-03 -4.15320182e-03 2.56000515e-02
      2.56400704e-02 -1.98779177e-04 -4.71698632e-03 -2.55820528e-02
      -1.82680879e-02 -1.28583061e-02 -2.94886325e-02 5.46116102e-03
      1.23808831e-02 -6.31716149e-03 1.30605113e-04 -2.49771532e-02
      -4.09481153e-02 -4.32754792e-02 -3.35356779e-02 -9.49416123e-03
      1.09103471e-02 4.62420331e-03 -4.50182892e-03 -3.94662051e-03
      -1.81659758e-02 -1.41922142e-02 2.99966484e-02 -3.69192380e-03
      -2.31265165e-02 -1.33986492e-02 1.23944459e-02 -1.58881303e-02
      -1.38033135e-02 -1.48311793e-03 5.58395404e-03 3.36169749e-02
      3.41835916e-02 6.12620916e-03 -4.71967412e-03 -8.48179497e-03
      -1.80219971e-02 -3.22487727e-02 9.11565847e-04 -6.31712656e-03
      -4.18311507e-02 -5.73850460e-02 -3.43209365e-03 1.06557796e-03
      -5.75673906e-03 -4.89765638e-03 1.87636428e-02 3.15162279e-02
      1.78609863e-02 -1.65021385e-03 1.70482276e-03 -9.53856483e-03
      -6.82405476e-03 -1.09438859e-02 -3.92071605e-02 -1.82625260e-02
      -3.86419371e-02 -8.75126645e-02 -4.69095400e-03 4.91755363e-03
      6.39189081e-03 6.69576554e-03 2.53969599e-02 1.95589773e-02
      4.86372691e-03 -1.04638468e-02 2.25518178e-03 -2.79740035e-03
      -1.10141626e-02 -1.09871952e-02 -1.66834090e-02 -1.93605423e-02
      -1.26473093e-02 -3.63594182e-02 -3.22497357e-03 1.33644009e-03
      -2.26596673e-03 7.25010876e-03 2.59394627e-02 3.92614827e-02
      2.96666007e-02 1.17478389e-02 1.31950723e-02 -4.88572707e-03
      -3.11921933e-03 -4.44420293e-04 -1.91426445e-02 -3.92041691e-02
      -2.02642083e-02 -3.79189812e-02 7.87127297e-03 1.30861830e-02
      1.23780351e-02 4.80755325e-03 3.42383608e-02 3.90069075e-02
      3.37585509e-02 8.25271849e-03 5.49718831e-03 1.02972996e-03
      -2.91006843e-04 2.18133070e-02 -1.08218864e-02 -4.24082465e-02
      -6.40084594e-02 -2.82429494e-02 -1.73264393e-03 3.50665348e-03
      8.38665944e-03 8.21698550e-03 2.18374673e-02 1.91697236e-02
      6.85012620e-03 -1.98001508e-03 9.14966501e-03 -7.73843052e-03
      -1.62069534e-03 1.19368755e-03 -1.50937699e-02 -4.27947044e-02
      -3.88666578e-02 -1.12920552e-02 4.20708209e-03 -3.08585113e-05
      9.78441164e-03 2.47503514e-03 5.91420662e-03 6.78980676e-03
      -9.55505937e-04 2.78728013e-03 7.53373327e-03 -9.14583448e-03
      -8.79789004e-04 4.95612901e-03 -5.56488596e-02 -6.82766810e-02
      -4.26380821e-02 -9.72486567e-03 8.68336298e-03 1.65506843e-02
      1.68143287e-02 1.54295797e-02 1.99903976e-02 3.47294472e-02
      2.37012524e-02 2.66004000e-02 1.08787371e-02 8.53922404e-03
      1.64740756e-02 1.80408582e-02 -3.25128413e-03 -4.02328074e-02
      -1.05325608e-02 3.30327894e-03 1.65143013e-02 -6.33714895e-04
      3.09923198e-03 1.55182816e-02 1.25287147e-02 2.62050983e-02
      3.02040745e-02 3.97427045e-02 1.90199111e-02 1.34248948e-02
      2.07251199e-02 -1.57743804e-02 -2.44816951e-02 -4.13487740e-02
      -4.17744145e-02 -6.06348924e-03 3.11814831e-04 -2.66603939e-03
      1.04312394e-02 5.51568111e-03 3.75569379e-03 5.36397379e-03
      9.85148549e-03 2.26183981e-03 -9.54102899e-04 -1.26916990e-02
      -9.41885542e-03 3.73518560e-03 -1.49732688e-02 -3.12940888e-02
      -4.45960946e-02 -2.54876893e-02 -1.88826281e-03 1.19840389e-03
      1.78866629e-02 5.78043796e-03 -3.93476197e-03 -5.13283722e-03
      3.34755075e-03 3.03808926e-03 -3.56657198e-04 -1.45337097e-02
      -7.31940148e-03 -1.24494797e-02 -9.97352973e-03 -2.01622006e-02
      -1.31486850e-02 3.11306585e-03 1.63448341e-02 5.49174240e-03
      1.42757045e-02 1.41752083e-02 1.29056713e-02 2.88414508e-02
      3.23730074e-02 7.68679567e-03 4.54110652e-03 -1.08686844e-02
      -9.90309473e-03 -8.33468605e-03 2.01820454e-04 -1.91768203e-02
      -2.70700967e-03 9.64002963e-03 2.09871437e-02 2.85787806e-02
      3.63747589e-02 1.29825575e-02 1.33644473e-02 1.81907061e-02
      1.64834373e-02 8.26273300e-03 7.61827407e-03 -1.07948333e-02
      -5.48654608e-03 -1.40642989e-02 5.23677096e-03 7.95905245e-04
      -4.63177897e-02 -1.61376335e-02 4.25299071e-03 2.28217035e-03
      7.10465666e-03 -6.54398790e-03 -1.43393995e-02 -2.28126477e-02
      -1.67807974e-02 1.82006788e-03 7.44603807e-04 -8.29469692e-03
      -6.96621893e-04 -7.37574464e-03 -1.13990149e-02 -3.09555754e-02
      -5.42532057e-02 -7.74383545e-03 1.25643872e-02 -4.78282245e-03
      -2.30191904e-03 8.24648794e-03 -6.48077065e-03 -3.57071385e-02
      -3.84712890e-02 6.55802258e-04 1.81815550e-02 -8.39182117e-04
      1.24407895e-02 1.27302157e-02 -1.66273359e-02 -2.27334779e-02
      -1.18601788e-02 1.99458809e-04 1.41509315e-02 4.85989684e-03
      1.73379481e-02 5.63212158e-03 6.27036556e-04 -5.23618748e-03
      -3.87235242e-03 3.80565436e-03 7.38839735e-04 -7.05450820e-03
      -3.19835916e-03 6.88983768e-04 1.23715363e-02 -1.05171157e-02
      -1.68373119e-02 -1.50817018e-02 2.87908614e-02 -1.66264799e-04
      1.80772152e-02 -5.20892395e-03 2.28062901e-03 -8.70139617e-03
      -1.13117080e-02 -3.55857250e-04 1.85561180e-02 4.99775121e-03
      1.39904972e-02 2.71914545e-02 5.08780824e-03 7.37713836e-03
      -4.24404219e-02 -7.28670601e-03 3.26963607e-03 4.68198303e-03
      -3.55319725e-03 2.80718761e-03 1.16218033e-03 -2.47916281e-02
      -3.15531045e-02 -5.83985820e-03 3.98166198e-03 -2.25008233e-03
      -3.31842387e-03 -3.07597942e-03 -1.66353304e-02 -2.39753760e-02
      -1.63656026e-02 -1.55467913e-02 5.98847587e-03 1.52124828e-02
      9.93359927e-03 7.17032515e-03 1.16861220e-02 -1.40282186e-02
      -2.14844514e-02 -2.18335595e-02 -2.00774800e-02 -3.15544866e-02
      -3.69856842e-02 -1.88114531e-02 -2.79380847e-02 -3.95185081e-03
      -6.93434570e-03 -2.45487709e-02 1.32726086e-02 8.61929916e-03
      8.63243174e-03 2.58750049e-03 6.04666583e-03 -9.02788807e-03
      -1.70964450e-02 -7.61125097e-03 9.40338336e-03 -2.66521331e-03
      7.46642239e-04 -3.74872121e-04 -3.57308309e-04 1.19662434e-02
      1.72770526e-02 -7.45934946e-03 2.00099945e-02 1.82799960e-03
      6.78345282e-03 1.97756924e-02 1.30172949e-02 4.56402497e-03
      -1.76775195e-02 -4.47923914e-02 -6.34812042e-02 -5.39991893e-02
      -4.69865948e-02 -1.31832128e-02 -1.51684198e-05 3.40755098e-02
      1.97186638e-02 1.39090335e-02 1.52574060e-02 -1.59907378e-02
      -3.14099342e-02 -4.06514853e-02 -4.36475016e-02 -5.12145162e-02
      -7.66260689e-03 -2.99358275e-03 -2.19899390e-04 -4.13475046e-03
      -8.16560537e-03 -2.29577185e-03 2.41771098e-02 3.54660712e-02
      1.20726908e-02 8.26740544e-03 1.53907863e-02 -6.73242891e-03
      -1.24490103e-02 -8.18665512e-03 -5.86666749e-04 -1.12560540e-02
      -1.23229343e-02 -9.61299613e-03 -3.19867884e-03 -5.68627613e-03
      -1.28996363e-02 -2.82856021e-02 1.34613868e-02 3.03790197e-02
      -8.18287488e-03 2.02634726e-02 2.67569907e-02 -9.85683315e-03
      -8.42202827e-03 -2.51141805e-02 -4.21385206e-02 -8.64421725e-02
      -6.11854717e-02 -2.52343528e-02 8.44328757e-03 4.21760743e-03
      -3.68732581e-04 5.09201456e-03 2.83017121e-02 3.49591188e-02
      1.77744161e-02 2.43057460e-02 3.87909599e-02 1.68978497e-02
      -6.54345145e-03 -1.89236758e-04 -2.21235119e-02 -6.94658905e-02
      -3.20584029e-02 -1.72243845e-02 1.71994958e-02 1.79726686e-02
      -1.40170828e-02 -7.67280580e-03 2.10569222e-02 4.79350425e-02
      1.75642055e-02 -1.63415391e-02 -6.08213292e-03 -6.66153245e-03
      -5.29998681e-03 2.74276664e-03 9.83105414e-03 -1.08561702e-02
      -3.56149971e-02 -1.09526413e-02 -4.69273189e-03 -2.81987595e-03
      -2.22588107e-02 -2.26655118e-02 -1.54269487e-02 5.78891160e-03
      -2.66579632e-03 -1.52641991e-02 -1.14832474e-02 1.26507366e-02
      1.58294402e-02 -4.88651730e-03 1.91233493e-02 5.80031564e-03
      -1.22867739e-02 -5.49023086e-03 -2.42903200e-03 1.00468926e-03
      -1.05950283e-02 6.80080289e-03 -2.05488456e-03 8.36916547e-03
      2.74614599e-02 1.00108497e-02 1.29987029e-02 9.27433092e-03
      -1.90338623e-02 -1.01383189e-02 -2.63128616e-02 -6.61848336e-02
      -7.52480924e-02 -2.31255516e-02 3.82020767e-03 1.32299783e-02
      -2.07624938e-02 -2.15242431e-02 8.29648518e-04 4.53912355e-02
      5.16326427e-02 -1.00658685e-02 -1.38509879e-02 8.31739698e-03
      1.44144073e-02 6.13097614e-03 4.66008612e-04 -2.97401194e-02
      -5.91315441e-02 -2.89660562e-02 -2.18676473e-03 1.79174505e-02
      1.37357076e-03 5.91326877e-03 3.65019105e-02 5.65257557e-02
      -5.37428558e-02 -1.01488680e-02 -1.91367557e-03 8.26101471e-03
      2.70296307e-03 4.84100124e-03 1.02532946e-03 2.09758841e-02
      3.78363649e-03 1.24309612e-02 1.14649872e-03 6.34163665e-03
      9.68543347e-03 6.00469206e-03 -1.50791509e-02 -5.84282801e-02
      -4.15818132e-02 -6.54625997e-04 -1.85468409e-03 -3.87034495e-03
      -8.43071379e-03 1.52126253e-02 7.79778417e-03 1.19484160e-02
      1.99695267e-02 3.18669006e-02 8.43049865e-03 7.84277823e-03
      9.28465649e-03 -8.52503907e-03 -2.45492328e-02 -7.54321590e-02
      1.35485800e-02 -1.83854476e-02 -4.94994745e-02 -5.12115192e-03
      -4.69495688e-04 1.36464443e-02 -1.57026545e-04 1.58269163e-02
      -1.52494032e-02 -1.31070772e-02 -4.59125172e-03 3.51900631e-03
      1.39745772e-02 1.18296677e-02 2.70239692e-02 1.79898143e-02
      8.05451535e-03 2.20541307e-03 -3.50329932e-03 1.83209945e-02
      1.85088236e-02 1.45004326e-02 5.02184918e-03 2.09390949e-02
      2.42982078e-02 1.46007407e-02 -1.01563943e-04 -1.65114028e-03
      7.93447532e-03 2.06833258e-02 2.85856314e-02 -2.36756485e-02
      -5.30651882e-02 -4.85775666e-03 1.75429508e-03 3.07330349e-03
      4.77199117e-03 1.40041122e-02 1.08189741e-02 1.80600323e-02
      2.22850926e-02 6.00062637e-03 2.70040776e-03 -8.21815152e-03
      -7.12135900e-03 -6.37690304e-03 -1.62183419e-02 -6.27733096e-02
      -3.85307148e-02 -1.35796946e-02 1.12101994e-02 1.87962707e-02
      1.68968067e-02 1.10882800e-02 1.41761350e-02 1.26160681e-03
      2.24695285e-03 7.54712615e-03 6.21458143e-03 -3.39304190e-03
      -9.33226722e-04 -7.32725905e-03 -1.20436139e-02 -4.04437855e-02
      1.20940125e-02 -1.03981663e-02 1.08172046e-02 9.29826032e-03
      7.52768200e-03 1.08998707e-02 1.19302748e-02 1.92902591e-02
      1.97847281e-02 6.19123084e-03 -1.27591658e-04 -1.35024893e-04
      5.99903706e-03 1.03212129e-02 8.83743912e-03 1.25737144e-02
      -9.62668657e-03 -3.27656567e-02 1.06143476e-02 2.75596566e-02
      3.03039569e-02 1.61472075e-02 1.28838327e-02 1.68054141e-02
      2.24665049e-02 1.14054112e-02 -6.28634775e-03 1.61956642e-02
      1.81142669e-02 -1.14827428e-03 1.87260546e-02 -1.20974686e-02
      -3.90190631e-02 -1.34356357e-02 9.58248321e-03 5.38799772e-03
      1.03865247e-02 -8.67891300e-04 5.93490992e-03 4.75362735e-03
      2.01587984e-03 -4.49976127e-04 1.22823007e-03 5.11496700e-03
      3.72598274e-03 -6.75366027e-03 -3.49260896e-04 -4.86638211e-02
      -4.13706824e-02 -4.95331623e-02 -7.74609344e-03 -1.48571155e-03
      1.62912197e-02 -5.21499570e-03 9.01922584e-03 9.48099140e-03
      9.32546426e-03 -2.63194926e-03 6.39372645e-03 1.14744380e-02
      1.66943055e-02 4.58236365e-03 -5.57208201e-03 -3.45460139e-02
      -1.19024282e-02 2.86923465e-03 1.28317857e-02 1.90199818e-02
      2.22054962e-02 8.65730084e-03 8.67442880e-03 1.59824193e-02
      1.71995852e-02 2.31324532e-03 1.93763478e-03 4.98776091e-03
      4.51295590e-03 -2.19549388e-02 2.40328070e-02 4.87221358e-03
      -3.27393450e-02 -2.68262997e-02 -4.30707447e-03 6.58494234e-03
      5.61037334e-03 -1.20250415e-02 1.52908936e-02 2.73985602e-02
      2.87840832e-02 7.36853108e-03 1.32616330e-02 1.40079604e-02
      3.57619561e-02 3.65358056e-03 3.30270827e-02 4.14843671e-03
      1.60825276e-03 -2.40285248e-02 -4.78420360e-03 -3.26100830e-03
      5.86486515e-03 7.53120752e-03 5.39723551e-03 7.69671658e-03
      -6.83439794e-05 -6.98334957e-03 7.51389004e-03 3.61919776e-03
      1.33328454e-03 2.53022835e-03 -3.12232645e-03 5.00391535e-02
      5.96642233e-02 -8.25227890e-03 7.51119107e-03 -1.11207261e-03
      2.69996980e-03 9.33164079e-03 8.65236763e-03 -1.39818259e-03
      -3.85329761e-02 -8.28297883e-02 -9.29843709e-02 -6.45265728e-02
      -3.69325578e-02 -1.10041315e-03 -5.12817595e-03 6.86423257e-02
      -1.77771840e-02 9.74475220e-03 -3.45809897e-03 -1.38803916e-02
      -4.05753404e-03 3.75272497e-03 9.48800426e-03 9.32545867e-03
      -5.02428331e-04 -7.22648110e-05 1.70634147e-02 1.25475377e-02
      1.73451174e-02 1.31766964e-02 2.63429377e-02 2.86352895e-02
      2.61625033e-02 2.33059954e-02 1.20744556e-02 -6.26691524e-03
      -1.60520570e-03 6.58830255e-03 9.42686200e-03 -2.18320191e-02
      -6.60114735e-02 -8.92203078e-02 -5.60707822e-02 -1.89174563e-02
      1.63454451e-02 2.04090532e-02 2.23096535e-02 3.23902480e-02
      5.52510424e-03 1.76148415e-02 2.78244112e-02 6.07291516e-03
      -2.87755230e-03 -5.64925047e-03 -2.58192457e-02 -8.89747143e-02
      -6.21690825e-02 -3.19386870e-02 3.13487533e-03 8.87349434e-03
      2.12851958e-03 6.36527501e-03 2.50911787e-02 4.11322974e-02
      2.27537192e-03 2.57318150e-02 3.60050723e-02 1.66329779e-02
      -2.53368821e-03 7.85739627e-03 -2.60933638e-02 -6.96132928e-02
      -3.62416878e-02 -1.61352102e-02 1.19816335e-02 2.25430243e-02
      -7.73091242e-03 -1.14511081e-03 3.83378752e-02 4.04086001e-02
      9.90712550e-03 3.01814266e-02 2.56334078e-02 1.95521824e-02
      6.63055759e-03 -3.56624369e-04 -8.77714902e-03 -8.80791321e-02
      -8.24370682e-02 -3.53162773e-02 4.86545544e-03 1.82434376e-02
      1.63527336e-02 2.90799476e-02 2.37054732e-02 1.36781046e-02
      1.32400403e-02 2.76270323e-02 3.44555750e-02 2.18723267e-02
      1.79821216e-02 2.47174371e-02 -1.00190053e-02 -3.19743194e-02
      -2.10417435e-02 -5.95298596e-03 1.67099070e-02 3.15529108e-02
      2.01448202e-02 4.32337187e-02 3.21394727e-02 1.86974276e-02
      1.38587216e-02 1.39986509e-02 1.61769558e-02 1.35908835e-02
      -1.50737036e-02 -1.01038823e-02 -2.98103336e-02 -7.37201944e-02
      -6.31930158e-02 -1.93309113e-02 1.81676948e-03 1.33946268e-02
      2.48414185e-03 -1.06621883e-04 2.75875609e-02 3.75867337e-02
      2.72849426e-02 -3.18468083e-03 -8.06750078e-03 5.08030131e-03
      7.35958456e-04 1.15585281e-02 1.61581766e-03 -2.85368916e-02
      -4.28769290e-02 -1.58101246e-02 -1.42689468e-03 2.75947489e-02
      2.32568737e-02 1.22037223e-02 3.37892585e-02 4.31716740e-02
      -5.00079384e-03 7.51498016e-03 2.35794522e-02 2.42641568e-03
      -2.54228339e-02 -1.59014370e-02 -2.84060575e-02 -3.22838016e-02
      -2.39175875e-02 -1.48992091e-02 8.07321072e-03 1.73967779e-02
      1.28760841e-02 1.66559797e-02 2.02473532e-02 9.08373669e-03
      2.58202888e-02 2.79464312e-02 -3.96615273e-04 9.45363846e-03
      -8.19107983e-03 -8.91262724e-04 -5.09605883e-03 -4.61476669e-03
      -4.55092452e-03 -1.68544445e-02 6.15340704e-03 3.81472446e-02
      2.66629457e-02 1.19910371e-02 2.15179212e-02 2.89934203e-02
      1.83380079e-02 -1.70692634e-02 -1.77676454e-02 -1.07843301e-03
      1.63494088e-02 1.16964057e-02 -5.17866155e-03 1.15832519e-02
      -1.14412159e-02 -1.33585930e-02 -2.14141421e-02 -7.92964548e-03
      3.94674775e-04 5.56329126e-03 2.44599488e-02 3.99772115e-02
      -1.99868493e-02 -2.21932959e-02 5.61815035e-03 8.52837693e-03
      2.78071146e-02 1.89447831e-02 1.81941246e-03 2.18631681e-02
      2.09995080e-02 2.44422001e-03 -1.24365436e-02 -1.12631898e-02
      -4.10718436e-04 7.63480226e-03 1.73427779e-02 3.30568999e-02
      4.05728305e-03 -1.80449057e-02 -3.37370373e-02 -6.15586387e-03
      2.50973227e-03 2.36445223e-03 -1.10325292e-02 -3.95798637e-03
      -1.23778125e-02 -2.11950932e-02 -2.19732039e-02 7.25643849e-03
      6.97118789e-03 1.01913735e-02 1.18561881e-02 7.91446771e-03
      -9.69058648e-03 -5.42019159e-02 -5.50463982e-02 -2.45326315e-03
      8.38682149e-03 2.20317710e-02 -1.79312425e-03 2.64416467e-02
      2.23689899e-02 1.29077630e-03 -7.09416484e-03 2.99439882e-03
      1.65469833e-02 1.61265004e-02 -1.00273183e-02 1.74136870e-02
      -3.36601585e-02 -2.23546084e-02 5.67535497e-03 1.75519788e-03
      6.44271402e-03 7.96775054e-03 8.02045967e-03 1.82104073e-02
      1.42878359e-02 4.23433213e-03 -1.86513714e-03 1.36359793e-03
      9.07747773e-04 9.90023371e-04 -3.91403399e-03 1.08527103e-02
      -3.92765217e-02 -6.28444273e-03 5.97452605e-03 4.90585482e-03
      1.40032778e-02 7.31874211e-03 6.43539848e-03 2.08599418e-02
      2.29721069e-02 4.12461068e-03 -1.38650015e-02 1.19337924e-02
      1.19537199e-02 -1.89207718e-02 8.01387988e-03 -1.09951012e-02
      -3.03400457e-02 -4.09379900e-02 -1.47024868e-02 -3.04471143e-03
      -1.82019212e-04 1.62564348e-02 6.85089035e-03 2.02700812e-02
      1.69720352e-02 -5.00144844e-04 -1.19313076e-02 7.50707975e-03
      1.08656781e-02 6.77809352e-03 -1.98737253e-02 -1.96564868e-02
      -2.08695047e-02 -2.43143998e-02 1.94548746e-03 -1.43482257e-02
      -3.88945942e-03 8.80635343e-03 1.27248131e-02 1.92421358e-02
      1.32759446e-02 -5.33571374e-03 -2.88736802e-02 8.46685097e-03
      2.15499364e-02 -1.21657420e-02 -9.87263490e-03 -2.81720869e-02
      -2.11893134e-02 -2.02599168e-03 3.08524189e-03 6.62292959e-03
      1.30261155e-02 2.40057032e-03 2.81287264e-03 1.63244642e-02
      1.97217707e-02 3.07797617e-03 -2.62369844e-03 -2.82093650e-03
      3.43735330e-03 -1.19574331e-02 1.22630009e-02 1.59188788e-02
      -2.37535127e-02 -1.97876301e-02 -4.17988598e-02 -7.40428083e-03
      -6.61005313e-03 -2.80777831e-02 -3.63935716e-03 7.03161256e-03
      1.84278712e-02 3.33809992e-03 4.31411900e-03 2.77794478e-03
      2.64749415e-02 1.90003403e-02 3.00329104e-02 3.17054428e-02
      -1.50352549e-02 -1.96289048e-02 -7.14774104e-03 7.68851396e-03
      1.41668227e-02 -4.14732657e-03 3.63002857e-03 2.22650152e-02
      2.10975911e-02 8.98233615e-03 -1.71352073e-03 -9.12292209e-03
      -2.07168143e-03 -2.18470376e-02 1.88234216e-03 -1.65373236e-02
      9.39060748e-03 -3.63338143e-02 -7.01534450e-02 -1.72961112e-02
      -1.33467903e-02 -4.64127548e-02 -2.37826556e-02 2.66492530e-03
      2.12029461e-02 1.24381064e-02 -1.05929039e-02 -1.62922218e-02
      5.34283323e-03 1.93012040e-02 9.83267091e-03 2.85514854e-02
      2.63402276e-02 1.45426588e-02 -1.65311154e-02 -4.86846780e-03
      -4.23070882e-03 -4.02373169e-03 6.18518842e-03 4.46570525e-03
      1.73235487e-03 3.09128454e-03 1.39264446e-02 1.32374829e-02
      2.18816828e-02 2.10152548e-02 2.35587973e-02 5.23767062e-02
      4.19088379e-02 1.71757527e-02 1.10962819e-02 -3.39226797e-03
      -3.64065962e-03 -3.37596837e-04 3.17022111e-03 -5.16506582e-02
      -9.36767757e-02 -8.56997445e-02 -2.44860984e-02 8.59181769e-03
      2.83806808e-02 2.44222023e-02 2.61267833e-02 4.40684445e-02
      4.28672470e-02 -8.19086190e-03 -3.63578573e-02 -1.53078856e-02
      -5.40638948e-03 -4.50768415e-03 -2.27097145e-04 3.04513541e-03
      4.15311661e-03 1.09266741e-02 8.35776911e-04 2.23033428e-02
      2.64096968e-02 3.75925414e-02 1.04247974e-02 3.94361392e-02
      4.90466952e-02 -1.02267889e-02 9.53557249e-03 2.34444509e-03
      -1.23411026e-02 4.08768374e-03 -5.52175241e-03 -8.00978765e-02
      -9.34794024e-02 -3.14502865e-02 -4.35216911e-03 2.38342751e-02
      2.74193622e-02 3.84712033e-02 -6.91560283e-03 4.78331260e-02
      1.34019721e-02 2.32108813e-02 1.13228122e-02 1.36578130e-02
      7.98437931e-03 1.56097370e-03 -9.77534335e-03 -7.62017965e-02
      -6.96135536e-02 -3.94915044e-03 8.66224151e-03 7.25809159e-03
      1.02746179e-02 3.50894313e-03 1.28536997e-03 9.15892236e-03
      8.84804409e-03 9.53261834e-03 2.22138166e-02 1.17536532e-02
      1.44268060e-02 1.08172037e-02 -2.69153398e-02 -3.04008890e-02
      -1.24539202e-02 1.01469439e-02 1.13966204e-02 1.67739652e-02
      1.77753754e-02 2.28949971e-02 9.78410244e-03 1.55272605e-02
      4.09716442e-02 9.69738420e-03 7.67926686e-03 1.32365301e-02
      8.76337849e-03 3.98311159e-03 -1.26272803e-02 -6.42069876e-02
      -6.20104186e-02 -1.64333954e-02 1.96121036e-04 1.41272889e-02
      2.10339129e-02 -1.61240883e-02 -9.37923696e-03 3.89483534e-02
      3.58935185e-02 1.66018959e-02 4.12722901e-02 2.12245118e-02
      1.06052794e-02 -7.45624164e-03 -2.15493087e-02 -3.46493274e-02
      5.78517560e-03 1.67826060e-02 4.71670646e-03 2.18064636e-02
      2.44070999e-02 -8.90317746e-03 -4.35657613e-03 5.67142069e-02
      3.59472027e-03 7.30996998e-03 1.32175898e-02 -1.56232237e-03
      -2.44840365e-02 -2.79490240e-02 -3.29663195e-02 -2.16943435e-02
      -6.23839907e-03 4.88924037e-04 1.03879701e-02 6.45792112e-03
      7.29772961e-03 1.06300041e-02 1.36583941e-02 2.48242542e-02
      9.25230328e-03 1.92573667e-02 -5.01919817e-03 -8.00314080e-03
      -2.36533936e-02 -1.20004201e-02 -7.12752528e-03 -8.84361565e-03
      1.59220491e-03 -1.10858651e-02 9.08349454e-03 2.96883937e-02
      2.30730642e-02 1.93870571e-02 2.19150204e-02 2.73181461e-02
      1.18752746e-02 -2.13917182e-03 2.71687303e-02 6.69829221e-03
      -2.79725268e-02 -4.36090194e-02 -5.83846085e-02 -4.17434350e-02
      8.97770561e-03 -7.82977324e-04 1.84818469e-02 1.99393854e-02
      1.84809007e-02 1.26651665e-02 2.06077471e-02 3.62494886e-02
      3.70186977e-02 1.36578246e-03 5.96134039e-03 6.08322956e-03
      -1.77935697e-02 -3.65631357e-02 -3.04651167e-02 -1.35815330e-02
      1.27632245e-02 -7.33589241e-03 3.96665512e-03 1.55081898e-02
      4.03349437e-02 2.52177324e-02 3.10877711e-02 3.92141715e-02
      3.27478442e-03 -1.53550794e-02 -1.79468021e-02 -6.63093850e-03
      -1.07881136e-03 -3.77102784e-04 -1.62430219e-02 -1.23571306e-02
      -1.58126689e-02 -2.53126305e-02 -1.16301067e-02 1.22123258e-02
      1.45172607e-02 1.49281500e-02 1.00793652e-02 2.22140085e-02
      -6.91174017e-03 -1.70880817e-02 -1.45649621e-02 2.41259786e-05
      3.33397562e-04 1.50453849e-02 -1.81097153e-03 1.74316522e-02
      9.90576390e-03 -8.34142324e-03 -3.10048275e-03 1.40610253e-02
      1.98579412e-02 2.59586554e-02 7.59176631e-03 1.14929704e-02
      -8.79357848e-03 -1.57437027e-02 1.10259522e-02 5.03631029e-03
      5.55576524e-04 -6.88982848e-03 -2.20379010e-02 -2.06985176e-02
      -2.43635732e-03 -3.11788116e-02 -1.93041470e-02 -6.40905788e-03
      8.84906482e-03 2.20182072e-02 1.04788104e-02 1.23283230e-02
      -2.23978516e-02 -1.30584342e-02 9.41726938e-03 2.29097959e-02
      1.56755280e-03 1.26905935e-02 -7.57315429e-03 1.39204441e-02
      1.13171842e-02 -1.83396116e-02 1.40413863e-03 1.92733190e-03
      -1.74947869e-04 4.43159044e-02 -1.08020492e-02 -1.23934122e-02
      -1.16910003e-02 -1.24904253e-02 -4.67135618e-03 5.10634482e-03
      -4.68643440e-04 1.28509924e-02 6.66875113e-03 2.02226192e-02
      1.14081819e-02 -2.19495641e-03 -4.91103716e-03 9.97361355e-03
      1.53191313e-02 1.26338694e-02 2.71897693e-03 5.11975726e-04
      5.92107698e-03 -5.73121593e-04 4.37031034e-04 -5.27420267e-03
      -5.78769157e-03 3.33514530e-03 1.07880505e-02 1.73123553e-02
      8.18824396e-03 -2.92258337e-03 -1.22498786e-02 6.24482054e-03
      1.73867494e-02 3.03108734e-03 4.15250892e-03 -5.96890738e-03
      -5.23033477e-02 -2.16252077e-02 -1.01619847e-02 1.34141778e-03
      -4.88533126e-03 -7.11295812e-04 5.79504995e-03 2.18683314e-02
      1.38547253e-02 -6.78212382e-03 1.13161327e-02 1.02099841e-02
      1.27780857e-02 3.25311795e-02 7.74443243e-03 -3.10370978e-02
      -4.36986648e-02 -2.30076276e-02 -1.96545776e-02 -1.59571376e-02
      -1.18727814e-02 -9.86508839e-03 -1.25672412e-03 2.76293475e-02
      2.42768507e-02 -5.37263416e-03 8.16101208e-03 1.83032604e-03
      5.48264070e-04 -5.06523810e-03 1.45500246e-03 -4.32644412e-02
      2.71963160e-02 2.78162828e-04 -4.92717314e-04 8.05545412e-03
      1.28346123e-02 -9.69517918e-04 5.18116914e-03 1.85392331e-02
      1.22321835e-02 3.38571216e-03 2.31815246e-03 9.55170661e-04
      6.01235637e-03 1.16148009e-03 4.90428740e-03 5.47711272e-03
      3.08926702e-02 -1.85208861e-02 -3.01593710e-02 -2.23381743e-02
      -1.17143672e-02 -2.01424025e-02 -1.32118547e-02 -5.60140843e-03
      4.07802174e-03 1.70912556e-02 1.82808079e-02 -3.89482384e-03
      1.04911840e-02 2.80809905e-02 6.51506614e-03 2.23486498e-02
      -1.22459501e-03 -1.75117068e-02 3.96262389e-03 -1.79869749e-04
      -4.59117256e-03 -1.06246052e-02 4.01075551e-04 1.39428722e-02
      1.56900641e-02 2.01361530e-04 -4.20517201e-04 1.44655845e-04
      8.20282567e-03 1.57112665e-02 8.24173260e-03 -3.35467211e-03
      7.51191704e-03 -5.50730564e-02 -1.69953462e-02 -1.98256448e-02
      -1.73726305e-02 -1.74101163e-02 -5.19780163e-03 -2.95744874e-02
      -1.89150684e-02 -1.67834871e-02 -1.21414894e-03 -1.20047471e-02
      1.44278584e-02 3.42492461e-02 -9.73831676e-03 2.59509776e-02
      2.94648279e-02 1.38413040e-02 -9.04025044e-03 -1.06629394e-02
      7.48574792e-04 3.12505546e-03 3.17025068e-03 -4.33277665e-03
      6.73275208e-03 2.15647612e-02 7.41424225e-03 1.20120170e-02
      1.57645717e-02 2.58837473e-02 7.86769483e-03 2.07766015e-02
      3.22557501e-02 1.96631234e-02 1.53037915e-02 7.75418419e-04
      -9.47718602e-03 3.22743901e-03 -2.03083120e-02 -9.00388435e-02
      -1.01365529e-01 -1.79402083e-02 1.27904667e-02 3.10186967e-02
      2.96763144e-02 2.87700873e-02 8.63349810e-03 4.32621241e-02
      9.33669787e-03 8.84958263e-03 -1.06234858e-02 -7.89236743e-03
      1.05312439e-02 1.42135490e-02 -2.33376026e-03 -1.51800476e-02
      1.66108403e-02 7.37473462e-03 1.27319945e-02 1.15282331e-02
      6.05462492e-03 1.94811150e-02 7.66049884e-03 2.13683471e-02
      4.23060842e-02 4.90311570e-02 2.31226496e-02 4.93572326e-03
      6.31240150e-03 -8.09084065e-03 -8.42878222e-02 -7.54747912e-02
      -6.49628565e-02 -4.13602330e-02 1.50928702e-02 2.20887549e-02
      3.50680053e-02 2.46720146e-02 1.91249717e-02 3.97909060e-02
      2.87634172e-02 -6.08182885e-03 2.37354496e-03 8.55917204e-03
      -2.85668159e-03 3.03410855e-03 -3.86286504e-03 -4.14472967e-02
      -4.39793132e-02 -2.28633825e-02 -5.96826104e-03 2.76110112e-03
      8.95794667e-03 -2.26355949e-03 -1.71360862e-03 1.92636140e-02
      2.59760171e-02 -1.77401416e-02 5.40594710e-03 1.68204047e-02
      -5.81265381e-03 -2.81258803e-02 -2.43085604e-02 -2.83781048e-02
      -4.41622781e-03 6.17442979e-03 1.01705762e-02 1.73033942e-02
      1.92387700e-02 -3.08701443e-03 9.26888268e-03 3.56028564e-02
      3.13480236e-02 2.12619966e-03 -1.88608223e-03 4.45487862e-03
      -1.62413474e-02 -1.15653481e-02 -1.11931162e-02 -2.09526066e-02
      -3.55274901e-02 -3.29291746e-02 -2.93586720e-02 -1.15147121e-02
      -7.22289644e-03 -4.09104908e-03 1.37726068e-02 4.26830575e-02
      3.06186490e-02 -1.32466927e-02 -1.86900850e-02 1.24820592e-02
      -1.84538830e-02 -4.33206260e-02 -4.34890091e-02 2.48096068e-03
      -4.49728174e-03 4.88372985e-03 -1.39998076e-02 9.52521618e-03
      3.02421059e-02 -1.52445445e-02 2.69157048e-02 3.82841602e-02
      1.56783834e-02 -7.30797276e-03 1.08969584e-02 3.91342677e-03
      -1.66435018e-02 -3.62005681e-02 -3.66529003e-02 -2.03495286e-02
      -8.12590867e-03 -3.42382910e-03 1.55888870e-02 1.22746294e-02
      1.19223977e-02 4.18931991e-03 1.10692950e-02 2.94064526e-02
      2.17898618e-02 -6.37382548e-03 5.49673336e-03 4.95790876e-03
      -1.35951396e-02 -2.83640400e-02 -1.27816387e-02 -2.35408731e-03
      1.43182892e-02 2.80603999e-03 7.97903165e-03 2.86703580e-04
      1.70404613e-02 8.10975209e-03 1.17982626e-02 2.66116895e-02
      1.50429029e-02 -2.41107605e-02 -4.90671583e-03 -1.30762514e-02
      -2.77686790e-02 -3.47897373e-02 -2.83811502e-02 7.78959179e-03
      -1.07370904e-02 -1.81346422e-03 -1.40207419e-02 -8.38745758e-03
      2.14943308e-02 -1.48372753e-02 1.17810513e-03 2.24590991e-02
      -1.19820787e-02 -4.47019227e-02 -8.78971163e-03 -7.62371114e-03
      -1.62249207e-02 -1.48294168e-02 4.79057711e-03 1.04178870e-02
      7.69468537e-03 6.32943399e-03 -3.48893460e-04 -9.17522237e-03
      7.98512995e-03 -6.81314524e-03 -1.93346071e-03 -2.09721252e-02
      1.77493924e-03 4.48130351e-03 1.90223549e-02 2.21247207e-02
      1.28669674e-02 9.48939659e-03 7.82560278e-03 1.22782867e-02
      2.47486830e-02 4.50308993e-03 1.75911572e-03 3.44065996e-03
      8.64780881e-03 5.82687650e-03 6.27076393e-03 1.62073411e-02
      -1.86893716e-02 3.24278744e-03 2.16404088e-02 2.75687538e-02
      1.76355019e-02 1.74097978e-02 7.15493085e-03 2.58207358e-02
      2.52375472e-02 1.16925901e-02 1.09732766e-02 1.72430854e-02
      7.87273422e-03 7.12562818e-03 -8.97865370e-03 1.19729266e-02
      -6.24672584e-02 -2.05892436e-02 -1.24141006e-02 2.96959747e-03
      7.11483182e-03 7.11869216e-03 6.17438089e-03 1.75319966e-02
      3.63953114e-02 5.55217778e-03 9.73186828e-03 1.69288851e-02
      1.27598904e-02 -9.44615249e-03 -4.99409344e-03 -5.70609570e-02
      -5.93000799e-02 -1.44149754e-02 -1.36011913e-02 -6.77514472e-04
      8.14536400e-03 1.27678569e-02 7.34092714e-03 3.06749921e-02
      3.14882547e-02 1.19261052e-02 1.10875973e-02 2.67958194e-02
      2.68681590e-02 -2.14288346e-02 -1.06616272e-02 -6.77821040e-02
      -1.04488404e-02 9.15731303e-03 9.54480097e-03 1.57043897e-02
      7.24439882e-03 9.74846818e-03 7.13031273e-03 2.02674083e-02
      1.54697429e-02 4.49946383e-03 6.13725279e-03 1.04046343e-02
      6.82285801e-03 -1.33508770e-03 8.83480418e-04 -7.44341267e-03
      -1.33478697e-02 1.73729490e-02 7.38500664e-03 1.48908244e-02
      1.01912012e-02 1.72799919e-02 1.07773654e-02 3.03752255e-02
      3.17622647e-02 1.16639137e-02 9.78285819e-03 1.80272218e-02
      3.29373404e-03 -1.09832082e-02 1.33797862e-02 -9.72510688e-03
      -5.06481789e-02 1.11227343e-02 8.54270620e-05 -4.97667538e-03
      5.01954881e-03 1.29242288e-02 1.35731539e-02 2.78502945e-02
      2.12373380e-02 8.26399028e-03 -8.95199599e-04 -1.55258761e-03
      1.01717394e-02 -1.05779506e-02 -1.45116970e-02 -7.33653829e-02
      -4.49669920e-02 1.15742153e-02 7.70089403e-03 7.88122974e-03
      1.11168036e-02 2.36527566e-02 1.57845579e-02 3.14496048e-02
      3.10817864e-02 2.33056564e-02 7.73685938e-03 -4.24272101e-03
      -8.88247602e-03 -8.60513467e-03 1.09782803e-03 -5.69262914e-02
      -1.14157060e-02 -3.29160388e-03 8.25813320e-03 5.39128203e-03
      3.09254462e-03 7.43941637e-03 5.72741264e-03 1.60617474e-02
      1.93207040e-02 7.89311063e-03 2.51586828e-03 5.88814914e-03
      6.83955755e-03 1.70942058e-03 9.75436624e-03 1.10029243e-02
      -8.93094949e-03 -1.63194034e-02 5.56985708e-03 2.40709400e-03
      3.73215554e-03 7.79576320e-03 1.83353424e-02 8.76480434e-03
      1.83083750e-02 1.14415698e-02 7.27285072e-03 1.02588497e-02
      2.18019281e-02 1.66066065e-02 3.03197280e-03 1.08376490e-02
      -8.83771181e-02 1.18494695e-02 9.09134280e-03 1.53476000e-02
      9.67202708e-03 1.54083911e-02 1.00221308e-02 1.30878929e-02
      1.80686954e-02 1.91745721e-02 5.76226367e-03 -5.37090190e-03
      -1.11195371e-02 -8.47739913e-03 1.93535909e-02 -5.63959144e-02
      -5.35097830e-02 -4.25668154e-03 1.60250664e-02 1.32015143e-02
      6.22345507e-03 2.05805935e-02 3.05798631e-02 1.28683839e-02
      1.76991113e-02 2.43902672e-02 -2.26484821e-03 1.87346172e-02
      -4.88164276e-03 -1.95711665e-03 6.85056963e-04 -6.31208196e-02
      -7.28260074e-03 1.07009346e-02 3.31792887e-03 4.28886618e-03
      1.24742053e-02 1.23821748e-02 -2.28814618e-03 1.04054925e-03
      1.80755127e-02 9.45993699e-03 5.09937061e-03 6.68440387e-03
      -3.00380925e-04 4.52922797e-03 4.68948483e-03 6.58914773e-03
      1.91986691e-02 3.08366902e-02 1.48355011e-02 6.41140575e-03
      6.21307036e-03 -2.28709970e-02 -5.71814403e-02 -5.90481088e-02
      -6.38639601e-03 -2.34334394e-02 1.05360681e-02 1.47984773e-02
      1.45162987e-02 9.37254820e-03 1.24393627e-02 1.97480153e-02
      -2.06953753e-03 4.41982923e-03 8.30377918e-03 3.81711312e-03
      1.20738905e-03 -6.58643432e-04 -1.17269009e-02 3.01555893e-03
      2.02435330e-02 2.37960438e-03 -3.16539756e-03 5.02554746e-03
      -1.10036042e-02 -1.14155952e-02 -1.22867106e-02 -7.98516162e-03
      4.08727974e-02 3.66371963e-03 3.39483260e-03 -1.58250723e-02
      -1.83317252e-02 -6.04768991e-02 -7.50168711e-02 -5.38080968e-02
      8.64709355e-03 -1.08785992e-02 8.48524924e-03 8.79176706e-03
      2.00092653e-03 -3.08718765e-03 -1.20048271e-03 4.90055867e-02
      2.38404935e-03 -1.19705116e-02 4.84451232e-03 -1.00917267e-02
      -1.51043460e-02 -1.20893670e-02 -1.29208406e-02 -5.71371056e-03
      -1.45381643e-02 -2.57612113e-02 -2.30097268e-02 -3.07588419e-03
      -1.28893554e-02 -2.12174244e-02 5.82452631e-03 2.62794942e-02
      -5.86552836e-04 -1.48799336e-02 2.97962921e-03 -3.95051669e-03
      -1.17907366e-02 -4.01662998e-02 -2.45902240e-02 1.39412666e-02
      1.24192704e-02 -3.38502834e-03 -2.66382005e-02 -3.02460473e-02
      5.73541224e-03 -1.89340226e-02 -2.81334925e-03 5.05762128e-03
      1.14445214e-03 -1.59079749e-02 3.53598110e-02 1.25784352e-02
      4.43796720e-03 -1.38325738e-02 -6.83409814e-03 5.81757072e-03
      5.40455477e-03 -2.71109771e-02 -2.25609709e-02 3.27385962e-03
      -2.43667699e-02 -3.25349569e-02 6.25973102e-03 1.95311215e-02
      -2.30680853e-02 -2.19928641e-02 3.31466421e-02 1.16578266e-02
      1.88597478e-02 -2.11887457e-03 5.64709771e-03 3.83480662e-03
      1.67120574e-03 -3.35062109e-02 -3.33877653e-02 -3.48307751e-02
      -2.17328649e-02 -2.78917234e-02 -1.43943280e-02 -9.62971617e-03
      4.58782120e-03 6.88985875e-03 1.37837799e-02 6.09135209e-03
      4.12646635e-03 2.87975906e-03 8.30494892e-03 1.54914847e-02
      1.54809766e-02 9.22254939e-03 -1.74713265e-02 -3.01814787e-02
      -7.66478945e-04 -9.93025117e-03 -5.45000331e-03 1.22210837e-03
      1.50082831e-03 -4.01971349e-03 1.11010233e-02 1.41031819e-03
      -4.80773393e-03 6.93578180e-03 8.63408856e-03 3.23827378e-03
      1.37907239e-02 6.34698104e-03 -6.48920797e-03 -1.94578692e-02
      -1.40697770e-02 7.12154154e-03 8.42296140e-05 -2.39782818e-02
      -1.80119760e-02 -4.52498859e-03 1.35699343e-02 -2.72877561e-03
      1.03268139e-02 9.02469177e-03 1.75447296e-02 -1.25575662e-02
      -1.33762071e-02 6.21085986e-03 -1.53880450e-04 -3.23458724e-02
      -1.67297125e-02 -1.36507116e-02 -2.50148103e-02 -7.78187253e-03
      -3.14462092e-03 -9.71024577e-03 5.61881252e-03 -5.68987336e-03
      -1.08369691e-02 1.04849413e-02 1.07228504e-02 -2.46168729e-02
      -2.27922425e-02 8.02933588e-04 -1.33373737e-02 -1.95601638e-02
      -2.50305999e-02 -5.12869563e-04 -6.41205255e-03 -1.11900065e-02
      -1.19430609e-02 5.76055283e-03 -5.80916507e-03 3.22537124e-03
      3.35751125e-03 2.02907249e-03 -1.46534713e-03 2.53292406e-03
      1.43718300e-02 6.72664260e-04 -7.29748048e-03 -4.15947847e-03
      -1.88735756e-03 1.12457806e-02 1.42797399e-02 -3.22172865e-02
      -3.26587260e-02 -1.41592994e-02 2.68450764e-04 4.12239460e-03
      2.93318270e-04 4.46069008e-03 1.68731250e-03 2.25903727e-02
      1.36920046e-02 4.66502644e-03 3.84526094e-04 -1.56123610e-03
      1.32886646e-02 -1.76904188e-03 2.38463422e-03 -3.96223292e-02
      2.60931381e-04 -1.05175134e-02 -4.73292498e-03 -8.22091568e-03
      3.81810986e-03 9.36210249e-03 -7.56164431e-04 -1.04745105e-02
      -6.00466132e-03 -3.80130904e-03 -1.85921695e-02 -1.92510933e-02
      -1.11887241e-02 8.98467842e-03 1.28089450e-02 -1.77221391e-02
      -6.19971473e-03 -3.28143686e-02 1.91971415e-03 8.07263423e-04
      2.37616641e-03 5.07654762e-03 1.97017612e-03 3.80165153e-03
      1.19554624e-03 -5.41282911e-03 -4.78283782e-03 -6.68129371e-03
      -2.36381521e-03 2.70048641e-02 1.25409923e-02 -2.94234161e-03
      -2.01402511e-02 -1.83521281e-03 5.88993728e-03 1.29529205e-03
      1.02003233e-03 7.91362673e-03 4.73083742e-03 1.64035074e-02
      1.13992970e-02 3.28863063e-03 -7.07890792e-03 -2.16451976e-02
      5.16838906e-03 -1.40533615e-02 -8.34572595e-03 -7.38271791e-03
      -2.27193087e-02 1.08081363e-02 2.21738145e-02 8.49870557e-04
      8.11072905e-03 1.25448648e-02 7.41439220e-03 2.08185744e-02
      1.83993950e-02 1.03732264e-02 -9.68374778e-03 -9.67742968e-03
      -1.47487214e-02 -1.57582182e-02 -2.55615171e-03 -3.70731414e-03
      -8.08715168e-03 -2.74486709e-02 7.65092031e-04 -3.15861753e-03
      -8.90894036e-04 4.38004779e-03 -2.10145791e-03 8.86443071e-03
      8.04338604e-03 -6.27440913e-03 -2.13016919e-03 -1.11517021e-02
      3.10599478e-03 1.44965788e-02 -1.10980554e-03 1.41025642e-02
      4.63164208e-04 -1.02530727e-02 1.34237781e-02 -5.45337144e-03
      7.98969530e-03 3.64908134e-04 -3.63725307e-03 1.42752565e-02
      1.65705606e-02 -4.18368448e-03 -1.14854742e-02 -9.78017040e-03
      -1.17193917e-02 1.44585129e-02 -1.57315023e-02 1.26905078e-02
      -6.23914599e-02 7.39350403e-03 1.24857165e-02 1.11567508e-02
      1.04753440e-02 6.65730983e-03 1.00800802e-03 1.27766738e-02
      1.84177142e-02 1.12088490e-02 -1.36898141e-02 -2.53782198e-02
      -1.82920378e-02 4.40373085e-03 2.30386723e-02 -1.60912853e-02
      -3.80967669e-02 7.01800268e-03 1.78830959e-02 2.08204705e-02
      1.84276979e-02 1.53187569e-02 1.77204460e-02 1.00420769e-02
      1.51791433e-02 6.53494010e-03 -5.37917810e-03 6.91451365e-03
      9.72871669e-03 1.60450712e-02 1.55872554e-02 -3.23970839e-02
      -3.61346677e-02 -9.52759571e-03 1.18104620e-02 7.15244468e-03
      9.21996683e-03 -1.08974315e-02 -6.88711880e-03 2.91613932e-03
      -1.11654037e-04 8.17025197e-04 -3.48509140e-02 -2.87801437e-02
      -2.74834931e-02 3.29721253e-03 1.71382714e-03 2.07030261e-03
      -2.61398610e-02 -4.17528488e-03 9.87454224e-03 1.87523365e-02
      2.08189581e-02 4.20890655e-03 5.18019637e-03 1.73336528e-02
      1.95212699e-02 -7.62518961e-03 -2.56410930e-02 -2.23637372e-02
      -2.03615613e-03 1.17809763e-02 -3.00444663e-04 -2.63195466e-02
      -5.93039300e-03 -6.67475676e-03 4.50071646e-03 8.83882958e-03
      1.67721009e-03 3.57565144e-03 -7.53154454e-04 -7.74051668e-03
      4.66765743e-03 -4.55979025e-04 -2.04816461e-03 5.47412084e-03
      -6.25391607e-04 -1.20071061e-02 -1.69408489e-02 -4.24769707e-02
      4.11097966e-02 -3.01208459e-02 -2.94523826e-03 -1.04653612e-02
      -1.30542452e-02 -2.68557090e-02 -4.44188751e-02 -3.57751697e-02
      8.85910820e-03 2.09311210e-03 1.22192111e-02 1.55286975e-02
      6.67748740e-03 -2.54057571e-02 -1.98615585e-02 3.24718282e-02
      6.73194323e-03 3.54090380e-03 7.73669919e-03 1.37332436e-02
      4.27236082e-03 4.72067250e-03 -2.96674832e-03 -2.58514732e-02
      -1.97549090e-02 -3.06971045e-03 -6.18127733e-03 3.89481243e-03
      -8.23244860e-04 -2.73898635e-02 -2.16341391e-02 -1.87595394e-02
      6.74771667e-02 5.18365111e-03 6.80226367e-03 -1.27572175e-02
      -2.08132286e-02 -1.06768357e-02 -2.28459034e-02 -2.33775973e-02
      -1.80777293e-02 -1.38976180e-03 6.74100593e-03 2.18807813e-02
      3.33384052e-03 -4.52850834e-02 -2.27694288e-02 2.98874080e-02</_></support_vectors>
  <uncompressed_sv_total>75</uncompressed_sv_total>
  <uncompressed_support_vectors>
    <_>
      9.45577398e-02 3.13596129e-01 2.14388430e-01 1.30423099e-01 0. 0.
      0. 1.01533448e-02 1.01533448e-02 0. 0. 0. 0. 0. 0. 9.57628246e-03
      3.13596129e-01 3.13596129e-01 1.77264526e-01 1.47449777e-01 0. 0.
      0. 9.45791882e-03 9.45791882e-03 0. 0. 0. 0. 0. 0. 0.
      3.71870846e-02 1.15571536e-01 1.46960586e-01 3.13596129e-01
      1.49237951e-02 1.44448966e-01 1.11604460e-01 0. 0. 0. 0. 0. 0. 0.
      0. 8.85992497e-03 2.40525857e-01 2.49636143e-01 3.13596129e-01
      3.13596129e-01 2.27577358e-01 1.94343999e-01 3.95650826e-02 0. 0.
      0. 0. 0. 0. 0. 0. 0. 3.63891333e-01 3.38532954e-01 3.87335457e-02
      8.37483257e-03 0. 0. 0. 7.14826351e-03 7.14826351e-03 0. 0. 0. 0.
      0. 0. 7.11619342e-03 3.63891333e-01 2.41740525e-01 0. 0. 0. 0. 0.
      1.33216046e-02 1.33216046e-02 0. 0. 0. 0. 0. 0. 2.33196571e-01
      3.52459341e-01 2.64686227e-01 1.27954975e-01 1.01271346e-01
      6.38327450e-02 8.70850030e-03 0. 0. 0. 0. 0. 0. 0. 0. 0.
      2.13485789e-02 3.63891333e-01 3.41322362e-01 5.87717490e-03
      3.80734205e-02 0. 0. 0. 0. 0. 0. 0. 0. 0. 0. 2.23562136e-04
      1.61573172e-01 3.75844479e-01 2.79263593e-02 0. 0. 0. 0. 0.
      1.39940605e-02 1.39940605e-02 0. 0. 0. 0. 0. 0. 2.77473122e-01
      3.75844479e-01 4.03638324e-03 0. 0. 0. 0. 0. 3.41470279e-02
      3.41470279e-02 0. 0. 0. 0. 0. 0. 3.75844479e-01 3.75844479e-01
      7.64616728e-02 0. 0. 0. 0. 0. 0. 0. 0. 0. 0. 0. 0. 6.19811646e-04
      2.31351227e-01 3.75844479e-01 9.38576534e-02 0. 0. 0. 0. 0. 0. 0.
      0. 0. 0. 0. 0. 3.09905794e-04 3.75844479e-01 4.03514713e-01 0. 0.
      0. 0. 0. 0. 1.78542417e-02 1.78542417e-02 0. 0. 0. 0. 0. 0.
      2.11184487e-01 4.03514713e-01 0. 0. 0. 0. 0. 0. 1.92881301e-02
      1.92881301e-02 0. 0. 0. 0. 0. 0. 1.95583120e-01 4.03514713e-01
      6.10324629e-02 0. 0. 0. 0. 0. 0. 0. 0. 0. 0. 0. 0. 0.
      3.25445592e-01 4.03514713e-01 1.61261950e-02 0. 0. 0. 0. 0. 0. 0.
      0. 0. 0. 0. 0. 6.16687201e-02 3.83061647e-01 3.71247590e-01
      8.99666995e-02 5.64156054e-03 0. 0. 0. 0. 1.57162622e-02
      1.57162622e-02 0. 0. 0. 0. 0. 0. 1.77885547e-01 3.71247590e-01
      3.71247590e-01 3.42501365e-02 0. 0. 0. 0. 3.05923987e-02
      3.05923987e-02 0. 0. 0. 0. 3.25505110e-03 1.55356795e-01
      6.90776110e-02 3.71247590e-01 1.91422865e-01 1.69246811e-02 0. 0.
      0. 0. 0. 0. 0. 0. 0. 0. 0. 2.71173753e-02 1.81119159e-01
      3.71247590e-01 3.71247590e-01 1.41347051e-01 2.89313421e-02 0. 0.
      0. 0. 0. 0. 0. 0. 0. 1.08501699e-03 5.17855957e-02 5.61135374e-02
      8.74565244e-02 1.00375593e-01 2.81463265e-02 0. 0. 0. 0.
      2.10438631e-02 2.10438631e-02 0. 5.75599149e-02 5.62088974e-02
      2.25604862e-01 9.65866372e-02 2.84988940e-01 0. 1.36512856e-03
      2.02714512e-03 1.26112737e-02 0. 0. 0. 0. 1.91398069e-01
      1.33475751e-01 1.51384696e-01 1.15119807e-01 1.12417772e-01
      3.41426373e-01 1.84216589e-01 1.42494455e-01 1.36512856e-03
      3.00559383e-02 1.31401315e-01 1.23807147e-01 5.30721061e-02 0. 0.
      0. 0. 0. 1.82869598e-01 1.74632907e-01 1.68626696e-01
      7.52016231e-02 3.21955532e-02 9.49963108e-02 0. 7.28068640e-03
      6.08143490e-03 5.48178181e-02 2.65360493e-02 0. 0. 0.
      5.20800650e-02 1.68918356e-01 3.41426373e-01 3.41426373e-01
      3.37253302e-01 1.50403216e-01 6.14055321e-02 4.74981479e-02
      7.28068640e-03 2.89061922e-03 0. 2.90135760e-02 1.33656591e-01
      1.83354188e-02 2.48475835e-01 2.51262397e-01 0. 0. 0. 0. 0. 0. 0.
      0. 2.89061922e-03 1.69841722e-02 1.73517056e-02 1.51431933e-01
      2.01090440e-01 3.13574046e-01 3.13574046e-01 1.39818743e-01 0. 0.
      0. 0. 0. 0. 0. 0. 0. 1.81422150e-03 0. 0. 0. 6.11180672e-03
      2.74013996e-01 3.13574046e-01 2.04209775e-01 0. 0. 0. 0. 0. 0. 0.
      1.81422150e-03 0. 0. 3.96789722e-02 3.41516398e-02 3.13574046e-01
      3.13574046e-01 3.13574046e-01 2.44714022e-01 0. 0. 0. 0. 0. 0. 0.
      0. 1.15938924e-01 1.79670304e-01 1.80987731e-01 1.91539109e-01
      1.87222496e-01 2.30584461e-02 5.19457692e-03 0. 0. 0. 0. 0. 0. 0.
      0. 1.20139848e-02 3.41454715e-01 3.41454715e-01 1.29057825e-01
      8.87000933e-02 0. 0. 0. 0. 0. 0. 0. 0. 0. 0. 4.52494482e-04
      1.46038011e-01 5.74402336e-04 7.63612390e-02 3.41454715e-01
      1.21206395e-01 3.38345915e-01 1.16544209e-01 8.00579712e-02
      1.45047242e-02 0. 0. 0. 0. 0. 0. 0. 0. 1.78984508e-01
      3.41454715e-01 3.41454715e-01 6.06031939e-02 6.06043190e-02
      1.74160767e-02 0. 0. 0. 0. 0. 0. 0. 0. 1.50831474e-04
      1.48228452e-01 3.26095909e-01 8.13797861e-02 4.70362464e-03 0. 0.
      0. 0. 0. 0. 0. 0. 0. 0. 0. 1.04220095e-03 2.88379371e-01
      3.26095909e-01 2.59232640e-01 0. 0. 0. 0. 0. 0. 0. 0. 0. 0. 0. 0.
      5.21100417e-04 3.26095909e-01 2.57212907e-01 1.69143409e-01
      2.43574735e-02 0. 0. 0. 0. 0. 0. 0. 0. 0. 0. 0. 3.47400317e-04
      3.26095909e-01 3.26095909e-01 3.26095909e-01 0. 0. 0. 0. 0. 0. 0.
      0. 0. 0. 0. 0. 1.73700144e-04 3.26095909e-01 3.34976524e-01
      2.00532928e-01 0. 0. 0. 0. 0. 0. 0. 0. 0. 0. 0. 0. 2.61105946e-03
      2.17751756e-01 3.34976524e-01 5.83945252e-02 0. 0. 0. 0. 0. 0. 0.
      0. 0. 0. 0. 0. 1.05439276e-01 3.34976524e-01 3.16492528e-01
      3.34976524e-01 0. 0. 0. 0. 0. 0. 0. 0. 0. 0. 0. 0. 7.83317722e-03
      2.03475207e-01 3.34976524e-01 2.70502120e-01 0. 0. 0. 0. 0. 0. 0.
      0. 0. 0. 0. 0. 8.01961720e-02 3.34976524e-01 3.47562402e-01
      1.54677868e-01 7.45506585e-03 0. 0. 0. 0. 0. 0. 0. 0. 0. 0. 0.
      4.32893150e-02 2.14469999e-01 3.00999671e-01 3.47562402e-01
      1.31066456e-01 5.41427471e-02 0. 0. 0. 0. 0. 0. 0. 0. 0. 0. 0.
      5.48041239e-02 3.47562402e-01 1.00234956e-01 0. 0. 0. 0. 0. 0. 0.
      0. 0. 0. 0. 0. 1.18211068e-01 3.11971575e-01 3.47562402e-01
      3.47562402e-01 1.61884293e-01 9.07675922e-02 6.21032389e-03 0. 0.
      0. 0. 0. 0. 0. 0. 0. 6.93014041e-02 2.15242669e-01 1.00978576e-02
      6.78145960e-02 9.11770016e-02 6.25400618e-02 0. 0. 0. 0.
      5.39546320e-03 2.42505893e-01 4.98436987e-02 4.67711017e-02 0. 0.
      0. 0. 1.30604953e-02 1.68677594e-03 4.16785181e-02 3.12700272e-02
      0. 0. 0. 0. 5.32732047e-02 3.85681838e-01 3.85681838e-01
      2.56807327e-01 0. 0. 0. 1.30604953e-02 2.78893728e-02
      6.82774782e-02 1.09976895e-01 1.04845285e-01 7.17352005e-03 0. 0.
      0. 1.61863882e-02 2.41045058e-01 6.82691336e-02 1.13582052e-02 0.
      0. 5.90832555e-04 3.84257198e-03 3.32802385e-02 0. 4.83731292e-02
      5.24226390e-02 3.58675956e-03 0. 0. 0. 3.23727690e-02
      3.85681838e-01 3.85681838e-01 3.85681838e-01 0. 0. 0.
      3.32802385e-02 1.15559972e-03 0. 0. 0. 0. 5.92423491e-02
      2.65981376e-01 3.30180705e-01 4.40631844e-02 0. 0. 0. 0. 0. 0.
      1.15559972e-03 0. 0. 1.00998208e-02 5.30721946e-03 1.23368390e-01
      1.94356859e-01 3.31810296e-01 3.92964929e-01 3.69947329e-02 0. 0.
      0. 0. 0. 0. 0. 3.05171777e-03 0. 0. 0. 0. 5.95312740e-04
      1.15518495e-01 3.92964929e-01 1.53593794e-01 0. 0. 0. 0. 0. 0.
      3.05171777e-03 0. 0. 0. 0. 1.10438652e-02 6.79050758e-02
      3.55674416e-01 3.92964929e-01 1.21686310e-01 0. 0. 0. 0. 0. 0. 0.
      0. 2.59548128e-02 2.03157604e-01 2.19058208e-02 2.22867087e-01
      1.66094884e-01 1.41134903e-01 7.68304393e-02 3.07271536e-03 0. 0.
      0. 0. 0. 0. 0. 1.12961352e-01 3.12996238e-01 3.12996238e-01
      1.09529104e-02 1.31396070e-01 7.14420006e-02 2.44454425e-02 0. 0.
      0. 0. 0. 0. 0. 0. 6.11197688e-02 0. 6.25616359e-03 3.89208458e-02
      0. 1.54169694e-01 2.82693863e-01 3.12996238e-01 3.12996238e-01
      9.21814516e-03 0. 0. 0. 0. 0. 0. 0. 1.21428102e-01 1.24535695e-01
      2.88014203e-01 0. 2.78767675e-01 3.12996238e-01 1.59269080e-01
      1.44319441e-02 0. 0. 0. 0. 0. 0. 0. 1.12348022e-02 3.31375033e-01
      1.26628682e-01 4.78434153e-02 0. 3.76509619e-03 1.95470452e-03 0.
      0. 0. 0. 0. 0. 0. 0. 0. 2.43091807e-01 3.65600199e-01
      2.69162357e-01 0. 0. 0. 0. 0. 0. 0. 0. 0. 0. 0. 0. 0.
      3.19590926e-01 3.65600199e-01 1.23867020e-01 9.02990997e-02 0.
      2.87882071e-02 6.27992153e-02 0. 0. 0. 0. 0. 0. 0. 0. 0.
      9.34147239e-02 3.65600199e-01 2.86074400e-01 2.47068740e-02 0. 0.
      0. 0. 0. 0. 0. 0. 0. 0. 0. 0. 3.37757915e-01 3.10715616e-01
      1.73903659e-01 0. 0. 0. 0. 0. 0. 0. 0. 0. 0. 0. 0. 6.23269007e-03
      2.15308979e-01 3.29985648e-01 2.98607677e-01 0. 0. 0. 0. 0. 0. 0.
      0. 0. 0. 0. 0. 5.29723577e-02 3.25389415e-01 3.29985648e-01
      1.20830476e-01 9.43941996e-03 0. 0. 0. 0. 0. 0. 0. 0. 0. 0. 0.
      1.01946183e-02 3.29985648e-01 3.29985648e-01 2.55488157e-01 0. 0.
      0. 0. 0. 0. 0. 0. 0. 0. 0. 0. 3.38915586e-02 3.29985648e-01
      2.33053416e-01 1.46250099e-01 0. 0. 0. 0. 0. 0. 0. 0. 0. 0. 0. 0.
      1.24612764e-01 2.36437753e-01 3.21563691e-01 2.74573028e-01
      1.13651626e-01 9.56542641e-02 7.47657428e-03 0. 0. 0. 0. 0. 0. 0.
      0. 0. 8.34315792e-02 2.81159878e-01 2.97962040e-01 2.85092264e-01
      0. 0. 0. 0. 0. 0. 0. 0. 0. 0. 0. 0. 4.24813703e-02 2.37553522e-01
      3.21563691e-01 3.21563691e-01 7.16839656e-02 1.41580358e-01
      2.49219127e-03 0. 0. 0. 0. 0. 0. 0. 0. 0. 2.78105233e-02
      3.18842262e-01 2.87884008e-02 4.51353751e-02 5.58152460e-02
      1.20580144e-01 9.42484383e-03 0. 0. 0. 5.91282267e-03
      6.58394694e-02 1.02913298e-01 3.69092524e-02 0. 0. 7.76258239e-04
      6.54092710e-03 3.11670471e-02 0. 2.03957930e-02 6.02900684e-02
      4.71242098e-03 0. 0. 0. 3.21606360e-02 4.06707138e-01
      4.06707138e-01 3.12308133e-01 0. 0. 0. 3.11670471e-02
      6.15185760e-02 5.40782474e-02 6.12129010e-02 1.78473830e-01
      3.14161438e-03 0. 0. 0. 0. 0. 1.07046641e-01 1.05323769e-01 0. 0.
      2.58752756e-04 8.32749158e-03 4.61104661e-02 0. 2.81025078e-02
      8.92369077e-02 1.57080707e-03 0. 0. 0. 2.48296663e-01
      4.06707138e-01 4.06707138e-01 2.30503917e-01 0. 0. 0.
      4.61104661e-02 2.60266615e-03 0. 0. 0. 0. 0. 9.42347497e-02
      3.97255033e-01 6.10279776e-02 0. 0. 0. 0. 0. 0. 2.60266615e-03 0.
      0. 0. 0. 0. 5.36058433e-02 2.68422365e-01 3.97255033e-01
      4.36232127e-02 0. 0. 0. 0. 0. 0. 0. 3.87991592e-03 0. 0. 0. 0. 0.
      2.72968292e-01 3.97255033e-01 2.98705194e-02 0. 0. 0. 0. 0. 0.
      3.87991592e-03 0. 0. 0. 0. 2.11003167e-03 2.04182565e-01
      3.97255033e-01 3.97255033e-01 1.99807566e-02 0. 0. 0. 0. 0. 0. 0.
      0. 0. 0. 0. 7.16296062e-02 2.55201876e-01 3.25355947e-01
      2.36160815e-01 2.77179945e-03 0. 0. 0. 0. 0. 0. 0. 4.49170209e-02
      2.60712057e-02 5.82577772e-02 4.28007916e-02 2.43094146e-01
      3.48613828e-01 1.13483392e-01 1.43879754e-02 0. 0. 0. 0. 0. 0. 0.
      0. 0. 0. 0. 0. 1.08396046e-01 3.48613828e-01 3.48613828e-01
      1.22838497e-01 6.49859547e-04 0. 0. 0. 0. 0. 0. 0. 8.97871237e-03
      4.64737369e-03 0. 1.28402367e-01 3.48613828e-01 3.48613828e-01
      1.82630733e-01 8.15616455e-03 3.36017227e-03 0. 0. 0. 0. 0. 0. 0.
      3.82253259e-01 1.20409809e-01 4.05465066e-02 2.97886878e-02
      1.59023061e-01 1.09026931e-01 0. 0. 0. 0. 0. 0. 0. 0. 0.
      5.46492636e-02 3.82253259e-01 3.82253259e-01 4.20676731e-02 0.
      4.38964516e-02 2.99043790e-03 0. 0. 0. 0. 0. 0. 0. 9.65555944e-03
      5.98117933e-02 2.10177273e-01 1.69489518e-01 3.35891917e-02 0.
      8.93660635e-02 3.82253259e-01 8.28603730e-02 1.34300860e-02
      1.59516837e-02 1.59516837e-02 0. 0. 0. 0. 0. 0. 8.66139159e-02
      3.25007647e-01 1.81165963e-01 1.35043666e-01 0. 1.31689355e-01
      8.97131301e-03 0. 7.97584094e-03 7.97584094e-03 0. 0. 0. 0.
      2.89666783e-02 1.79435372e-01 2.06872612e-01 2.94142306e-01
      1.49694890e-01 1.41961100e-02 0. 0. 0. 0. 0. 0. 0. 0. 0. 0.
      3.25835403e-03 2.44468506e-02 2.32360005e-01 3.73432636e-01
      1.19479597e-01 9.52050742e-03 0. 0. 0. 0. 0. 0. 0. 0. 0. 0. 0.
      8.52566026e-03 3.73432636e-01 2.49080896e-01 1.89840153e-01
      1.02208242e-01 0. 0. 0. 0. 0. 0. 0. 0. 0. 0. 9.77506302e-03
      6.05520606e-02 1.58699170e-01 3.73432636e-01 1.99059397e-01
      6.17446750e-02 0. 0. 0. 0. 0. 0. 0. 0. 0. 0. 0. 2.81747580e-01
      3.73432636e-01 2.89207727e-01 1.96246430e-01 4.78318967e-02 0. 0.
      0. 0. 0. 0. 0. 0. 0. 0. 0. 4.99362941e-04 1.89975008e-01
      3.68551224e-01 3.68551224e-01 1.47054747e-01 1.15282692e-01
      1.82004496e-02 0. 0. 0. 0. 0. 0. 0. 0. 0. 0. 1.90822750e-01
      1.67280212e-01 2.18164146e-01 1.43495679e-01 4.29264717e-02
      4.27806489e-02 0. 0. 0. 0. 0. 0. 0. 0. 0. 1.12562537e-01
      1.16495483e-01 7.67897740e-02 3.68551224e-01 3.68551224e-01
      2.40236953e-01 1.53187811e-01 7.75419101e-02 0. 0. 0. 0. 0. 0. 0.
      0. 0. 4.04027142e-02 2.71072611e-02 6.00677468e-02 5.43090962e-02
      1.23838104e-01 1.95511486e-02 0. 0. 0. 0. 0. 6.06267788e-02
      8.69303942e-02 1.89112723e-02 0. 0. 4.40584868e-03 4.02423292e-02
      0. 2.28945892e-02 6.19190410e-02 9.77557432e-03 0. 0. 0.
      4.36970532e-01 4.36970532e-01 1.21253535e-01 1.73860759e-01
      3.78225371e-02 0. 0. 4.02423292e-02 2.31881393e-03 4.81888428e-02
      5.00275716e-02 9.59582552e-02 7.46207312e-02 8.32964703e-02 0. 0.
      0. 0. 1.51571194e-02 1.33746296e-01 5.92256449e-02 0. 0.
      9.32846044e-04 4.33655530e-02 0. 5.91253070e-03 4.08150367e-02
      3.63226123e-02 4.16482314e-02 0. 0. 4.36970532e-01 4.36970532e-01
      3.03142313e-02 2.67492563e-01 1.18451267e-01 0. 0. 4.33655530e-02
      2.55059311e-03 0. 0. 0. 0. 7.30963610e-03 2.18740910e-01
      3.67556483e-01 5.76213934e-03 0. 0. 0. 0. 0. 0. 2.55059311e-03 0.
      0. 0. 0. 1.87372323e-03 1.07711785e-01 3.67556483e-01
      3.67556483e-01 4.12679883e-03 0. 0. 0. 0. 0. 0. 0. 6.04328001e-03
      0. 0. 0. 2.66175047e-02 1.00933686e-01 3.08749229e-01
      3.67556483e-01 5.41780144e-02 0. 0. 0. 0. 0. 0. 6.04328001e-03 0.
      0. 0. 0. 1.39333261e-02 1.29410312e-01 3.67556483e-01
      3.67556483e-01 0. 0. 0. 0. 0. 0. 0. 0. 0. 0. 2.45314091e-03
      3.60095017e-02 3.86396609e-02 3.35662335e-01 3.35662335e-01
      8.36811438e-02 1.95640241e-04 0. 0. 0. 0. 0. 0. 0. 0. 0.
      8.63445271e-03 1.23647660e-01 2.27818578e-01 2.75011420e-01
      1.54676855e-01 2.32667122e-02 2.32667122e-02 0. 0. 0. 0. 0. 0. 0.
      4.65993881e-02 7.40440339e-02 7.35942274e-03 1.08028509e-01
      3.42271477e-03 3.35662335e-01 3.35662335e-01 2.17864498e-01 0. 0.
      0. 0. 0. 0. 0. 0. 9.31987539e-02 3.35662335e-01 6.34917021e-02
      3.19833249e-01 5.11105619e-02 2.20211625e-01 1.24112040e-01
      6.00980297e-02 6.00980297e-02 0. 0. 0. 0. 0. 0. 0. 2.87784524e-02
      4.93660793e-02 2.30795909e-02 7.95729831e-02 1.56879082e-01
      2.73151007e-02 1.20735951e-02 2.56829578e-02 2.56829578e-02 0. 0.
      0. 0. 0. 0. 2.87784524e-02 6.59665540e-02 1.45272166e-01
      2.23844215e-01 7.41653070e-02 3.29163410e-02 2.24241987e-03 0.
      7.17024971e-03 7.17024971e-03 0. 0. 0. 0. 7.24035129e-03
      4.48506735e-02 6.59665540e-02 2.08163813e-01 2.96691597e-01
      9.09595340e-02 3.52322787e-01 7.05723763e-02 6.77818432e-03
      4.02453169e-03 3.88075374e-02 3.88075374e-02 0. 0. 0. 0. 0. 0.
      3.29145091e-03 3.52322787e-01 3.14700335e-01 3.52322787e-01
      3.50314319e-01 2.46232413e-02 0. 0. 2.39008339e-03 2.39008339e-03
      0. 0. 0. 0. 0. 5.85987382e-02 3.52322787e-01 1.35986149e-01
      2.23737344e-01 2.23301411e-01 1.13293037e-01 1.93108153e-02 0. 0.
      0. 0. 0. 0. 0. 0. 4.18283185e-03 2.59107389e-02 6.08316399e-02
      2.91878939e-01 2.72062927e-01 7.43774772e-02 7.73290843e-02
      3.86216193e-02 0. 0. 0. 0. 0. 0. 0. 2.95408890e-02 6.58907741e-02
      4.12284762e-01 1.63281888e-01 5.89755252e-02 9.71317887e-02
      2.69853383e-01 3.39879155e-01 5.79324365e-02 0. 0. 1.48984855e-02
      1.48984855e-02 0. 0. 0. 0. 0. 1.47717819e-01 2.56325960e-01
      5.58461249e-02 9.51635018e-02 8.22001547e-02 2.31987253e-01
      1.15864858e-01 0. 0. 2.97969654e-02 2.97969654e-02 0. 0. 0.
      8.86226669e-02 1.97672337e-01 2.38932073e-01 3.54793370e-02
      8.10662583e-02 1.84597299e-01 5.97907528e-02 6.65407926e-02
      6.63147569e-02 0. 0. 6.94857538e-03 6.94857538e-03 0. 0. 0.
      7.83875212e-02 4.48571369e-02 1.72278062e-01 4.19240817e-02
      2.28593163e-02 2.16898859e-01 2.50844806e-01 3.33302140e-01
      2.43567169e-01 1.69549525e-01 0. 1.38971480e-02 1.38971480e-02 0.
      0. 0. 3.91937569e-02 1.12632466e-02 0. 0. 1.80971138e-02
      6.17213845e-02 8.46991390e-02 2.80742608e-02 2.79788952e-02 0. 0.
      2.25451589e-02 2.25451589e-02 0. 0. 4.27415147e-02 2.78049439e-01
      1.34571418e-01 6.69976398e-02 5.04972599e-03 7.61977304e-03
      2.94009876e-02 8.24518129e-02 2.75039345e-01 2.68465221e-01
      1.98765844e-01 0. 4.16914411e-02 4.16914411e-02 6.12647496e-02
      3.81146371e-01 1.02460407e-01 3.41585994e-01 3.37897390e-02 0. 0.
      0. 8.85131303e-03 1.91939007e-02 3.63986455e-02 4.41575162e-02
      1.18115045e-01 0. 2.08086363e-04 2.08086363e-04 1.12128826e-02
      8.74942355e-03 7.59268850e-02 1.77522283e-02 0. 0. 0.
      1.51486276e-02 0. 0. 7.95160886e-03 1.78448334e-02 5.90575151e-02
      0. 3.47109526e-01 3.68323535e-01 3.47048193e-01 1.74988434e-02
      1.51853740e-01 3.55044529e-02 0. 0. 1.51486276e-02 0. 0.
      4.09573643e-03 2.43524201e-02 4.35430408e-02 1.38468325e-01 0.
      6.24259061e-04 4.97465469e-02 1.06394194e-01 6.51756376e-02
      3.33232284e-02 9.83888805e-02 0. 0. 0. 1.89069454e-02 0. 0. 0.
      1.16296653e-02 2.55584180e-01 3.68323535e-01 3.68323535e-01
      3.18578392e-01 2.64457136e-01 5.24965301e-02 4.63458151e-02
      4.97631505e-02 0. 0. 1.89069454e-02 4.81927767e-03 0. 0. 0.
      2.90986337e-02 9.30345282e-02 1.25372142e-01 3.04132551e-01
      1.16553046e-01 1.60566956e-01 2.59202905e-02 0. 0. 0. 0.
      4.81927767e-03 0. 0. 0. 0. 1.45493150e-02 8.28894302e-02
      3.04132551e-01 3.04132551e-01 2.86624320e-02 1.36337578e-01
      2.20089480e-02 1.53609350e-01 6.13362435e-03 3.24124545e-02
      1.90071557e-02 0. 3.65574402e-03 0. 0. 0. 9.69954487e-03
      2.87897121e-02 1.99981127e-02 3.04132551e-01 3.04132551e-01
      3.04132551e-01 7.77608752e-02 0. 0. 0. 0. 3.65574402e-03 0. 0. 0.
      0. 4.84977243e-03 2.27903966e-02 1.24349900e-01 2.33224541e-01
      2.10857689e-01 3.04132551e-01 6.60268441e-02 3.04132551e-01
      1.84008721e-02 9.72373560e-02 5.70214577e-02 0. 2.62297150e-02
      4.16776724e-02 1.15175522e-03 1.69065427e-02 0. 1.02627553e-01
      2.03735739e-01 6.43484592e-02 0. 8.26836191e-03 1.33476022e-03
      6.35428801e-02 2.53726845e-03 9.14548039e-02 1.28447726e-01
      5.31750061e-02 1.15256973e-01 2.14419141e-01 2.52115056e-02
      7.64104426e-02 7.03269104e-03 5.13137728e-02 3.65339853e-02
      9.21558961e-03 9.21558961e-03 0. 0. 0. 0. 4.57274020e-02
      1.76449701e-01 3.65513414e-01 8.74323864e-03 1.38925575e-02 0. 0.
      0. 2.36888137e-02 5.66619746e-02 1.00714490e-01 8.60577822e-02
      2.48050857e-02 4.00428008e-03 1.90628633e-01 7.61180464e-03
      2.74364442e-01 3.65513414e-01 1.59525022e-01 2.05879152e-01
      7.14730546e-02 7.05253705e-03 1.21688144e-02 2.34423019e-03
      1.18444059e-02 1.13324961e-02 1.44869506e-01 1.44869506e-01 0. 0.
      0. 0. 1.37182206e-01 3.65513414e-01 3.65513414e-01 1.01947628e-01
      4.87166420e-02 1.05180088e-02 7.78812468e-02 1.26422569e-02 0. 0.
      2.42873840e-03 2.42873840e-03 0. 0. 0. 0. 0. 5.78154577e-03
      3.02022338e-01 4.07947123e-01 2.57278048e-02 2.46347301e-02
      4.86936271e-02 6.32112753e-03 0. 0. 0. 0. 0. 0. 0. 0. 0.
      1.50431078e-02 4.07947123e-01 1.65593341e-01 1.27153257e-02
      1.85867329e-03 2.18751691e-02 4.21408517e-03 0. 0. 6.55552223e-02
      6.55552223e-02 0. 0. 0. 0. 0. 1.73446368e-02 4.07947123e-01
      4.07947123e-01 1.17121749e-02 0. 1.09375836e-02 2.10704259e-03 0.
      0. 7.83718675e-02 7.83718675e-02 0. 0. 0. 0. 0. 5.01436926e-03
      4.07947123e-01 3.29698056e-01 1.03587024e-02 9.61610582e-03
      1.48663092e-02 2.53396435e-03 0. 0. 2.34378455e-03 2.34378455e-03
      0. 0. 0. 0. 0. 2.32385211e-02 1.09694496e-01 4.42202300e-01
      5.41792484e-03 6.47615129e-03 1.01471199e-02 5.06792730e-03 0. 0.
      4.68756817e-03 4.68756817e-03 0. 0. 0. 3.87635408e-03
      8.64618644e-03 1.17057776e-02 1.59101501e-01 4.42202300e-01
      2.76779570e-02 0. 0. 0. 0. 0. 3.70612405e-02 3.70612405e-02 0. 0.
      0. 0. 0. 7.74617307e-03 2.21785605e-01 4.42202300e-01
      1.41013861e-02 1.67382474e-03 0. 0. 0. 0. 8.04352611e-02
      8.04352611e-02 0. 0. 0. 0. 0. 3.49835772e-03 4.42202300e-01
      3.21072370e-01 1.99818169e-03 1.24312351e-02 2.70583027e-04
      2.69663869e-04 0. 0. 1.10008381e-03 1.10008381e-03 0. 0.
      6.27314346e-03 1.58908367e-02 5.49150305e-03 4.39416443e-04
      1.13410942e-01 4.00383025e-01 9.99090844e-04 6.21561706e-03
      7.87547696e-03 8.94567650e-03 6.53042179e-03 0. 1.70131726e-03
      1.70131726e-03 8.99178535e-03 5.59405945e-02 1.50380451e-02
      3.76752056e-02 1.37886975e-03 3.74231376e-02 2.73242235e-01
      4.07624632e-01 6.66060543e-04 4.14374564e-03 0. 0. 0. 0.
      3.21503133e-02 3.21503133e-02 0. 0. 2.09104782e-03 2.09815917e-03
      0. 0. 3.40232819e-01 4.07624632e-01 3.33030242e-04 2.07187259e-03
      0. 0. 0. 0. 6.55840263e-02 6.55840263e-02 2.99726217e-03
      1.86468642e-02 5.01268171e-03 1.09590078e-02 0. 1.12269416e-01
      4.07624632e-01 9.44621786e-02 8.20895582e-02 0. 3.10793752e-03
      6.05014432e-03 1.75785106e-02 0. 9.84317885e-05 2.79561821e-02
      4.65644747e-02 2.62148753e-02 7.43317418e-03 5.53395376e-02 0.
      1.00735143e-01 1.49593264e-01 3.78372930e-02 1.64179102e-01 0. 0.
      1.47638225e-03 2.25361049e-01 2.80128568e-01 1.64194405e-01
      6.40937462e-02 8.60319957e-02 8.27753730e-03 3.35364603e-03
      2.73055900e-02 0. 5.03675714e-02 6.25831485e-02 2.80128568e-01
      2.46268675e-01 0. 0. 0. 0. 0. 1.69143394e-01 1.78429320e-01
      1.37534710e-02 7.35870283e-03 2.47772457e-03 1.84465125e-02 0.
      2.80128568e-01 2.80128568e-01 9.36093926e-02 2.80128568e-01 0. 0.
      0. 2.80128568e-01 2.80128568e-01 1.97274134e-01 2.15845972e-01
      2.51412876e-02 0. 1.11788209e-03 9.10186302e-03 0. 1.51102707e-01
      1.67846948e-01</_>
    <_>
      9.47883874e-02 5.11386879e-02 1.95209291e-02 5.37455119e-02 0. 0.
      0. 3.02609324e-01 3.55967194e-01 5.15444688e-02 0. 0. 0. 0.
      3.36548612e-02 4.25304472e-02 2.61265844e-01 6.52662739e-02
      9.76046361e-03 2.68727522e-02 0. 0. 0. 9.23305750e-03
      9.23305750e-03 0. 0. 0. 0. 0. 2.18528435e-01 2.28182435e-01
      1.17492653e-01 8.76185670e-02 5.85627854e-02 1.94219679e-01
      6.90120235e-02 3.70095931e-02 0. 6.22470826e-02 3.55967194e-01
      3.37751061e-01 0. 0. 0. 0. 1.12182880e-02 1.97247379e-02
      3.55967194e-01 2.04143941e-01 1.69327006e-01 1.70108438e-01
      8.38126466e-02 1.85047965e-02 0. 0. 0. 0. 0. 0. 0. 0.
      7.28428066e-02 1.78183734e-01 2.85748601e-01 2.90367496e-03 0. 0.
      0. 0. 0. 2.76262383e-03 2.76262383e-03 0. 0. 0. 0. 0.
      6.02778271e-02 2.32186869e-01 3.56444478e-01 1.18200488e-01 0. 0.
      0. 0. 0. 5.86736528e-03 5.86736528e-03 0. 0. 0. 0. 0. 0.
      2.54074126e-01 3.56444478e-01 1.13980509e-01 5.24043329e-02
      1.24214068e-02 3.60658788e-03 0. 0. 0. 0. 0. 0. 0. 0. 0.
      2.00926084e-02 3.56444478e-01 3.56444478e-01 3.56444478e-01 0. 0.
      0. 0. 0. 0. 0. 0. 0. 0. 0. 0. 0. 3.56444478e-01 3.49706680e-01
      1.29679218e-01 0. 0. 0. 0. 0. 4.41413932e-03 4.41413932e-03 0. 0.
      0. 0. 0. 0. 1.50308564e-01 3.49706680e-01 5.16004339e-02 0. 0. 0.
      0. 0. 1.15129426e-02 1.15129426e-02 0. 0. 0. 0. 0. 0.
      3.49706680e-01 3.49706680e-01 3.49706680e-01 0. 0. 0. 0. 0. 0. 0.
      0. 0. 0. 0. 0. 0. 2.58667052e-01 3.49706680e-01 1.76516518e-01 0.
      0. 0. 0. 0. 0. 0. 0. 0. 0. 0. 0. 0. 3.49706680e-01 2.73481309e-01
      4.68298681e-02 0. 0. 0. 0. 0. 7.54869357e-03 7.54869357e-03 0. 0.
      0. 0. 0. 0. 2.82473922e-01 3.43690187e-01 9.36597213e-02 0. 0. 0.
      0. 0. 7.75370887e-03 7.75370887e-03 0. 0. 0. 0. 0. 0.
      3.43690187e-01 3.43690187e-01 1.71182603e-01 0. 0. 0. 0. 0. 0. 0.
      0. 0. 0. 0. 0. 0. 3.43690187e-01 3.43690187e-01 3.04535747e-01 0.
      0. 0. 0. 0. 0. 0. 0. 0. 0. 0. 0. 0. 3.43690187e-01 2.66843826e-01
      2.07682345e-02 0. 0. 0. 0. 0. 4.16405126e-03 4.16405126e-03 0. 0.
      0. 0. 0. 8.47757980e-03 3.57359618e-01 3.57359618e-01
      3.19594145e-02 0. 0. 0. 0. 0. 1.00162243e-02 1.00162243e-02 0. 0.
      0. 0. 0. 1.69551577e-02 3.57359618e-01 3.57359618e-01
      8.18340257e-02 0. 0. 0. 0. 0. 0. 0. 0. 0. 0. 0. 0. 2.82586017e-03
      3.57359618e-01 3.57359618e-01 1.47426635e-01 2.76373439e-02 0. 0.
      0. 0. 0. 0. 0. 0. 0. 0. 0. 5.65171940e-03 3.57359618e-01
      2.19476774e-01 1.73244590e-03 0. 0. 0. 0. 0. 5.46598947e-03
      5.46598947e-03 0. 0. 0. 0. 8.81265029e-02 1.50842769e-02
      3.32591951e-01 1.69987574e-01 0. 0. 0. 5.03928512e-02
      9.58977044e-02 0. 2.14058086e-02 2.14058086e-02 0. 0. 0.
      1.34741351e-01 2.43003860e-01 2.83303484e-02 3.23764533e-01
      3.32591951e-01 3.02082300e-02 6.97024241e-02 0. 0. 0. 0. 0. 0. 0.
      0. 0. 0. 2.64379531e-01 5.40072955e-02 3.10790271e-01
      1.70231238e-01 5.60200773e-03 3.48512046e-02 0. 1.67976171e-02
      3.19659039e-02 0. 0. 0. 0. 0. 0. 3.32591951e-01 3.32591951e-01
      1.07401833e-01 2.35290721e-01 4.49819714e-02 2.91528758e-02
      2.15038434e-02 1.02764472e-01 9.11414772e-02 5.67751899e-02
      1.26949931e-03 4.01466899e-03 3.72632504e-01 3.72632504e-01 0. 0.
      0. 0. 0. 1.17905959e-02 2.52515942e-01 1.12774909e-01
      1.95704699e-01 1.59578472e-01 1.11158855e-01 2.83875912e-02
      6.34749653e-04 7.33515397e-02 6.81902692e-02 0. 0. 0. 0. 0. 0.
      4.21861708e-02 2.31227968e-02 0. 0. 1.45198498e-02 3.03804949e-02
      3.99865620e-02 3.55021581e-02 4.30661142e-02 3.72632504e-01
      3.72632504e-01 1.45233929e-01 0. 0. 0. 0. 2.31227968e-02
      4.23935521e-03 1.81563888e-02 6.16509281e-02 7.47648329e-02
      3.83083336e-02 4.78075221e-02 2.50881672e-01 3.17992419e-01
      2.04570815e-01 4.05240245e-02 3.16209421e-02 0. 0. 0. 0. 0.
      3.55095744e-01 2.21156895e-01 1.18345901e-01 6.79118559e-02
      8.71186983e-03 0. 0. 3.63447294e-02 6.67861709e-03 0. 0. 0. 0. 0.
      0. 1.90167308e-01 3.55095744e-01 3.53652596e-01 1.20389521e-01
      2.19758805e-02 8.77497368e-04 0. 0. 0. 0. 0. 0. 0. 0. 0. 0.
      3.55095744e-01 5.56268804e-02 1.37217209e-01 1.23081744e-01
      1.39841959e-01 7.58394320e-03 1.03689954e-01 1.49481967e-01
      1.33623019e-01 2.00358499e-02 0. 0. 0. 0. 0. 0. 1.00064762e-02
      2.14460507e-01 2.84575701e-01 3.55095744e-01 6.59276322e-02
      2.63249222e-03 5.18449694e-02 2.51759831e-02 0. 0. 0. 0. 0. 0. 0.
      0. 6.41042218e-02 3.27095419e-01 2.77895004e-01 8.19652602e-02 0.
      0. 0. 0. 0. 0. 0. 0. 0. 0. 0. 0. 1.71502292e-01 3.27095419e-01
      1.70234159e-01 5.36641553e-02 0. 0. 0. 0. 0. 0. 0. 0. 0. 0. 0.
      1.89817287e-02 3.27095419e-01 1.21036068e-01 2.53850698e-01
      3.27095419e-01 0. 0. 0. 0. 0. 0. 0. 0. 0. 0. 0. 0. 2.55758390e-02
      3.14591020e-01 3.09923232e-01 1.95331842e-01 0. 0. 0. 0. 0. 0. 0.
      0. 0. 0. 0. 5.72659820e-02 3.27095419e-01 3.43911111e-01
      1.66224092e-01 1.98428589e-03 0. 0. 0. 0. 0. 0. 0. 0. 0. 0. 0.
      5.30822985e-02 2.72547901e-01 3.43911111e-01 2.51115292e-01 0. 0.
      0. 0. 0. 0. 0. 0. 0. 0. 0. 0. 2.66988259e-02 3.43911111e-01
      2.69767493e-01 1.15630686e-01 5.95285743e-03 0. 0. 0. 0. 0. 0. 0.
      0. 0. 0. 0. 1.60144016e-01 2.79518574e-01 3.43911111e-01
      2.00596303e-01 0. 0. 0. 0. 0. 0. 0. 0. 0. 0. 0. 0. 8.05450305e-02
      3.43911111e-01 3.50481838e-01 1.06102310e-01 1.75595041e-02 0. 0.
      0. 0. 0. 0. 0. 0. 0. 0. 0. 4.09136323e-04 3.45141768e-01
      3.50481838e-01 3.28108579e-01 1.18067592e-01 0. 0. 0. 0. 0. 0. 0.
      0. 0. 0. 0. 2.04568147e-04 2.62052238e-01 2.94611961e-01
      1.83200285e-01 5.26785143e-02 0. 0. 0. 0. 0. 0. 0. 0. 0. 0. 0.
      1.22740888e-03 2.68164247e-01 2.20885411e-01 3.50481838e-01
      2.20141321e-01 0. 0. 0. 0. 0. 0. 0. 0. 0. 0. 0. 6.13704440e-04
      1.21367641e-01 2.19783396e-01 7.93861002e-02 1.50758848e-01
      1.57497777e-03 3.94414142e-02 0. 0. 0. 0. 0. 0. 0. 0.
      1.18139759e-01 3.69985290e-02 1.22743145e-01 7.56943002e-02
      1.19555667e-02 7.43779764e-02 3.14995507e-03 7.88828135e-02 0. 0.
      0. 0. 0. 8.64172131e-02 1.96196571e-01 3.26283067e-01
      3.26283067e-01 7.39970431e-02 1.69064090e-01 2.27517653e-02
      1.89934552e-01 2.05118626e-01 4.72493330e-03 1.18324235e-01
      1.07807972e-01 2.22184299e-03 0. 0. 0. 0. 0. 0. 0. 6.00303942e-03
      2.23535746e-02 6.99630827e-02 2.69796662e-02 9.95549560e-02
      9.44986474e-03 2.36648425e-01 2.15615913e-01 4.44368506e-03 0. 0.
      3.26283067e-01 2.82637864e-01 3.26283067e-01 2.08351701e-01
      7.07819387e-02 1.20060770e-02 1.11887343e-01 1.11844037e-02 0. 0.
      0. 0. 6.24825759e-03 5.72023951e-02 9.67253149e-02 3.17551821e-01
      3.36128384e-01 1.37747005e-01 0. 0. 0. 0. 1.11844037e-02 0. 0. 0.
      9.32706892e-03 7.79941380e-02 6.71222359e-02 2.88921118e-01
      1.59697935e-01 9.00189802e-02 5.95774390e-02 2.99908556e-02 0. 0.
      0. 0. 0. 6.00828556e-03 0. 0. 0. 0. 0. 1.33524433e-01
      3.36128384e-01 3.36128384e-01 3.36128384e-01 4.59156632e-02 0. 0.
      0. 0. 6.00828556e-03 0. 0. 0. 0. 2.57005662e-01 1.37097389e-01
      3.36128384e-01 1.74024671e-01 1.40266657e-01 1.08980715e-01
      9.99695249e-03 0. 0. 0. 0. 0. 0. 5.32774068e-02 6.84915632e-02
      9.93235335e-02 1.24811925e-01 1.79807931e-01 2.02703550e-01
      7.32929185e-02 7.33733131e-03 0. 0. 0. 0. 0. 0. 0. 6.13782974e-03
      2.08826274e-01 3.60723794e-01 1.60196036e-01 5.66481166e-02
      7.68894479e-02 3.31599377e-02 0. 0. 0. 0. 0. 0. 0. 0. 0. 0.
      1.28420191e-02 3.41375098e-02 2.67309517e-01 3.60723794e-01
      2.55219430e-01 2.51683056e-01 4.51449007e-02 0. 0. 0. 0. 0. 0. 0.
      0. 4.13091443e-02 1.37464002e-01 3.60723794e-01 3.60723794e-01
      2.29540661e-01 8.85662064e-02 1.10533135e-02 0. 0. 0. 0. 0. 0. 0.
      0. 0. 2.41013095e-02 3.08583230e-01 3.49771261e-01 1.96661502e-02
      1.51671586e-03 0. 0. 0. 0. 0. 0. 0. 0. 0. 0. 0. 2.60216802e-01
      3.49771261e-01 1.57175675e-01 0. 0. 0. 0. 0. 0. 0. 0. 0. 0. 0.
      4.01348807e-02 2.04282239e-01 1.15643799e-01 3.49771261e-01
      3.27182323e-01 8.41875523e-02 4.55014687e-03 0. 0. 0. 0. 0. 0. 0.
      0. 0. 0. 0. 2.99799234e-01 3.49771261e-01 1.54559717e-01
      1.58451110e-01 0. 0. 0. 0. 0. 0. 0. 0. 0. 0. 4.33832332e-02
      8.31010491e-02 2.00005278e-01 8.68075415e-02 4.12553037e-03 0. 0.
      0. 0. 0. 0. 0. 0. 0. 0. 0. 1.28029689e-01 3.12511951e-01
      3.28005493e-01 1.95514828e-01 5.66341169e-02 0. 0. 0. 0. 0. 0. 0.
      0. 0. 0. 0. 1.02261029e-01 2.74433553e-01 2.26151064e-01
      1.26031190e-01 1.09494673e-02 5.94195016e-02 0. 0. 0. 0. 0. 0. 0.
      0. 0. 0. 2.48319522e-01 3.28005493e-01 2.22881228e-01
      2.58212388e-01 1.69902325e-01 0. 0. 0. 0. 0. 0. 0. 0. 0. 0. 0.
      3.28005493e-01 3.28005493e-01 3.16227376e-01 2.10667059e-01
      9.83888060e-02 0. 0. 0. 0. 0. 0. 0. 0. 0. 0. 0. 3.45871365e-03
      1.32749200e-01 2.65545189e-01 3.49580765e-01 1.73623219e-01
      9.20739491e-03 0. 0. 0. 0. 0. 0. 0. 0. 0. 0. 2.58448330e-04
      8.73344839e-02 2.55936325e-01 1.98145434e-01 2.99545467e-01 0. 0.
      0. 0. 0. 0. 0. 0. 0. 0. 0. 6.35398254e-02 1.59280658e-01
      3.25767577e-01 3.49580765e-01 3.49580765e-01 2.76221856e-02 0. 0.
      0. 0. 0. 0. 0. 0. 0. 0. 0. 1.37960315e-01 2.24765912e-02
      1.48222655e-01 1.57578081e-01 1.68421138e-02 6.83112070e-02
      1.79740861e-01 2.98864953e-03 0. 0. 0. 0. 0. 0. 0. 0.
      1.58615655e-03 7.97992796e-02 2.36533750e-02 7.76654258e-02
      1.10717006e-02 1.36622384e-01 3.25986445e-01 5.97729767e-03
      2.95686442e-02 1.86421633e-01 3.25986445e-01 1.28415883e-01
      2.20129058e-01 0. 0. 0. 7.97992796e-02 2.80604400e-02
      1.25534728e-01 3.09830159e-01 9.42748189e-02 1.21059082e-01
      1.52516320e-01 9.96216550e-04 0. 0. 0. 0. 0. 0. 0. 0.
      4.75846929e-03 1.19103923e-01 1.54309077e-02 1.32496953e-01
      1.20712034e-01 2.42118120e-01 3.05032581e-01 1.99243287e-03
      8.87059346e-02 3.25986445e-01 2.73654848e-01 1.04857665e-02 0. 0.
      0. 0. 1.19103923e-01 1.60532689e-03 0. 0. 0. 0. 6.73584756e-04
      9.24324840e-02 3.26828450e-01 3.09172392e-01 3.08569849e-01 0. 0.
      0. 0. 0. 1.60532689e-03 0. 0. 0. 0. 8.01067352e-02 5.24647832e-02
      3.26828450e-01 1.75003022e-01 6.77048936e-02 7.15216026e-02 0. 0.
      0. 0. 0. 0. 1.90762244e-03 0. 0. 0. 0. 2.91398708e-02
      1.56085119e-01 1.12714335e-01 3.26828450e-01 3.26828450e-01
      2.28108063e-01 0. 0. 0. 0. 1.90762244e-03 0. 0. 0. 0.
      7.25208363e-03 1.19068302e-01 3.26828450e-01 2.67278045e-01
      1.68525904e-01 9.88828167e-02 0. 0. 0. 0. 0. 0. 0. 0.
      1.55748045e-02 1.38507977e-01 2.37402558e-01 1.58392042e-01
      2.27895319e-01 7.55102560e-02 0. 0. 0. 0. 0. 0. 0. 0.
      2.47518830e-02 4.55544032e-02 2.77084231e-01 3.15486878e-01
      1.79396614e-01 8.52327347e-02 2.16440931e-02 0. 0. 0. 0. 0. 0. 0.
      0. 0. 0. 0. 5.19160228e-03 9.87519324e-02 2.10978836e-01
      3.15486878e-01 3.15486878e-01 1.82035640e-01 0. 0. 0. 0. 0. 0. 0.
      0. 6.74287230e-03 1.07140774e-02 2.77980328e-01 3.15486878e-01
      3.15486878e-01 2.17063993e-01 9.65234116e-02 0. 0. 0. 0. 0. 0. 0.
      0. 0. 9.34355408e-02 3.25044155e-01 2.31909961e-01 1.08446918e-01
      1.31513523e-02 1.69857719e-03 0. 0. 0. 0. 0. 0. 0. 0.
      7.28223938e-03 4.73611876e-02 1.85187340e-01 3.47119421e-01
      1.34130746e-01 2.04061568e-01 0. 0. 0. 0. 0. 0. 0. 0. 0. 0.
      2.91851182e-02 1.15249142e-01 1.28627628e-01 9.65090320e-02
      3.47119421e-01 2.65814424e-01 4.53667790e-02 5.09573147e-03 0. 0.
      0. 0. 0. 0. 0. 0. 2.18467191e-02 1.42083570e-01 3.47119421e-01
      2.88709342e-01 2.15352371e-01 1.13760605e-01 0. 0. 0. 0. 0. 0. 0.
      0. 0. 0. 4.36934270e-02 2.84167081e-01 2.00322658e-01
      1.00107804e-01 5.25360554e-02 8.93342420e-02 0. 0. 0. 0. 0. 0. 0.
      0. 0. 0. 1.43055797e-01 1.72331139e-01 2.08348170e-01
      1.35602608e-01 8.11061561e-02 7.31730042e-03 0. 0. 0. 0. 0. 0. 0.
      0. 0. 0. 3.54056746e-01 3.54056746e-01 3.54056746e-01
      1.37234136e-01 1.32747948e-01 6.88036904e-02 0. 0. 0. 0. 0. 0. 0.
      0. 0. 0. 2.81450916e-02 9.35465172e-02 3.54056746e-01
      2.76673615e-01 2.27815941e-01 2.19519008e-02 0. 0. 0. 0. 0. 0. 0.
      0. 0. 0. 1.02645189e-01 3.54056746e-01 1.54643893e-01
      1.03781529e-01 1.34283811e-01 0. 0. 0. 0. 0. 0. 0. 0. 0. 0. 0.
      5.76970167e-02 1.93796188e-01 1.47772491e-01 2.75425643e-01
      3.19048762e-01 1.19572893e-01 0. 0. 0. 0. 0. 0. 0. 0. 0. 0.
      3.09361261e-04 7.82788694e-02 2.81730145e-01 2.49809474e-01
      1.17204435e-01 0. 0. 0. 0. 0. 0. 0. 0. 0. 0. 0. 2.00656168e-02
      3.19048762e-01 3.19048762e-01 3.19048762e-01 3.19048762e-01
      3.19048762e-01 2.88615171e-02 0. 0. 0. 0. 0. 0. 0. 0. 0.
      9.28083784e-04 1.32606685e-01 9.53553803e-03 7.15451464e-02
      2.79326469e-01 1.78427443e-01 8.38016123e-02 3.52040492e-02 0. 0.
      0. 0. 0. 0. 0. 0. 0. 1.60799152e-03 8.14217925e-02 1.05137071e-02
      1.18237704e-01 2.28328437e-01 1.67603180e-01 7.04080835e-02 0.
      2.99756881e-02 3.21375489e-01 2.51752675e-01 4.26094718e-02 0. 0.
      0. 0. 8.14217925e-02 1.63006224e-02 5.33794165e-02 2.56163597e-01
      3.21375489e-01 1.54112875e-01 0. 0. 0. 0. 0. 0. 0. 0. 0. 0.
      4.44671081e-04 7.59022012e-02 3.50456964e-03 1.12250060e-01
      3.21375489e-01 2.21942127e-01 0. 0. 0. 1.11982442e-01
      3.21375489e-01 3.21375489e-01 0. 0. 0. 0. 7.59022012e-02
      8.17670138e-04 0. 0. 0. 0. 2.80768182e-02 7.67386705e-02 0.
      3.12251300e-01 3.12251300e-01 2.39799827e-01 0. 0. 0. 0.
      8.17670138e-04 0. 0. 0. 0. 2.07082112e-03 1.25672281e-01
      3.12251300e-01 7.32053518e-02 1.69691175e-01 2.54513528e-02 0. 0.
      0. 0. 0. 0. 1.14314829e-03 0. 0. 0. 0. 3.62638459e-02
      1.28977805e-01 0. 3.12251300e-01 3.12251300e-01 2.52190083e-01 0.
      0. 0. 0. 1.14314829e-03 0. 0. 1.25294523e-02 4.35994156e-02
      1.52802899e-01 3.03566635e-01 3.12251300e-01 1.09034162e-02
      3.12251300e-01 1.89940296e-02 0. 0. 0. 0. 0. 0. 0. 0. 0.
      6.23857304e-02 1.22993425e-01 2.64675438e-01 2.60041952e-01
      5.54310679e-02 0. 0. 0. 0. 0. 0. 0. 0. 5.21350093e-02
      5.93313724e-02 1.42251149e-01 2.44476587e-01 2.36659944e-01
      1.30229264e-01 3.88036259e-02 0. 0. 0. 0. 0. 0. 0. 0. 0. 0. 0.
      6.47124574e-02 2.91149646e-01 2.83911467e-01 2.91149646e-01
      2.10798293e-01 8.25606193e-03 0. 0. 0. 0. 0. 0. 0. 0.
      2.18456402e-01 2.30623186e-01 2.91149646e-01 2.91149646e-01
      2.91149646e-01 1.49972618e-01 8.23082030e-03 0. 0. 0. 0. 0. 0. 0.
      0. 0. 1.35827243e-01 1.43629193e-01 1.89907074e-01 1.03439674e-01
      2.18765158e-02 1.10421900e-03 0. 0. 0. 0. 0. 0. 0. 0.
      4.73407283e-03 3.07887848e-02 3.95391643e-01 2.36229897e-01
      7.59601370e-02 1.95885263e-02 0. 0. 0. 0. 0. 0. 0. 0. 0. 0.
      9.46814381e-03 6.15775548e-02 3.95391643e-01 3.95391643e-01
      2.32469499e-01 4.72142622e-02 2.27863733e-02 0. 0. 0. 0. 0. 0. 0.
      0. 0. 0. 0. 3.95391643e-01 3.95391643e-01 6.54343516e-02
      4.09285445e-03 0. 0. 0. 0. 0. 0. 0. 0. 0. 1.23270079e-02
      1.98142044e-03 0. 3.70515138e-01 9.21570063e-02 2.69876234e-02
      9.09230951e-03 0. 0. 0. 0. 0. 0. 0. 0. 0. 0. 5.13944367e-04
      9.90826264e-02 3.57745409e-01 1.74632624e-01 1.42600223e-01
      4.54615429e-03 0. 0. 0. 0. 0. 0. 0. 0. 0. 0. 1.79432594e-04
      2.52309084e-01 3.99699122e-01 2.37641737e-01 1.22385398e-02 0. 0.
      0. 0. 0. 0. 0. 0. 0. 0. 3.11314762e-02 5.00401529e-03
      1.93633005e-01 3.99699122e-01 1.35447308e-01 6.42356202e-02 0. 0.
      0. 0. 0. 0. 0. 0. 0. 0. 1.55657362e-02 2.50200741e-03
      3.99699122e-01 1.69232219e-01 1.79172754e-01 1.09550387e-01 0. 0.
      0. 0. 0. 0. 0. 0. 0. 0. 0. 4.02227830e-04 7.84682706e-02
      2.53029346e-01 2.29094714e-01 2.34596327e-01 9.89020541e-02
      2.24942230e-02 0. 0. 0. 0. 0. 0. 0. 0. 0. 2.01113900e-04
      3.45764905e-02 4.12298739e-01 1.88978136e-01 1.34121925e-01 0. 0.
      0. 0. 0. 0. 0. 0. 0. 0. 0. 0. 2.31005728e-01 4.12298739e-01
      2.54885316e-01 2.20841601e-01 1.82708595e-02 7.49807386e-03 0. 0.
      0. 0. 0. 0. 0. 0. 0. 5.28186783e-02 4.12298739e-01 1.77278854e-02
      3.40418294e-02 9.69998464e-02 1.33415997e-01 1.13150112e-01
      3.32571641e-02 0. 0. 0. 0. 0. 0. 0. 0. 0. 3.64711508e-04
      2.76630316e-02 0. 3.17767113e-02 1.12306669e-01 1.55531898e-01
      6.65143132e-02 0. 0. 0. 3.11336815e-01 2.82916188e-01 0. 0. 0. 0.
      2.76630316e-02 1.05248779e-01 3.44177820e-02 8.52248222e-02
      4.08991724e-02 4.56960462e-02 9.97714847e-02 0. 0. 0. 0. 0. 0. 0.
      0. 3.04141134e-01 3.11336815e-01 3.08466535e-02 0. 3.34528685e-02
      1.94895342e-01 3.11336815e-01 1.99542940e-01 0. 0. 0.
      3.11336815e-01 2.08065391e-01 0. 0. 0. 3.11336815e-01
      3.11336815e-01 2.45618522e-02 9.36340764e-02 0. 0. 0.
      1.00807240e-02 5.00368625e-02 0. 2.94048280e-01 1.99016944e-01
      8.74864906e-02 0. 1.43547282e-01 5.10399565e-02 0. 1.46742770e-03
      4.61888462e-02 1.87268108e-01 8.67583510e-03 3.01897731e-02
      1.02700435e-01 1.90883964e-01 1.60487011e-01 0. 1.53215021e-01
      1.04934294e-02 0. 0. 7.17736334e-02 2.55199764e-02 2.75142230e-02
      1.28174163e-02 7.22497925e-02 2.80902207e-01 0. 0. 0.
      2.04803748e-03 1.26866587e-02 7.81465694e-02 1.71640500e-01
      1.21464737e-01 1.50533095e-01 0. 2.94048280e-01 1.53119862e-01 0.
      2.96651968e-03 1.38566524e-01 2.94048280e-01 2.89194472e-03
      1.00632561e-02 3.38348001e-02 2.60480672e-01 1.07192934e-01
      2.94048280e-01 2.94048280e-01 3.39969341e-03 0. 0. 2.15320900e-01
      7.65599236e-02 8.25426653e-02 3.84522453e-02 6.40034396e-03
      1.29067702e-02 2.78199092e-02 1.54888362e-01 6.96073100e-02
      1.08277641e-01 3.52980718e-02 0. 0. 0. 0. 0. 0. 0. 8.82270411e-02
      1.40737742e-01 1.34481251e-01 4.39006127e-02 1.30434260e-01
      1.64567053e-01 3.80254127e-02 1.56023083e-02 0. 0. 0. 0. 0. 0. 0.
      0. 4.41135168e-02 3.59881073e-01 1.92010328e-02 3.87203097e-02
      9.27330367e-03 5.02565056e-02 1.74029879e-02 1.20811157e-01
      4.02129441e-02 3.56803358e-01 3.56803358e-01 0. 0. 0. 0. 0.
      2.64681131e-01 3.59881073e-01 2.76223451e-01 7.54175754e-03
      4.30497788e-02 5.21097854e-02 2.99385400e-03 0. 0. 1.13189243e-01
      1.13189243e-01 0. 0. 0. 0. 0. 1.32340550e-01 3.59881073e-01
      3.52679431e-01 5.37709370e-02 4.86866497e-02 6.68652821e-03
      2.07840814e-03 0. 0. 0. 0. 0. 0. 0. 0. 0. 0. 1.62983611e-01
      4.08104509e-01 2.04958647e-01 1.18310051e-02 0. 0. 0. 0. 0. 0. 0.
      0. 0. 0. 3.77047155e-03 6.06058573e-04 5.87637946e-02
      4.08104509e-01 6.76037744e-03 1.50818545e-02 2.07078550e-03
      1.72329805e-04 0. 0. 2.23481879e-02 2.23481879e-02 0. 0. 0. 0. 0.
      0. 4.08104509e-01 4.08104509e-01 3.02900136e-01 3.37015372e-03 0.
      0. 0. 0. 4.32233438e-02 4.32233438e-02 0. 0. 0. 0. 1.25682401e-03
      2.02019510e-04 1.76291376e-01 2.14391693e-01 2.80599117e-01
      3.85861588e-03 0. 0. 0. 0. 0. 0. 0. 0. 0. 0. 9.81525704e-03
      1.57768605e-03 2.00006347e-02 3.78898799e-01 3.78898799e-01
      2.09072186e-03 0. 0. 0. 0. 0. 0. 0. 0. 0. 0. 4.90762806e-03
      7.88842968e-04 8.29834044e-02 3.78898799e-01 3.78898799e-01
      1.28620537e-03 0. 0. 0. 0. 2.16934215e-02 2.16934215e-02 0. 0. 0.
      0. 3.27175227e-03 5.25895332e-04 6.56112470e-03 3.78898799e-01
      3.78898799e-01 0. 0. 0. 0. 0. 2.64725089e-02 2.64725089e-02 0. 0.
      0. 0. 1.63587602e-03 2.62947637e-04 1.72907505e-02 3.85291547e-01
      1.54406562e-01 1.02031128e-02 0. 0. 0. 0. 0. 0. 0. 0. 0. 0. 0. 0.
      7.12504834e-02 3.85291547e-01 9.43310559e-02 1.59185398e-02
      9.98628442e-04 0. 0. 0. 0. 0. 0. 0. 0. 0. 0. 1.76519193e-02
      3.52450281e-01 3.85291547e-01 3.85291547e-01 0. 0. 0. 0. 0.
      7.29279313e-03 7.29279313e-03 0. 0. 0. 0. 0. 0. 2.30977051e-02
      3.85291547e-01 2.22682312e-01 0. 0. 0. 0. 0. 1.48539282e-02
      1.48539282e-02 0. 0. 0. 0. 0. 5.88397356e-03 2.01226458e-01
      2.00625092e-01 5.53447613e-03 8.78034718e-03 2.74940953e-03
      1.09492906e-03 1.21695036e-02 0. 0. 0. 0. 0. 0. 0. 8.29697326e-02
      1.63083240e-01 2.96227247e-01 5.10231853e-02 0. 4.08037286e-03
      7.62066767e-02 1.29565611e-01 2.43390016e-02 0. 0. 0.
      3.98860760e-02 1.69435348e-02 0. 0. 1.65939450e-01 2.96227247e-01
      2.89780915e-01 2.96227247e-01 6.85018534e-03 0. 0. 0. 0. 0.
      4.30520028e-02 4.30520028e-02 0. 0. 0. 0. 2.48909235e-01
      1.33448675e-01 2.96227247e-01 1.29887521e-01 0. 0. 2.49439944e-02
      4.24585864e-02 0. 0. 1.82733342e-01 1.82733342e-01 0. 0. 0. 0.
      2.96227247e-01 2.96227247e-01 2.96227247e-01</_>
    <_>
      2.65153855e-01 1.68758184e-01 0. 8.21174532e-02 2.65153855e-01
      1.07484926e-02 0. 3.83302942e-02 3.83302942e-02 0. 0. 0. 0. 0.
      5.01572974e-02 1.44569978e-01 1.32379726e-01 9.82373059e-02
      3.28275445e-03 1.64234892e-01 2.65153855e-01 1.35900965e-02
      7.96950422e-03 2.65153855e-01 2.65153855e-01 0. 0. 0. 0.
      1.18251545e-02 1.31232858e-01 8.61943215e-02 1.08188413e-01
      2.65153855e-01 0. 7.95809999e-02 2.65153855e-01 1.90893948e-01
      4.96172830e-02 0. 0. 0. 6.20316342e-02 5.58118382e-03 0. 0.
      1.50471911e-01 1.44203886e-01 5.24597913e-02 2.65153855e-01
      9.84826311e-03 8.08492228e-02 1.31254777e-01 4.07702886e-02
      2.39085145e-02 1.09545052e-01 4.47746255e-02 4.77059670e-02
      1.65387079e-01 1.11623667e-02 0. 3.94171802e-03 2.65153855e-01
      2.16386303e-01 7.71089504e-03 1.69769213e-01 8.01548809e-02
      2.49159001e-02 5.82784116e-02 1.40630342e-02 8.24684370e-03
      3.07724297e-01 2.65255213e-01 0. 0. 0. 0. 8.34658220e-02
      2.33450025e-01 1.06758457e-02 3.07724297e-01 1.92814544e-01
      1.25553593e-01 0. 0. 0. 0. 7.34277517e-02 7.34277517e-02 0. 0. 0.
      0. 4.17329073e-02 1.09115690e-01 3.07724297e-01 2.31326818e-02
      3.07724297e-01 8.85069966e-02 8.30530096e-03 1.94261372e-02
      4.21891026e-02 2.47405339e-02 1.13357231e-01 4.63327914e-02
      7.60603920e-02 1.07103713e-01 3.46777355e-03 4.44317237e-02
      2.78219413e-02 1.18399657e-01 3.20275351e-02 3.07724297e-01
      3.07724297e-01 7.27455467e-02 0. 0. 0. 0. 0. 0. 1.56400595e-02
      3.79345044e-02 8.66684616e-02 8.88634324e-02 1.39109688e-02
      3.63719016e-02 3.07724297e-01 3.47323865e-01 3.18053812e-02
      5.48809906e-03 0. 0. 0. 0. 2.15076748e-02 2.15076748e-02 0. 0. 0.
      0. 0. 0. 2.66856372e-01 3.47323865e-01 1.07484780e-01 0. 0. 0. 0.
      0. 4.06360850e-02 4.06360850e-02 0. 0. 7.92412274e-03
      3.47323865e-01 1.34521931e-01 0. 1.09304018e-01 3.47323865e-01
      2.81398855e-02 1.82936643e-03 0. 0. 0. 0. 0. 0. 0. 1.51738944e-02
      3.86770852e-02 4.27918695e-03 0. 0. 3.47323865e-01 3.47323865e-01
      1.99878708e-01 0. 0. 0. 0. 0. 0. 0. 0. 6.72258250e-03
      9.20611620e-03 1.55646920e-01 4.48406450e-02 0. 2.92793036e-01
      1.32556960e-01 1.45961521e-02 0. 0. 0. 0. 0. 4.83630709e-02
      4.83630709e-02 0. 0. 1.21321641e-02 3.01241964e-01 3.01949847e-02
      0. 2.99337924e-01 3.62707049e-01 0. 0. 0. 0. 0. 0. 4.72136624e-02
      4.72136624e-02 0. 0. 6.06608065e-03 1.15088701e-01 0. 0.
      3.62707049e-01 3.17873001e-01 5.06492108e-02 0. 0. 0. 0. 0. 0. 0.
      0. 0. 4.04405454e-03 1.00413993e-01 1.13726910e-02 8.10045935e-03
      3.62707049e-01 3.62707049e-01 1.06677888e-02 0. 0. 0. 0. 0. 0. 0.
      0. 0. 2.02202704e-03 4.99082394e-02 1.44381439e-02 1.62009150e-02
      3.62707049e-01 3.52707207e-01 0. 0. 0. 0. 0. 0. 6.17068866e-03
      6.17068866e-03 0. 0. 0. 0. 0. 0. 3.52707207e-01 3.52707207e-01 0.
      0. 0. 0. 0. 0. 6.47710450e-03 6.47710450e-03 0. 0. 0. 0. 0.
      2.39576213e-03 3.52707207e-01 3.52707207e-01 1.89924687e-02 0. 0.
      0. 0. 0. 0. 0. 0. 0. 0. 3.73229827e-03 3.94593179e-03
      7.67827965e-04 3.52707207e-01 3.52707207e-01 2.28077732e-02
      1.05413040e-02 2.96807173e-03 2.95798923e-03 0. 0. 0. 0. 0. 0. 0.
      0. 0. 7.18728639e-03 3.52707207e-01 2.88431108e-01 1.40911058e-01
      0. 0. 0. 0. 0. 8.09256919e-03 8.09256919e-03 0. 0. 0. 0. 0.
      5.24294451e-02 2.88431108e-01 2.88431108e-01 2.81822056e-01 0. 0.
      0. 0. 0. 2.71469411e-02 2.71469411e-02 0. 0. 1.73337251e-01
      2.31430903e-02 0. 1.02682777e-01 1.10120922e-01 2.88431108e-01
      4.87712063e-02 4.78739524e-03 9.19442903e-03 9.16319434e-03 0. 0.
      0. 0. 0. 0. 0. 0. 0. 1.57288328e-01 2.88431108e-01 2.88431108e-01
      9.39406976e-02 0. 4.59721358e-03 4.58159717e-03 0. 0. 0. 0.
      1.47390306e-01 1.69644311e-01 2.88431108e-01 6.94292635e-02 0.
      2.88431108e-01 2.88431108e-01 1.60823092e-02 2.98484623e-01 0.
      1.10706754e-01 1.81431204e-01 3.00091088e-01 2.28595287e-01
      6.80479854e-02 4.05038968e-02 1.55484388e-02 1.31536409e-01
      1.18347500e-02 0. 0. 8.87138173e-02 6.72606751e-02 6.30078046e-03
      1.73753500e-01 5.80624677e-03 5.53533696e-02 6.79829810e-03
      2.40369681e-02 1.40957572e-02 0. 1.50830626e-01 1.68678582e-01
      3.00091088e-01 2.36694980e-02 0. 0. 1.77427590e-01 1.25238925e-01
      8.95479973e-03 0. 0. 3.69022526e-02 4.53219889e-03 1.12136602e-01
      3.00091088e-01 3.00091088e-01 2.19428197e-01 8.82157758e-02
      4.38454784e-02 3.94491712e-03 0. 0. 0. 8.95479973e-03
      2.32090615e-03 0. 0. 1.84511226e-02 2.26609921e-03 0. 0.
      1.06761679e-01 3.00091088e-01 3.00091088e-01 1.29084364e-01
      7.88983237e-03 0. 0. 0. 2.32090615e-03 1.32459803e-02
      2.75899380e-01 3.98033559e-02 0. 0. 2.41578538e-02 1.41666476e-02
      0. 8.65770951e-02 3.06452096e-01 2.20576644e-01 7.14176847e-03
      9.15057063e-02 0. 2.61429455e-02 1.83392502e-02 2.40849450e-01
      2.99752504e-01 1.99016742e-02 0. 0. 0. 0. 0. 3.80926616e-02
      1.80080131e-01 7.81248882e-02 1.78490907e-01 1.83011383e-01 0.
      9.58929211e-03 1.66948453e-01 0. 0. 0. 0. 0. 0. 0. 1.57307293e-02
      3.42704058e-01 3.42704058e-01 2.09247142e-01 2.38058972e-03
      3.05019021e-02 0. 0. 0. 0. 0. 0. 0. 0. 0. 0. 0. 1.14277981e-01
      3.42704058e-01 2.20608279e-01 1.06778100e-01 7.30729550e-02
      1.23591637e-02 2.87678745e-02 9.70199704e-03 4.35989529e-01
      2.33642366e-02 0. 0. 0. 0. 0. 0. 2.15426795e-02 2.87675615e-02
      6.46264926e-02 1.64727926e-01 1.82253048e-02 1.91142596e-02
      4.75021414e-02 4.05965298e-01 4.35989529e-01 2.39831984e-01 0. 0.
      0. 0. 0. 1.08074602e-02 1.08074602e-02 0. 2.86318660e-02
      2.79596169e-02 0. 3.82285118e-02 2.83596572e-02 4.28583354e-01
      3.60248750e-03 0. 0. 0. 0. 0. 0. 0. 6.46280274e-02 1.07774802e-01
      1.48104921e-01 8.70259181e-02 6.19947724e-02 1.14606082e-01
      1.42506436e-01 4.85544316e-02 4.87015732e-02 4.30499688e-02
      5.28300786e-03 0. 0. 0. 0. 3.24223824e-02 3.24223824e-02
      2.67721526e-02 1.76101521e-01 7.57978484e-02 9.46638957e-02
      1.43317193e-01 8.50789621e-02 6.10722564e-02 4.75772470e-01
      1.24490187e-01 0. 0. 0. 0. 0. 3.22713633e-03 3.22713633e-03 0. 0.
      0. 0. 9.08276252e-03 4.61650342e-02 4.75772470e-01 4.75772470e-01
      6.04421496e-02 0. 3.04773659e-03 3.03740962e-03 0. 0. 0. 0. 0. 0.
      0. 6.54142201e-02 8.18044394e-02 9.17920470e-02 4.75772470e-01
      3.02709490e-02 9.29019228e-02 4.32330593e-02 0. 0. 0. 0.
      9.68140922e-03 9.68140922e-03 1.17201090e-03 7.29143061e-03
      1.98505018e-02 1.99180096e-02 7.49035645e-03 1.61056835e-02
      9.68894269e-03 6.41097799e-02 6.39141351e-02 7.03258142e-02
      9.14321002e-03 2.58099400e-02 1.70990210e-02 0. 0. 0. 0. 0. 0.
      2.18047407e-02 4.34087478e-02 1.30579412e-01 5.05697988e-02
      4.68069941e-01 1.14157073e-01 0. 7.12932460e-03 7.10516749e-03 0.
      0. 0. 0. 0. 0. 0. 2.24335361e-02 2.37176139e-02 4.61514480e-03
      4.68069941e-01 4.68069941e-01 1.37089536e-01 6.33600876e-02
      2.14047022e-02 3.63002233e-02 4.30146512e-03 0. 0. 0. 0. 0.
      1.06577454e-02 1.06939916e-02 0. 1.20112849e-02 4.68069941e-01
      7.17595667e-02 3.85772251e-02 3.26535758e-03 3.20819616e-02
      7.10328668e-02 3.99983637e-02 0. 0. 0. 0. 0. 0. 7.47784507e-03
      1.34412237e-02 3.58268172e-02 5.89263439e-02 9.74335894e-02
      4.56965119e-02 2.11200304e-02 3.80286351e-02 1.02334149e-01
      5.64023145e-02 4.82332185e-02 0. 1.31828785e-01 6.82338849e-02 0.
      3.19732390e-02 3.20819728e-02 0. 0. 8.31672624e-02 1.33408681e-01
      4.36941208e-03 1.53194070e-02 3.51965427e-02 4.09500413e-02
      5.37886610e-03 0. 0. 0. 0. 0. 1.95386400e-03 1.96050876e-03 0.
      1.06107235e-01 3.31525534e-01 1.08637996e-01 0. 7.40744965e-03
      3.69303413e-02 2.04750188e-02 2.68943305e-03 0. 0. 1.81320727e-01
      3.63264859e-01 3.63264859e-01 3.50801706e-01 4.68372181e-02 0.
      2.07810417e-01 2.24468276e-01 4.92622610e-03 1.45647069e-03
      1.49830692e-02 6.71562701e-02 8.45473334e-02 4.55211401e-02
      6.03143387e-02 0. 2.41679177e-02 1.25091877e-02 0. 5.86159248e-03
      5.88152604e-03 0. 0. 4.64492198e-03 2.87081040e-02 0.
      2.22223457e-02 1.22008562e-01 7.26044849e-02 2.27605682e-02
      3.01571693e-02 0. 3.63264859e-01 3.63264859e-01 1.37202948e-01 0.
      0. 0. 0. 2.87081040e-02 9.50757414e-03 0. 0. 0. 0. 0.
      1.16514750e-01 3.50843042e-01 2.69894660e-01 9.28273201e-02
      2.16663200e-02 1.13852397e-02 0. 0. 0. 9.50757414e-03
      7.30569125e-04 0. 0. 0. 0. 0. 0. 1.20869309e-01 3.50843042e-01
      3.21598649e-01 2.46280134e-02 5.69261983e-03 0. 0. 0.
      7.30569125e-04 2.84433234e-02 0. 0. 2.16235630e-02 2.15501096e-02
      0. 0. 3.50843042e-01 3.50843042e-01 1.28763109e-01 6.49989545e-02
      3.41557190e-02 0. 0. 0. 2.84433234e-02 0. 0. 0. 1.08117806e-02
      1.07750529e-02 0. 0. 1.30524084e-01 3.50843042e-01 3.50843042e-01
      3.70977633e-02 1.70778595e-02 0. 0. 0. 0. 0. 0. 0. 0. 0. 0. 0.
      1.62168853e-02 2.76435524e-01 3.62711221e-01 1.39916047e-01 0. 0.
      0. 0. 0. 0. 0. 0. 0. 0. 0. 0. 0. 1.26621813e-01 3.62711221e-01
      2.00579703e-01 5.10056466e-02 1.47131532e-02 1.27411215e-02
      8.24573729e-03 2.78088357e-03 0. 0. 0. 0. 0. 0. 0. 1.24609508e-01
      3.62711221e-01 3.62711221e-01 4.66386899e-02 0. 0. 0. 0. 0. 0. 0.
      0. 0. 0. 0. 0. 5.82171492e-02 3.62711221e-01 3.62711221e-01
      1.72282904e-01 2.30373293e-02 1.09603582e-02 4.24704095e-03 0. 0.
      0. 0. 0. 0. 0. 0. 0. 0. 7.73312077e-02 1.32039696e-01
      2.28618786e-01 1.01692945e-01 1.44838527e-01 1.32238239e-01
      7.15720728e-02 2.25765519e-02 7.84998611e-02 5.91152050e-02
      9.54305194e-03 0. 0. 0. 0. 1.62837356e-02 1.62837356e-02
      4.83603366e-02 3.00864100e-01 1.79878965e-01 2.30996415e-01
      1.09318636e-01 4.27298434e-02 8.97881389e-02 0. 0. 0. 0. 0. 0. 0.
      2.83521153e-02 1.72086120e-01 2.09855080e-01 2.01683462e-01
      2.05497280e-01 2.20462680e-01 3.44795175e-02 0. 0. 3.20555925e-01
      1.97050665e-02 3.18101700e-03 0. 0. 0. 0. 2.50318795e-02
      2.50318795e-02 1.61201134e-02 1.00288041e-01 3.29660833e-01
      3.47617209e-01 1.72397569e-02 0. 3.20555925e-01 1.22131802e-01
      2.43663236e-01 1.46565169e-01 0. 0. 0. 0. 9.12549440e-03
      9.12549440e-03 3.97325493e-03 2.47188099e-02 7.14534596e-02
      7.16964677e-02 4.73232754e-03 7.60665454e-04 1.22131802e-01
      1.40568599e-01 1.48374438e-01 2.38412783e-01 8.61819927e-03
      6.51962087e-02 5.79677038e-02 0. 0. 0. 0. 0. 0. 0. 8.28195363e-02
      3.43467891e-01 1.40568599e-01 4.14061457e-01 8.12210888e-02
      4.88550551e-02 0. 0. 0. 0. 9.86422822e-02 9.86422822e-02
      1.32441835e-03 8.23960267e-03 4.39634547e-02 4.41129655e-02 0. 0.
      4.14061457e-01 2.94596344e-01 4.94581498e-02 7.94709250e-02 0.
      1.88690703e-02 1.93225667e-02 0. 1.35039911e-01 1.35039911e-01 0.
      0. 0. 0. 1.02542467e-01 1.26534373e-01 2.94596344e-01
      4.75694910e-02 6.46160403e-03 4.01990265e-02 4.02572341e-02
      1.34614289e-01 9.67645049e-02 0. 0. 0. 0. 0. 0. 0. 6.02996908e-02
      9.04909670e-02 4.75694910e-02 5.59408888e-02 1.03836656e-02
      6.45988584e-02 5.89351356e-02 1.36186391e-01 1.13910571e-01
      1.22047797e-01 1.70379177e-01 4.10234630e-01 1.65072218e-01 0.
      2.15061940e-02 2.15793326e-02 2.34542508e-02 3.76999239e-03
      5.59408888e-02 5.03241122e-02 1.59987584e-02 9.95314941e-02
      8.62367358e-03 4.00922745e-02 3.22548337e-02 0. 2.23632418e-02
      2.23632418e-02 0. 0. 0. 0. 1.45189241e-01 5.02702817e-02
      5.03241122e-02 1.32613527e-02 3.11509948e-02 1.93796560e-01
      1.72473434e-02 3.29378098e-02 3.50768901e-02 2.60011673e-01
      4.89523709e-01 4.89523709e-01 1.59697354e-01 0. 0. 0.
      7.03627467e-02 1.13099767e-02 1.32613527e-02 7.61592004e-04
      1.41365599e-04 4.66516474e-03 3.89755815e-02 4.48462442e-02
      4.50808294e-02 9.94493812e-02 5.85607439e-02 3.80952358e-02
      1.53289484e-02 0. 1.99710974e-03 2.00390117e-03 0. 0.
      7.61592004e-04 9.43938922e-03 0. 7.57140107e-03 7.65422955e-02
      5.95909730e-02 2.79023796e-02 8.29396248e-02 8.05270672e-02
      5.01446545e-01 2.77682573e-01 0. 0. 0. 0. 0. 9.43938922e-03 0.
      4.24096768e-04 2.63839075e-03 8.60075839e-03 8.57154280e-03
      2.27266904e-02 1.20294213e-01 1.94815740e-01 1.36209965e-01
      8.97881389e-02 0. 0. 0. 0. 0. 0. 7.60458689e-03 0. 0.
      1.67318936e-02 1.66750569e-02 2.74492409e-02 1.50272056e-01
      5.01446545e-01 5.01446545e-01 1.24229118e-01 0. 0. 0. 0. 0.
      7.60458689e-03 3.40613425e-02 0. 0. 2.78916731e-02 2.77969278e-02
      3.60377505e-03 5.83951063e-02 1.66161314e-01 3.65227818e-01
      6.40886128e-02 2.33107824e-02 1.22493738e-02 0. 0. 0.
      3.40613425e-02 5.64877549e-03 0. 0. 1.39458356e-02 1.38984611e-02
      7.20754825e-03 1.27970949e-01 2.21239910e-01 3.65227818e-01
      1.53788701e-01 1.16553893e-02 6.12468645e-03 0. 0. 0.
      5.64877549e-03 4.85520549e-02 0. 0. 9.29722469e-03 9.26564261e-03
      1.08113242e-02 1.75185308e-01 1.62475914e-01 3.65227818e-01
      2.98246890e-02 3.79290618e-02 0. 0. 0. 0. 4.85520549e-02
      1.69463251e-02 0. 0. 4.64861235e-03 4.63282084e-03 2.16226447e-02
      3.65227818e-01 3.65227818e-01 3.65227818e-01 2.79727429e-02
      1.89645272e-02 0. 0. 0. 0. 1.69463251e-02 0. 0. 0. 0. 0.
      7.59376038e-04 2.03398373e-02 1.96090490e-01 3.56977850e-01
      2.16377378e-01 0. 0. 0. 0. 0. 0. 0. 0. 0. 0. 0. 0. 0.
      5.89679703e-02 3.05327117e-01 3.56977850e-01 1.06782638e-01
      1.91218720e-03 1.91869016e-03 6.25618687e-03 1.00560777e-03 0. 0.
      0. 0. 0. 0. 2.27812794e-03 6.10195100e-02 2.98377991e-01
      3.56977850e-01 2.47498289e-01 0. 0. 0. 0. 0. 0. 0. 0. 0. 0. 0. 0.
      0. 1.96559913e-02 3.56977850e-01 3.56977850e-01 8.61522481e-02
      4.93709818e-02 1.26026291e-02 3.16740014e-02 3.01682297e-03 0.
      9.48728528e-03 0. 0. 0. 0. 0. 0. 3.00154388e-02 1.00495815e-01
      2.03121036e-01 1.32838517e-01 9.69276130e-02 9.72572342e-02
      5.30858040e-02 8.53291340e-03 9.48728528e-03 1.78339913e-01 0. 0.
      0. 0. 0. 0. 2.65004151e-02 2.65004151e-02 0. 0. 2.42770717e-01
      2.43596330e-01 2.65429020e-02 4.26645624e-03 1.78339913e-01
      2.84618549e-02 0. 0. 0. 0. 0. 0. 1.00051463e-02 7.96203762e-02
      3.74897540e-01 1.07174128e-01 1.39227808e-01 1.85011968e-01
      2.68764377e-01 2.55987383e-02 2.84618549e-02 8.69391412e-02
      2.45172843e-01 3.95786017e-02 0. 0. 0. 0. 8.83347169e-03
      8.83347169e-03 0. 0. 3.75381291e-01 4.30126607e-01 1.34382159e-01
      8.36695284e-02 1.10840179e-01 1.33648723e-01 0. 0. 0. 0. 0. 0.
      7.43806362e-02 7.43806362e-02 0. 0. 7.32958764e-02 7.35451356e-02
      0. 0. 1.33648723e-01 1.09973252e-01 1.33429766e-02 8.30103233e-02
      0. 0. 0. 0. 1.01826064e-01 1.01826064e-01 0. 0. 2.02785749e-02
      2.03475375e-02 3.88637036e-02 6.24687877e-03 1.09973252e-01
      7.46529996e-02 9.78616029e-02 1.57979392e-02 0. 0. 0. 0.
      2.47935429e-02 2.47935429e-02 0. 0. 2.00658828e-01 2.01341227e-01
      1.01707079e-01 3.23294193e-01 1.39726207e-01 3.57351780e-01
      4.00289297e-02 2.49030933e-01 0. 0. 0. 0. 3.39420177e-02
      3.39420177e-02 0. 0. 6.08357191e-02 6.10426106e-02 3.23539019e-01
      4.39858496e-01 3.89888376e-01 2.98043285e-02 7.37058138e-03
      4.58541326e-02 0. 0. 0. 0. 4.04336266e-02 4.04336266e-02 0. 0. 0.
      0. 7.32160509e-02 1.17686121e-02 2.98043285e-02 1.12853944e-02
      7.37061771e-03 4.58540842e-02 0. 0. 0. 1.78287596e-01
      3.65612656e-01 2.30654359e-01 2.26709992e-01 1.36619210e-02 0. 0.
      3.66080254e-02 5.88430557e-03 1.12853944e-02 7.71457627e-02
      1.10558141e-02 6.87812567e-02 0. 0. 0. 0. 7.05513209e-02
      7.05513209e-02 0. 0. 0. 0. 3.07907432e-01 2.60372877e-01
      7.71457627e-02 3.76179791e-03 0. 0. 0. 0. 0. 5.81606291e-02
      1.95704445e-01 1.82119250e-01 4.29397553e-01 8.93636942e-02 0.
      2.62987137e-01 3.35457981e-01 2.65940130e-01 3.76179791e-03 0.
      1.08478678e-04 6.74867537e-04 0. 0. 2.74304883e-03 3.71139348e-02
      6.31696954e-02 1.03221327e-01 1.26166657e-01 2.29914486e-02 0. 0.
      0. 0. 0. 1.73516118e-03 0. 0. 0. 0. 5.48609672e-03 3.52868438e-02
      4.45215225e-01 4.45215225e-01 8.94084126e-02 4.32398804e-02 0. 0.
      0. 0. 1.73516118e-03 0. 0. 0. 0. 0. 0. 5.83868334e-03
      7.75743648e-03 4.26097214e-02 2.43803307e-01 1.33499667e-01 0.
      2.64009982e-02 9.74640250e-03 2.76755053e-03 0. 1.13292867e-02 0.
      0. 0. 0. 0. 4.45215225e-01 4.45215225e-01 1.23658389e-01
      1.40819728e-01 2.09080189e-01 0. 0. 0. 0. 1.13292867e-02
      1.58921704e-02 2.69047916e-02 0. 0. 0. 2.67903693e-03
      4.34107706e-02 1.30876362e-01 3.21607262e-01 6.56183064e-02
      8.72280225e-02 0. 0. 0. 0. 1.34759480e-02 5.40739624e-03
      1.34523939e-02 0. 0. 0. 5.35807293e-03 9.51332748e-02
      2.78648019e-01 2.36588717e-01 5.20925820e-02 2.05216825e-01
      1.48290945e-02 3.74049693e-03 0. 0. 4.19928506e-03 1.54323028e-02
      8.07143673e-02 1.25516504e-01 1.05717190e-01 0. 0. 0.
      4.36254591e-02 3.21607262e-01 2.37043992e-01 1.71539903e-01 0. 0.
      1.09789081e-01 2.73255676e-01 8.18363950e-03 6.18827827e-02
      3.21607262e-01 2.51033008e-01 2.11434349e-01 0. 0. 0.
      6.69011921e-02 7.45863169e-02 9.80500430e-02 3.21607262e-01
      4.44872789e-02 1.12214899e-02 5.48945330e-02 1.36627823e-01 0. 0.
      0. 0. 0. 0. 3.58544843e-04 9.60359909e-03 5.37376627e-02
      1.67838991e-01 1.19060352e-01 6.71541244e-02 5.00010811e-02
      1.16454121e-02 0. 0. 0. 0. 0. 0. 0. 0. 0. 0. 0. 8.11544657e-02
      1.74769357e-01 7.42583796e-02 1.12784602e-01 1.51162585e-02
      1.02591570e-02 6.14284305e-03 1.91155169e-03 3.62385392e-01
