<?xml version="1.0"?>
<opencv_storage>
<opencv_ml_svm>
  <format>3</format>
  <svmType>C_SVC</svmType>
  <kernel>
    <type>LINEAR</type></kernel>
  <C>1.0000000000000001e-01</C>
  <term_criteria><iterations>10000000</iterations></term_criteria>
  <var_count>1600</var_count>
  <class_count>2</class_count>
  <class_labels type_id="opencv-matrix">
    <rows>2</rows>
    <cols>1</cols>
    <dt>i</dt>
    <data>
      0 1</data></class_labels>
  <sv_total>1</sv_total>
  <support_vectors>
    <_>
      4.53887656e-02 -1.63880866e-02 -1.69860129e-03 -1.81553289e-02
      -1.86749101e-02 -5.90943135e-02 -4.23241220e-02 -6.45247921e-02
      -5.36261089e-02 -3.00379153e-02 -4.45786528e-02 -2.41468605e-02
      -2.61721425e-02 -4.66249585e-02 -2.01662499e-02 4.29989807e-02
      1.01147499e-02 -1.54963173e-02 -2.40610819e-02 -2.68388670e-02
      -1.27878161e-02 -3.32710110e-02 -3.94928157e-02 -7.78139234e-02
      -5.39609790e-02 -3.16152200e-02 -2.06206217e-02 -3.75912823e-02
      -5.77433482e-02 -4.11663502e-02 -1.67744346e-02 3.14068608e-02
      6.66000918e-02 2.39886716e-02 3.53983082e-02 6.86297147e-03
      -3.23728146e-03 -3.19115333e-02 -2.17251405e-02 -1.33590117e-01
      -7.40236193e-02 4.85967519e-03 -9.49640293e-03 1.00410904e-03
      1.59344655e-02 -2.40905639e-02 1.19396404e-03 8.28049704e-02
      7.08064586e-02 2.80763600e-02 1.55940717e-02 -8.76650389e-04
      2.62794793e-02 1.63031705e-02 4.41023074e-02 -4.40907851e-02
      -6.65370300e-02 -2.96408702e-02 -3.29283252e-02 7.09834136e-03
      -8.85539968e-03 -3.78966331e-02 1.81738753e-02 7.92732090e-02
      -1.22215942e-01 -8.45379978e-02 -6.12749346e-02 -1.68982409e-02
      5.64759737e-03 -1.94172170e-02 -3.64816897e-02 -4.25478406e-02
      1.35834794e-02 -5.21559129e-03 1.26884542e-02 -7.52148312e-03
      -4.80543487e-02 -4.98743504e-02 -2.41729487e-02 -6.79694787e-02
      -9.73667726e-02 -4.46579643e-02 -7.11078150e-03 1.19002499e-02
      5.42965345e-02 1.24718817e-02 -4.97612618e-02 -2.46340446e-02
      -4.82633570e-03 3.71176526e-02 2.21112855e-02 3.47988307e-02
      -9.11998935e-03 -4.41663414e-02 -3.11310980e-02 -1.06804401e-01
      5.04521839e-03 -1.97058991e-02 2.04199133e-03 7.02670589e-03
      3.63452993e-02 5.68482913e-02 1.67788863e-02 1.95169784e-02
      -5.19990455e-03 -1.81620941e-02 -2.93679256e-02 7.01308949e-03
      -1.61971804e-02 -2.30090320e-03 1.38491169e-02 3.66904102e-02
      -1.47852907e-02 7.17958203e-03 4.52692471e-02 8.00039526e-03
      2.68170536e-02 3.44566070e-02 -3.73085937e-03 1.85003057e-02
      2.91660745e-02 1.78271253e-02 -6.60642236e-03 3.15862224e-02
      -3.09500116e-04 -1.50280055e-02 7.97425804e-04 -1.17632840e-02
      -1.29409820e-01 7.44735496e-03 1.38049352e-03 3.93508337e-02
      6.80099428e-02 4.34940159e-02 4.67628352e-02 -7.75325671e-03
      -2.29705148e-03 -1.81912386e-03 1.86009537e-02 3.94301228e-02
      2.95363441e-02 -2.04742234e-03 1.83620281e-03 -9.59987044e-02
      -1.92887053e-01 -8.08269717e-03 -2.24906895e-02 1.61562916e-02
      2.48316415e-02 2.91126240e-02 5.18961549e-02 -2.32640877e-02
      -3.83161642e-02 8.53276905e-03 1.07959099e-02 4.60820086e-02
      3.33062708e-02 -1.18898856e-03 -1.01468584e-03 -1.48384348e-01
      -6.17285669e-02 2.37495489e-02 2.02430133e-02 5.95640205e-02
      7.32462853e-02 3.38309631e-02 3.84813771e-02 8.68141092e-03
      5.26401736e-02 4.64545749e-02 2.50668321e-02 5.22484034e-02
      2.72487309e-02 -9.59624536e-04 8.62091407e-03 -1.99637376e-02
      -1.58787861e-01 -2.42334660e-02 -4.06103814e-03 4.71368916e-02
      4.83275540e-02 5.62007539e-02 6.12476431e-02 5.84064163e-02
      6.13494664e-02 5.77216037e-02 5.12729064e-02 7.72527456e-02
      4.94077653e-02 -1.63246933e-02 -4.32416014e-02 -1.15230583e-01
      -1.38338581e-01 -9.12447460e-03 9.58224200e-03 -4.51894989e-03
      -1.78243208e-03 5.82549209e-03 3.84294381e-03 3.01307626e-02
      3.39048579e-02 1.49811190e-02 8.09673406e-03 3.37242708e-02
      2.74365824e-02 5.65598579e-03 9.15661361e-03 -9.16575789e-02
      -6.77999482e-02 4.04800801e-03 1.55090718e-02 8.32574256e-03
      1.45045361e-02 -1.76030851e-03 -8.48206971e-03 4.21801582e-02
      3.74585651e-02 -1.79681890e-02 2.49754544e-02 -1.67749356e-02
      -4.13251817e-02 -4.16856036e-02 -5.22244461e-02 -7.35369548e-02
      -7.14436471e-02 -4.53134254e-02 9.02315602e-03 -1.09134382e-02
      1.32959615e-02 1.25921555e-02 1.26097994e-02 5.05832843e-02
      6.05562553e-02 3.82384136e-02 1.40736382e-02 5.44152968e-02
      3.21000814e-02 -4.64354176e-03 -1.09829176e-02 -4.84989472e-02
      -3.83003764e-02 -8.75446852e-03 4.40424196e-02 -5.29189827e-03
      1.98120018e-03 5.58056729e-03 8.52024835e-03 3.36751081e-02
      2.41406672e-02 2.78051365e-02 3.02110408e-02 -8.70359130e-03
      2.80235405e-03 8.57305061e-03 -1.20667797e-02 -1.60396695e-02
      -7.69819971e-03 4.26558554e-02 3.73903327e-02 6.03310624e-03
      -7.67662236e-03 -5.33812167e-03 1.30531611e-02 4.05468345e-02
      1.49757266e-02 -4.18529958e-02 -2.41107531e-02 5.59551455e-03
      -9.57625080e-03 -6.83503151e-02 -2.80422755e-02 6.70341495e-03
      4.32649367e-02 4.52751247e-03 3.43623608e-02 1.70622189e-02
      5.44654671e-03 -2.39965715e-03 -1.64410099e-02 7.83068761e-02
      -6.91662077e-03 -9.34463814e-02 -8.81005824e-02 -4.02435958e-02
      5.73714450e-03 -7.38098770e-02 2.06483109e-03 5.71333617e-02
      1.27757275e-02 2.57861819e-02 3.08187678e-02 -2.28024386e-02
      -1.76979043e-02 -3.45826452e-03 5.61802974e-03 -7.82613410e-04
      -3.31874788e-02 -2.06530225e-02 -2.42855810e-02 3.15103009e-02
      5.09266630e-02 1.16608115e-02 3.76926525e-03 -3.30563751e-03
      7.51695083e-03 1.69473682e-02 4.39777374e-02 1.64424013e-02
      5.34611987e-03 -1.48434136e-02 -2.21508667e-02 4.91357818e-02
      -3.72955203e-02 -5.54641262e-02 -4.04160246e-02 -1.31192403e-02
      1.11025665e-02 4.66891890e-03 1.45772770e-02 1.49653023e-02
      1.99176352e-02 1.65743437e-02 7.64550455e-03 8.37149844e-03
      -1.60085540e-02 -3.33244167e-02 -4.49188054e-02 -9.49958935e-02
      -8.32911432e-02 3.23620588e-02 6.31441548e-03 2.80418899e-02
      3.18934582e-02 -1.19487653e-02 8.02231953e-03 3.29597853e-02
      3.97723429e-02 2.18045712e-02 7.48701626e-04 -2.07836721e-02
      -1.19020613e-02 9.26677138e-03 5.32271750e-02 -2.07776017e-02
      -9.60350856e-02 -7.21107144e-03 -3.22391726e-02 3.21562067e-02
      1.64275765e-02 -2.35400349e-02 1.54984957e-02 4.43794504e-02
      5.73647628e-03 -9.21583176e-03 -1.86577858e-03 -4.96159084e-02
      -5.61601110e-02 -1.14730122e-02 1.96018862e-03 -3.06057893e-02
      -5.52203842e-02 4.05030251e-02 1.33169917e-02 1.06978370e-02
      1.09243058e-02 -5.14197629e-03 -4.64249961e-03 1.89939979e-02
      -1.98406596e-02 -3.63152213e-02 -8.11251439e-03 8.58855899e-04
      -1.79203842e-02 6.91192108e-04 5.86449467e-02 2.24144571e-03
      -3.60925794e-02 -1.21421944e-02 -6.69504888e-03 3.13772857e-02
      1.22297164e-02 -1.26076769e-02 1.60023407e-03 -9.55981843e-04
      7.28070503e-03 -2.83461623e-02 -1.42371319e-02 -4.30051610e-02
      -2.97013056e-02 4.48965281e-02 -5.39023662e-03 -9.03927907e-03
      -7.35957474e-02 -5.21439798e-02 -2.60658823e-02 2.66018957e-02
      1.87254008e-02 2.94677005e-03 9.56944004e-03 5.10274582e-02
      -4.62309457e-03 9.43336729e-03 9.60251782e-03 -1.37864454e-02
      -1.81304011e-02 2.98785255e-03 -2.95974333e-02 5.31988218e-03
      2.69268230e-02 1.22909006e-02 1.72043331e-02 3.68037634e-02
      3.37942056e-02 8.62288754e-04 1.59519929e-02 3.68151031e-02
      -3.79793942e-02 -9.29597579e-03 5.07182814e-03 -4.61993739e-03
      -1.27357747e-02 3.26502393e-03 7.44678779e-03 -4.93221767e-02
      -3.00755817e-02 -6.15842976e-02 -4.68409434e-03 3.51632871e-02
      2.31589619e-02 -1.63993742e-02 -6.22012885e-03 -9.60764382e-03
      -2.18334422e-02 4.09552455e-02 2.51578428e-02 1.81608908e-02
      -8.32152367e-03 -7.84532074e-03 -1.52192218e-02 3.72178815e-02
      4.02102247e-02 -3.15106809e-02 4.03599031e-02 3.14327180e-02
      2.93319486e-02 1.00974301e-02 -4.15423000e-03 -1.07088117e-02
      -5.50424792e-02 -9.33669135e-03 -1.39114251e-02 -3.12680304e-02
      -1.68273263e-02 5.85460977e-04 -2.82758400e-02 -2.98141520e-02
      1.23606063e-02 1.87364519e-02 1.67737622e-02 3.74084376e-02
      1.22963628e-02 6.96857605e-05 -1.23897418e-02 2.47220532e-03
      -1.04658909e-01 -5.25896661e-02 -1.70086902e-02 6.55888207e-03
      4.21900904e-06 1.84256546e-02 3.03872805e-02 -4.25917190e-03
      2.23928411e-02 2.25355010e-02 1.75774470e-02 5.18816039e-02
      3.02047152e-02 -1.88225303e-02 -5.38088828e-02 -8.88501406e-02
      -3.41951251e-02 3.28133479e-02 -3.72257852e-03 -2.91704945e-03
      -9.86746978e-03 -1.50688868e-02 -2.70592999e-02 1.01236510e-03
      2.70595774e-02 -9.49290860e-03 2.51056310e-02 3.29838879e-02
      1.56022198e-02 -1.30644171e-02 -2.29140166e-02 9.49058332e-04
      1.11779021e-02 2.39388198e-02 8.44650320e-04 1.57314411e-04
      -2.15249285e-02 5.58231724e-03 8.44823942e-03 -1.73126142e-02
      -2.11218894e-02 9.12432373e-03 -9.56187863e-03 8.74637887e-02
      4.35420610e-02 -1.87646728e-02 -3.42465527e-02 9.64638125e-03
      -4.10272330e-02 -1.99612007e-02 1.64518622e-03 -1.56477503e-02
      -8.26745387e-03 6.43488439e-03 5.74806007e-03 1.27743045e-02
      2.26900857e-02 -1.19353067e-02 -2.75266934e-02 1.85966771e-02
      2.06396524e-02 -5.38608013e-03 -1.38015710e-02 -4.14216965e-02
      -3.78685705e-02 7.05468375e-03 8.32226686e-03 -3.89412381e-02
      -2.10825354e-02 -6.19070325e-03 -3.14558074e-02 -2.20182054e-02
      -5.22117801e-02 -2.89857127e-02 -6.37007132e-02 -2.99673378e-02
      2.71924920e-02 -5.80509892e-03 -1.66586842e-02 -1.45350471e-02
      1.27201052e-02 3.71257663e-02 1.52341593e-02 1.69649068e-02
      1.36065939e-02 4.15704958e-03 1.99264213e-02 -3.31323594e-03
      -9.55948271e-05 -1.51543198e-02 -3.39388289e-02 6.51687980e-02
      2.92818882e-02 -3.06490082e-02 -4.10024039e-02 -1.13559868e-02
      -1.95156932e-02 2.10731551e-02 -3.62095190e-03 3.60855609e-02
      5.22353351e-02 -3.39572574e-03 -3.31154503e-02 -6.50538318e-03
      -4.40578014e-02 -6.65647024e-03 -3.72715890e-02 -3.53312795e-03
      1.92983206e-02 -4.25595492e-02 -7.60175213e-02 -2.32013930e-02
      7.97187835e-02 5.25290854e-02 2.08734833e-02 -4.06199209e-02
      -3.78212966e-02 9.77118034e-03 -4.97287884e-03 5.46503207e-03
      -5.19511439e-02 -1.81677600e-03 -1.21663520e-02 4.23209555e-02
      6.65128380e-02 1.59793422e-02 1.68743939e-03 7.13648945e-02
      6.64574876e-02 2.42217034e-02 2.15351321e-02 2.63696890e-02
      1.68039296e-02 -8.24517570e-03 -1.75203364e-02 1.29286060e-02
      -8.73413235e-02 -1.98029894e-02 -3.88940983e-02 -5.79361245e-03
      1.02738515e-02 6.61901524e-03 -1.16213365e-02 6.26789778e-02
      7.97944814e-02 4.32830192e-02 2.72176359e-02 2.38040853e-02
      1.88845415e-02 1.66079737e-02 -1.43858185e-02 3.53819244e-02
      -4.80896495e-02 1.22728730e-02 1.19866580e-02 1.66796446e-02
      2.28191167e-02 -2.99908081e-03 -3.74159850e-02 4.81458940e-02
      4.93057631e-02 2.58291252e-02 3.33990380e-02 3.59613597e-02
      3.02351415e-02 1.35513628e-02 2.84385285e-03 7.05814874e-03
      -1.11566506e-01 -2.23548282e-02 -2.54931692e-02 -1.46487923e-02
      -7.09098671e-03 1.72313873e-03 -5.14410883e-02 1.98125094e-02
      1.65309142e-02 1.13331256e-02 -4.54716058e-03 -2.80086007e-02
      -1.16050132e-02 2.95372568e-02 4.56012525e-02 -5.65276816e-02
      -1.21288300e-01 -2.62286942e-02 -2.98869587e-03 -1.45284366e-02
      2.84384680e-03 6.14842959e-03 1.22478381e-02 2.65446026e-02
      -4.08379361e-03 -2.35189851e-02 -1.52620021e-03 9.28351749e-03
      -9.64468997e-03 1.04982797e-02 2.97171455e-02 -1.79286059e-02
      -9.20317322e-02 -1.96063761e-02 1.39674610e-02 4.13984386e-03
      1.14313439e-02 -3.89373349e-03 5.18452236e-03 3.72061394e-02
      2.80435681e-02 -3.55868437e-03 -7.13664014e-03 1.53783010e-02
      1.64985713e-02 1.37710478e-02 3.91921028e-02 -5.32179512e-02
      -9.45355445e-02 -4.48096134e-02 -6.03300380e-03 -2.14405004e-02
      -1.44640356e-02 1.31743765e-02 9.09219496e-03 3.66132036e-02
      -2.26759426e-02 -4.21219170e-02 -1.84390582e-02 2.24458447e-04
      1.42851453e-02 2.65310686e-02 -1.05113089e-02 -8.47726688e-02
      -6.92624226e-02 -2.87572667e-02 9.45468899e-03 -1.39482785e-02
      1.44421523e-02 -8.99150618e-04 5.04290406e-03 6.04111291e-02
      -3.78265120e-02 -5.34847891e-03 2.55453028e-02 3.01505737e-02
      9.16286930e-03 9.38829314e-03 -2.19850452e-03 -7.58024454e-02
      -8.25873017e-02 -2.70716287e-02 -1.02926865e-02 -5.00807888e-04
      1.22449603e-02 -2.80851573e-02 -6.75678113e-03 -1.66572270e-03
      -3.25013399e-02 1.95341259e-02 3.33384350e-02 3.38225700e-02
      -5.67835756e-04 -3.74940177e-03 -1.76081038e-03 6.73814630e-03
      2.26309970e-02 -3.32124121e-02 -1.10079646e-02 2.32326309e-03
      8.51157308e-03 -2.28023622e-02 -5.68891922e-03 -1.23026781e-02
      -4.70820144e-02 -3.04336101e-02 4.45581926e-03 3.42882462e-02
      2.66060829e-02 3.79523262e-03 -6.13775216e-02 -6.06170371e-02
      -5.41410856e-02 -2.06449125e-02 -2.33079735e-02 -2.31751408e-02
      2.77634971e-02 -3.32182785e-03 -7.62480823e-03 4.21606153e-02
      -2.88939811e-02 4.35868138e-03 -5.69736760e-04 4.49253395e-02
      2.32085176e-02 8.55565071e-03 -2.34437380e-02 -8.54082871e-03
      -3.28034721e-02 -3.20568979e-02 -4.63860482e-02 -6.11185934e-03
      -1.70573238e-02 -2.62813568e-02 -1.28041813e-02 -1.06926570e-02
      -4.16945890e-02 9.11685638e-03 3.76297696e-03 -5.89757087e-03
      1.35407248e-03 -1.54930614e-02 -2.35743239e-04 -2.60484647e-02
      -2.47117374e-02 -4.59788479e-02 -9.18350555e-03 2.17614546e-02
      1.08801788e-02 -2.94478331e-02 -1.25649357e-02 -3.71408314e-02
      -3.77533250e-02 1.80837940e-02 1.38226710e-02 -7.75160827e-03
      -1.64880734e-02 -2.10273638e-02 7.91380648e-03 1.01592951e-03
      -1.28035282e-03 1.68185942e-02 -3.97939794e-03 6.85042143e-02
      3.50577310e-02 -2.30141655e-02 -1.93236163e-04 -2.43428126e-02
      -3.61689925e-02 -3.24759483e-02 -3.83049622e-02 8.60363059e-03
      1.12790121e-02 5.19440230e-03 -2.37303600e-02 1.49544561e-02
      2.13361327e-02 -7.57462159e-02 -3.23397815e-02 9.51845199e-03
      1.48235261e-02 -1.04588037e-02 2.02076286e-02 -9.16508213e-03
      -7.44884908e-02 -4.21530753e-02 -2.95215589e-03 4.44085859e-02
      5.07226400e-03 -2.17238236e-02 1.67112835e-02 3.61649208e-02
      2.05494463e-02 3.47110489e-03 1.59836272e-04 1.57979708e-02
      -9.33496933e-03 9.77603067e-03 3.17590460e-02 -3.83264385e-02
      -2.23969854e-03 3.89230065e-02 2.13990062e-02 2.98457574e-02
      1.86356530e-02 5.26727736e-03 2.59962678e-02 1.10696713e-02
      1.33671649e-02 2.30828002e-02 -1.65336486e-03 4.64116521e-02
      1.47614740e-02 -2.29443628e-02 -2.96453089e-02 -3.06340978e-02
      -3.05646807e-02 1.71478651e-02 -1.25758518e-02 4.19985093e-02
      3.47457454e-02 9.86015983e-03 -6.76306244e-03 -2.23496370e-02
      -3.22242528e-02 2.23899540e-02 1.88861582e-02 2.48754025e-02
      1.74663235e-02 -3.46760824e-02 -6.89738691e-02 -8.31375867e-02
      -9.07811597e-02 -6.40711337e-02 -2.77132168e-03 3.53090316e-02
      -1.40034063e-02 2.32257554e-03 3.70014235e-02 4.36665416e-02
      4.59962860e-02 3.99076566e-02 1.58465244e-02 2.54021939e-02
      1.84587017e-02 -5.90454030e-04 4.84959129e-03 -3.82699706e-02
      -8.92253220e-02 -2.06704270e-02 -2.89982222e-02 1.92028228e-02
      -6.55431347e-03 2.33072247e-02 2.53943801e-02 1.27898147e-02
      1.51882293e-02 1.14890821e-02 -1.66114625e-02 2.85469461e-02
      5.68108037e-02 -1.94469709e-02 -2.78316122e-02 -6.93621039e-02
      7.02879354e-02 3.50999124e-02 2.50130929e-02 4.03030813e-02
      3.64835970e-02 2.81302556e-02 1.32644884e-02 -1.97665510e-03
      -4.31332700e-02 4.50166315e-02 3.95182371e-02 4.04540822e-02
      2.11927816e-02 -4.46763635e-03 -9.84296296e-03 2.44696420e-02
      4.69510518e-02 3.77418399e-02 3.90296839e-02 3.54267955e-02
      4.67074290e-02 6.05036803e-02 5.43006659e-02 -9.45432261e-02
      -1.78257555e-01 1.23931863e-03 1.14973998e-02 6.97388640e-03
      -2.60505825e-03 -7.92242936e-04 -1.37730630e-03 3.48250084e-02
      2.04692241e-02 2.38958001e-02 3.24755441e-03 4.20588143e-02
      4.65924330e-02 3.72766331e-02 3.04808542e-02 -1.75577030e-02
      -1.53631577e-02 5.13113290e-02 2.49062553e-02 5.35362177e-02
      3.71208265e-02 1.04384543e-02 3.91329527e-02 1.45605588e-02
      1.11245373e-02 5.68484366e-02 2.12371182e-02 2.93324217e-02
      6.82885274e-02 4.48205136e-02 1.77551843e-02 -1.63534686e-01
      -1.70741141e-01 -2.14213189e-02 2.81499848e-02 3.22831497e-02
      9.49998479e-03 4.31179861e-03 1.04631698e-02 -2.04505250e-02
      2.85371803e-02 -7.24843331e-03 -1.86020776e-03 6.09834632e-03
      9.76207759e-03 1.59687977e-02 2.35791337e-02 -7.70069361e-02
      -1.12741426e-01 1.42595386e-02 5.18717710e-03 1.32240942e-02
      -9.91080073e-04 1.10949213e-02 1.14638999e-03 2.38819383e-02
      -9.43048764e-03 -4.03429493e-02 2.57702614e-03 7.06119696e-03
      1.61400456e-02 1.22188805e-02 -2.44592279e-02 -5.95628247e-02
      -8.65838900e-02 1.98357943e-02 2.90393885e-02 2.40032077e-02
      2.58898996e-02 4.58278274e-03 2.86278035e-03 3.44300307e-02
      4.03816998e-02 -1.37279397e-02 -1.20439185e-02 -2.55457349e-02
      -3.05856597e-02 -3.44615318e-02 -2.93549336e-02 -1.65099487e-01
      -1.41177595e-01 2.27220496e-03 1.40986650e-03 4.74112444e-02
      2.73080226e-02 3.61847058e-02 3.70154567e-02 5.38063757e-02
      3.94494608e-02 7.03370245e-03 3.57835111e-03 5.02229668e-03
      -1.79118868e-02 -4.77912417e-03 -2.14157458e-02 -5.64083457e-02
      -7.63989687e-02 2.54235659e-02 1.66112166e-02 2.27702633e-02
      1.58876553e-02 3.53991799e-03 5.41336760e-02 3.15808132e-02
      2.65961490e-03 -8.10939446e-03 3.11903190e-02 2.63992194e-02
      3.35297473e-02 8.23013298e-03 -5.96992597e-02 -1.02316722e-01
      -9.42287371e-02 1.27396565e-02 -2.35277433e-02 -1.60350464e-02
      1.61134508e-02 -1.98237244e-02 -3.65238450e-02 2.41712984e-02
      -2.73419246e-02 -8.31245072e-03 -2.20403392e-02 5.16668633e-02
      4.30244282e-02 2.08537206e-02 -4.60737608e-02 -2.41970625e-02
      6.49486668e-03 6.71558175e-03 -1.09015387e-02 -2.50866804e-02
      -6.02189489e-02 -3.84275541e-02 -5.97196892e-02 -1.26886228e-02
      -7.93402083e-03 3.46096829e-02 3.03236190e-02 2.97864284e-02
      1.96802951e-02 -1.17351133e-02 -6.81382120e-02 -6.15452528e-02
      -6.92381114e-02 1.52170528e-02 -2.98452862e-02 -3.07547692e-02
      -2.00360343e-02 -3.94758731e-02 -1.85024478e-02 -1.67097710e-02
      -1.44170169e-02 3.59856971e-02 2.63412688e-02 3.51062901e-02
      3.23643163e-02 1.15246493e-02 -2.75662914e-02 2.76535116e-02
      1.11117929e-01 5.97701743e-02 6.18358366e-02 -1.32174501e-02
      -4.35445309e-02 -3.71843763e-02 -2.72665322e-02 -2.08363254e-02
      -1.88937616e-02 -5.07277697e-02 -5.29866591e-02 1.82527062e-02
      4.06048540e-03 -4.61003091e-03 -5.83175123e-02 -6.44580200e-02
      3.92681453e-03 -4.58697937e-02 -2.80099716e-02 -2.84690410e-02
      -5.78117035e-02 -7.11104460e-03 -1.14370575e-02 -7.70092629e-06
      -1.91047415e-02 -7.37489909e-02 -8.62859772e-04 3.37668546e-02
      1.72376335e-02 -6.26068469e-03 -2.11201212e-03 3.03871725e-02
      -6.94640120e-03 -2.36590076e-02 -3.25003117e-02 -8.16012546e-03
      -3.02834827e-02 -8.53814371e-03 -2.40059029e-02 1.03058759e-02
      -2.18250565e-02 -4.65418538e-03 6.00989326e-04 -2.94474848e-02
      -7.91077036e-03 -7.38200871e-03 -3.81656066e-02 -3.56470309e-02
      3.11930329e-02 -3.21117304e-02 2.30992008e-02 -1.53003577e-02
      -4.92724515e-02 1.65918900e-03 -3.62089351e-02 -2.92313043e-02
      -1.92051493e-02 -9.59288105e-02 1.00343982e-02 9.82766598e-03
      4.36064750e-02 -5.16580325e-03 1.89381428e-02 3.33065391e-02
      4.24271189e-02 -2.13647522e-02 -1.34575879e-02 2.40196027e-02
      -1.13869105e-02 -6.49036374e-04 -5.61116785e-02 -1.41130872e-02
      -6.47668689e-02 -6.94046468e-02 -2.07136478e-03 3.27981710e-02
      -4.58004419e-03 1.49110667e-02 2.58985274e-02 4.84413579e-02
      3.98119092e-02 -1.64213101e-03 2.14363076e-02 1.53916264e-02
      1.48400469e-02 8.01617745e-03 2.07330612e-03 -2.47914847e-02
      -4.63740453e-02 -1.83656495e-02 -5.79688558e-03 2.06262860e-02
      2.61274492e-03 1.21722780e-02 -1.93933805e-03 -6.00706087e-03
      -1.13888700e-02 -1.84081867e-02 -2.07629446e-02 -1.64099620e-03
      2.31932867e-02 -1.15880724e-02 1.35526601e-02 -2.05078945e-02
      -2.82901302e-02 -8.33131894e-02 6.73300680e-03 4.69306819e-02
      5.30699566e-02 -1.43493237e-02 3.33579928e-02 9.98031050e-02
      9.18553248e-02 -1.06688878e-02 -6.28713472e-03 3.73989791e-02
      1.96973681e-02 1.90198198e-02 -1.79592241e-02 -6.93356665e-03
      -5.11055700e-02 -6.03048876e-02 -2.17347909e-02 -3.56968269e-02
      -2.10824907e-02 -1.29564097e-02 5.03905397e-03 3.23735736e-02
      2.96354033e-02 -4.37751524e-02 -3.12628895e-02 -4.00105603e-02
      -4.12856527e-02 -4.54683863e-02 -6.73636347e-02 -3.03850491e-02
      3.15174051e-02 3.99298035e-02 2.34044418e-02 1.30750490e-02
      3.06565966e-02 2.67197862e-02 1.65103395e-02 -3.25873308e-02
      1.42612671e-02 3.22664492e-02 1.60739701e-02 2.44743098e-02
      2.34015379e-02 2.20781732e-02 5.39710261e-02 4.00797613e-02
      4.29258980e-02 5.12822680e-02 1.52280619e-02 -6.08735485e-04
      2.84748003e-02 -4.96721454e-03 -5.65279834e-02 -2.68753648e-01
      -1.41521975e-01 8.97387266e-02 4.88002338e-02 3.02111395e-02
      2.57405043e-02 2.15446055e-02 3.25071923e-02 3.00590843e-02
      1.04544602e-01 5.38251661e-02 3.03462762e-02 -5.45484526e-03
      -3.13832797e-03 7.13217398e-03 -1.67689081e-02 -2.95958687e-02
      3.58725041e-02 3.59690413e-02 5.54150902e-03 1.32472990e-02
      9.41437483e-03 1.10998796e-02 2.18861587e-02 9.11089405e-02
      9.23447981e-02 5.20756952e-02 3.51965390e-02 4.27489318e-02
      2.98158508e-02 -6.57879189e-02 -1.69064388e-01 -2.09588394e-01
      -4.74195965e-02 8.92061070e-02 2.95593613e-03 2.83720866e-02
      2.82151252e-02 2.24553924e-02 3.02861165e-02 7.75856748e-02
      3.84142771e-02 1.17532816e-03 -1.88828744e-02 -3.11276279e-02
      -4.57473733e-02 -1.44748352e-02 -3.86887863e-02 -1.13579467e-01
      -1.09284431e-01 -2.26089489e-02 -2.33608671e-02 8.86084978e-03
      3.29222553e-03 3.11046559e-02 3.72848660e-02 5.30957356e-02
      4.93675992e-02 3.31905670e-02 -7.66824000e-03 -4.11115587e-02
      -4.26544808e-02 -2.02138443e-02 -4.94218878e-02 -8.03811029e-02
      -9.61224958e-02 1.27193285e-02 -1.02605987e-02 9.90139507e-03
      1.35221267e-02 5.20687690e-03 5.34500480e-02 5.90455830e-02
      4.66389582e-02 -1.99729186e-02 -1.72446519e-02 -6.10252284e-03
      1.33054806e-02 -1.99112110e-02 -7.43064191e-03 -2.57657580e-02
      -5.20949811e-02 -1.45954192e-02 -3.35452780e-02 -5.03348708e-02
      -5.92183322e-02 -5.17876484e-02 9.12354153e-04 5.63789532e-02
      2.64527183e-02 2.39601964e-03 -4.95645814e-02 -7.43109733e-02
      -6.29708841e-02 -4.89185043e-02 -2.70910636e-02 -8.12308788e-02
      -8.83668661e-02 -2.78699063e-02 -1.92374289e-02 -2.35802568e-02
      -2.41715722e-02 -3.26407515e-02 -3.98229957e-02 1.52474483e-02
      6.02914905e-03 3.14293541e-02 2.93235704e-02 -1.21877016e-02
      -1.75584015e-02 4.71203588e-03 -3.56979929e-02 -3.86242159e-02
      -3.17267925e-02 2.39041727e-02 3.31512280e-02 9.20403190e-03
      8.69087782e-03 -6.93948381e-03 3.50392722e-02 8.75323825e-03
      -1.74908899e-02 1.76132638e-02 3.32424566e-02 -3.83501220e-03
      6.87902141e-03 1.75817497e-02 5.06565254e-03 3.37488353e-02
      6.75986484e-02 3.60815860e-02 5.17139696e-02 3.46439169e-03
      1.15592713e-02 2.22486183e-02 2.56663263e-02 2.08359361e-02
      -1.53860912e-01 -4.65684421e-02 -5.87766506e-02 -4.29889262e-02
      -2.40299646e-02 -5.51537015e-02 -1.54617764e-02 -4.58042733e-02
      -7.27782324e-02 3.63508752e-03 3.16476114e-02 -4.38707881e-03
      -1.94848143e-02 -3.73504013e-02 4.04246803e-03 -6.40239567e-02
      -1.84543699e-01 -1.32272646e-01 -1.31519865e-02 -1.59672480e-02
      3.49680819e-02 2.16833670e-02 2.50024106e-02 3.27988602e-02
      3.59477513e-02 4.01192755e-02 2.54606437e-02 -2.41659721e-03
      -9.22182880e-06 1.48791652e-02 3.42899486e-02 -1.45172879e-01
      1.85812395e-02 7.56890420e-03 2.51731891e-02 -4.56772037e-02
      -8.62749945e-03 2.02882923e-02 1.02649108e-02 3.79233658e-02
      5.10706678e-02 3.19645740e-02 2.23348495e-02 1.69936623e-02
      2.79329009e-02 3.83874513e-02 2.80720145e-02 7.39629865e-02
      -1.53717259e-03 -1.10077458e-02 2.49341112e-02 2.78548431e-03
      4.21713702e-02 3.33421603e-02 2.52027977e-02 6.57347664e-02
      6.07033633e-02 1.38688823e-02 9.28919483e-03 3.67995016e-02
      3.38590443e-02 3.62367593e-02 -5.21971891e-03 4.43838164e-02
      -1.77111864e-01 -8.49774480e-02 1.62865054e-02 1.84648472e-03
      5.52724190e-02 2.01497935e-02 3.95552721e-03 4.42819856e-02
      3.38945538e-02 3.93331647e-02 1.42847244e-02 5.52350515e-03
      7.93222804e-03 4.03006040e-02 -8.40873364e-03 -8.15118030e-02
      -1.42883256e-01 -7.95276538e-02 -3.61002237e-02 -2.10833680e-02
      5.01901656e-02 1.23493271e-02 -1.46265393e-02 2.93417554e-02
      3.63934413e-02 3.07100564e-02 6.48249523e-04 2.92067658e-02
      6.52086362e-03 -5.30555146e-03 5.82070695e-03 -9.29629132e-02
      2.41477452e-02 1.61352418e-02 2.36627627e-02 4.05916646e-02
      4.89450917e-02 3.90509069e-02 2.88976040e-02 6.13200441e-02
      6.10778816e-02 4.23205644e-03 7.53127225e-03 3.16569060e-02
      3.35151479e-02 5.70718236e-02 5.25153726e-02 7.07256794e-02
      2.89928131e-02 -5.51710464e-03 -8.67358409e-03 -1.30454926e-02
      -1.10986782e-02 1.82261616e-02 2.03544870e-02 7.31231570e-02
      6.60938844e-02 2.58312691e-02 1.87134948e-02 2.64391098e-02
      2.69417148e-02 2.00349763e-02 4.30504605e-02 4.81069461e-02
      -1.22020178e-01 -4.61011790e-02 -2.70436294e-02 1.84357222e-02
      3.32181342e-02 4.56584617e-02 2.00598817e-02 4.06185910e-02
      5.55904768e-02 2.61518024e-02 -8.52008641e-04 3.35781276e-02
      1.89752374e-02 3.20262648e-02 5.25369719e-02 -6.90840334e-02
      -1.31432325e-01 -8.16373229e-02 -8.31699669e-02 -4.72260639e-02
      -5.71951196e-02 -3.13679799e-02 -4.62073423e-02 -8.87240004e-03
      -4.34904592e-03 -3.52114066e-02 -3.41854915e-02 3.47022200e-03
      2.35265438e-02 4.62386524e-03 -1.49320224e-02 -1.19163878e-01
      8.81326795e-02 2.74454895e-02 3.76820285e-03 -4.59017716e-02
      -4.04490605e-02 -9.01293755e-03 -1.76902637e-02 -1.64853893e-02
      2.95099355e-02 1.99760608e-02 -8.86870897e-04 1.87711623e-02
      8.58288351e-03 1.10366829e-02 2.65835524e-02 8.03454667e-02
      1.02433436e-01 4.07263897e-02 4.76961693e-04 -1.17547894e-02
      1.06207700e-02 -9.03391168e-02 -1.51000217e-01 -8.59912336e-02
      1.21962830e-01 7.51353130e-02 -1.91143918e-04 2.60103736e-02
      1.86095145e-02 1.85285024e-02 1.32450499e-02 7.97578543e-02
      -5.90807153e-03 -3.03996783e-02 -8.10836032e-02 -6.51577562e-02
      -5.33307455e-02 -4.55754846e-02 -6.13915026e-02 -2.49731224e-02
      4.42791358e-02 -2.44966068e-04 -2.11789622e-03 1.15297055e-02
      2.41014943e-03 2.77613034e-03 2.31408644e-02 -1.25264032e-02
      6.34180307e-02 -5.57621941e-02 -1.14118516e-01 -1.22641869e-01
      -1.03524230e-01 -1.44694954e-01 -1.99085027e-01 -3.54360975e-02
      1.42955884e-01 8.63303021e-02 2.32116319e-02 3.07893138e-02
      1.32445637e-02 1.29321972e-02 3.46503146e-02 8.72627050e-02</_></support_vectors>
  <uncompressed_sv_total>90</uncompressed_sv_total>
  <uncompressed_support_vectors>
    <_>
      1.03666000e-01 9.85542685e-02 1.11470766e-01 1.00965634e-01
      5.54687111e-03 2.57042143e-02 4.37391400e-02 7.03167319e-02
      7.83203244e-02 5.80634288e-02 2.89428309e-02 1.32896483e-01
      2.10154712e-01 3.37119922e-02 8.08217824e-02 5.13327904e-02
      2.56865203e-01 8.31655785e-02 7.02381432e-02 8.76293555e-02
      8.01259093e-03 4.19425853e-02 0. 9.21807811e-02 1.01803310e-01
      3.48380543e-02 1.54820820e-02 9.22604874e-02 1.45569056e-01
      2.32850108e-02 2.14448482e-01 2.56865203e-01 9.25792754e-02
      1.38335392e-01 6.86928481e-02 3.79766114e-02 4.08109501e-02
      1.97670817e-01 2.52967745e-01 2.22672433e-01 6.87775165e-02
      1.02100223e-01 1.80624306e-01 1.58723816e-01 1.42670244e-01
      1.74052026e-02 4.44666715e-03 2.93118153e-02 1.95592508e-01
      2.56865203e-01 2.19928250e-01 7.79807717e-02 6.74758479e-02
      2.56865203e-01 1.45373434e-01 2.09325492e-01 8.52496475e-02
      6.12601303e-02 1.05235197e-01 4.91503030e-02 5.83182238e-02
      1.35678649e-02 3.12701315e-02 9.23932567e-02 3.45075488e-01
      1.03792377e-01 1.95204839e-02 7.47636426e-03 3.83836008e-03
      4.69295308e-03 0. 1.81615055e-02 1.81615055e-02 0. 0.
      7.02917110e-03 1.13643622e-02 2.26209871e-03 7.25416541e-02
      3.45075488e-01 3.45075488e-01 1.63049296e-01 2.62729521e-03
      4.97007160e-04 4.95323096e-04 0. 0. 2.40752962e-03 2.40752962e-03
      0. 0. 0. 0. 0. 1.95724610e-02 3.45075488e-01 2.45292425e-01
      2.54806995e-01 6.86601326e-02 1.36093087e-02 1.77706033e-02
      3.28506678e-02 1.45733552e-02 1.90890636e-02 9.63038858e-03 0.
      2.09599937e-04 7.29360210e-04 0. 2.82508344e-03 7.54538327e-02
      1.83751315e-01 2.77871907e-01 3.08843315e-01 5.07253176e-03
      1.03220623e-03 1.02870236e-03 0. 0. 7.56977301e-04 7.56977301e-04
      0. 1.46719965e-03 5.10552153e-03 0. 2.44637346e-03 1.12436518e-01
      3.45075488e-01 3.28142136e-01 6.20435029e-02 2.56787557e-02 0. 0.
      0. 0. 1.08029498e-02 1.08029498e-02 0. 0. 0. 0. 0. 7.41841868e-02
      3.28142136e-01 3.28142136e-01 1.16711326e-01 1.74447447e-01
      1.67488549e-02 1.15943735e-03 2.43816059e-03 1.51032945e-02
      1.16636172e-01 1.53264701e-01 1.97492335e-02 5.09745441e-03 0.
      2.84627955e-02 3.19527946e-02 1.18811801e-01 3.28142136e-01
      2.50708133e-01 1.28360987e-01 1.36884791e-03 2.25329492e-03
      2.24564038e-03 0. 0. 1.06040919e-04 1.06040919e-04 0.
      6.09566516e-04 2.12115282e-03 0. 3.73904040e-04 1.15957201e-01
      3.28142136e-01 3.28142136e-01 1.93446521e-02 0. 2.92667374e-02
      5.09736501e-03 3.32416804e-03 9.06197727e-03 1.48908990e-02
      1.91649830e-03 2.82131881e-03 7.28207815e-04 1.10150420e-03
      1.11325458e-02 2.48190276e-02 1.98970020e-01 3.28142136e-01
      1.55546680e-01 4.69356291e-02 7.06244111e-02 5.01030721e-02
      3.46837891e-03 5.66078722e-03 6.34229928e-02 2.31454268e-01
      3.03036213e-01 7.28497133e-02 2.16898341e-02 0. 4.01968285e-02
      4.95569296e-02 3.76743115e-02 9.51927081e-02 9.15241614e-03 0. 0.
      3.00618447e-02 2.08102725e-03 2.12266780e-02 2.85072744e-01
      3.03036213e-01 3.03036213e-01 5.85592836e-02 5.42372093e-02 0.
      1.21599194e-02 1.74886473e-02 9.81540233e-03 2.51820753e-03
      1.89046338e-01 2.69158540e-04 0. 8.35051313e-02 7.78085878e-03
      5.27226273e-03 8.29830393e-02 1.10789470e-01 1.51375398e-01
      2.06752121e-02 7.23197907e-02 1.58875417e-02 4.10164818e-02
      8.80718380e-02 1.56797424e-01 2.38965780e-01 1.52540263e-02 0. 0.
      5.01030721e-02 3.75412544e-03 1.18210213e-02 1.98733106e-01
      3.03036213e-01 3.03036213e-01 8.28761831e-02 3.03036213e-01
      2.33507603e-02 4.76518609e-02 7.28567019e-02 6.91586062e-02
      2.01290622e-02 1.36134389e-04 0. 0. 9.64253268e-04 9.60977690e-04
      3.62409912e-02 2.31144875e-01 3.48504394e-01 3.48504394e-01
      1.70192979e-02 3.55919302e-02 9.89870983e-04 9.93237249e-04 0. 0.
      1.36134389e-04 7.15635251e-03 0. 0. 1.17594078e-02 1.17195044e-02
      3.29791382e-02 2.49834321e-02 1.61252409e-01 1.40710413e-01
      1.70043930e-02 0. 9.31024365e-03 9.34190582e-03 0. 0.
      7.15635251e-03 1.23862689e-02 0. 0. 5.78552019e-04 5.76586637e-04
      1.98965985e-02 1.13433830e-01 3.48504394e-01 3.48504394e-01
      1.23558439e-01 3.48504394e-01 1.46344546e-02 6.95683211e-02
      1.23983352e-02 2.40583811e-02 3.90070602e-02 3.01030546e-01 0. 0.
      2.22958457e-02 2.22202633e-02 1.82962641e-02 8.01239442e-03
      1.81488812e-01 1.62238330e-01 4.43710238e-02 1.30383288e-02
      1.18296053e-02 4.43646871e-02 1.76638253e-02 4.22605276e-02
      3.01628143e-01 1.52004808e-01 1.35809660e-01 7.56400749e-02
      1.65707041e-02 3.05458661e-02 1.08232126e-01 2.39362627e-01
      2.99221545e-01 2.81410277e-01 4.63318452e-02 6.56995773e-02
      2.17620116e-02 1.13779819e-02 4.15220996e-03 3.97276785e-03
      2.95025017e-02 6.25324473e-02 1.03328571e-01 9.04727653e-02
      3.13982628e-02 5.60691915e-02 1.28668338e-01 1.74549714e-01
      2.99221545e-01 2.99221545e-01 4.79735620e-02 3.89893204e-02
      6.73880894e-03 6.82678958e-03 2.49132607e-03 8.59886594e-03
      1.35678044e-02 9.95128304e-02 5.95963448e-02 1.09792173e-01
      1.59401465e-02 8.13141391e-02 5.25827222e-02 1.87096134e-01
      2.99221545e-01 2.99221545e-01 4.67587337e-02 0. 0. 1.07127251e-02
      4.00356799e-02 2.78093778e-02 3.19352373e-02 1.25724385e-02
      1.08525027e-02 3.68656330e-02 1.43895177e-02 2.08143052e-02
      2.34223120e-02 6.05388284e-02 2.99221545e-01 2.99221545e-01
      6.53253645e-02 0. 7.80852570e-04 7.21114362e-03 2.40214057e-02
      1.70928240e-02 1.84518984e-03 3.08249921e-01 3.08249921e-01
      1.15850277e-01 3.76715586e-02 8.00719783e-02 6.31014407e-02
      7.16097951e-02 2.59271502e-01 2.08257958e-01 1.68724135e-02
      2.75890692e-03 9.60037019e-03 0. 1.03451563e-02 1.58879235e-01
      2.07070366e-01 3.08249921e-01 3.08249921e-01 2.84603760e-02
      1.78680625e-02 1.78073719e-02 6.54552307e-04 1.05209838e-04
      1.53683694e-02 1.53683694e-02 9.57207929e-04 2.52674259e-02
      7.05604926e-02 3.36932018e-03 3.45086753e-02 2.77352363e-01
      3.08249921e-01 2.32174210e-02 1.08108660e-02 9.71252564e-03
      2.35155579e-02 2.97311172e-02 3.20730656e-02 1.55004803e-02
      3.08249921e-01 3.08249921e-01 3.11699510e-02 1.65534439e-03
      1.05274301e-02 4.78341896e-03 6.41123718e-03 1.15348017e-02
      2.51454711e-02 7.26812184e-02 4.70344685e-02 1.61875430e-02
      2.93506719e-02 2.92510465e-02 4.58186632e-03 7.36468821e-04
      3.12013421e-02 3.12013421e-02 2.95002433e-03 2.99403928e-02
      7.60206953e-02 3.58205400e-02 4.44928855e-02 7.23363236e-02
      6.76043034e-02 4.01748657e-01 3.23918015e-01 5.88231068e-03
      4.05499712e-02 4.04122509e-02 0. 0. 4.35419753e-03 4.35419753e-03
      6.12746691e-03 4.80803698e-02 3.93642634e-02 4.72326018e-03
      1.98083110e-02 1.72783166e-01 4.01748657e-01 4.01748657e-01
      1.01126052e-01 8.34808219e-03 4.62697744e-02 5.47512434e-02
      3.04108728e-02 0. 2.92568672e-02 2.92568672e-02 3.71824019e-02
      4.43112291e-02 2.10233070e-02 6.09552599e-02 1.12050116e-01
      2.49490544e-01 4.01748657e-01 8.42197016e-02 7.19163194e-02
      3.07108322e-03 4.37280983e-02 4.35797237e-02 2.45572045e-03
      3.94727918e-04 1.16799707e-02 1.16799707e-02 1.53745878e-02
      1.01625644e-01 6.78069517e-02 4.71726209e-02 6.79655671e-02
      8.62441659e-02 3.85405682e-02 4.98835929e-02 2.11312808e-02
      1.39134731e-02 2.35622283e-02 4.13005240e-02 3.54365669e-02
      2.76309531e-03 5.28060272e-02 5.28060272e-02 6.57940209e-02
      9.76382270e-02 4.96452488e-02 5.55084310e-02 1.61112607e-01
      3.71003002e-02 3.60071696e-02 1.19185232e-01 3.04474845e-03
      2.17121914e-02 2.99552549e-02 1.49823604e-02 2.39817258e-02
      8.22817013e-02 2.87886988e-02 3.72101143e-02 2.31509693e-02
      1.10389374e-01 1.15045913e-01 1.14538603e-01 1.65179536e-01
      1.29176036e-01 2.16103449e-01 1.12354821e-02 6.47859927e-03
      8.79314169e-02 3.54545526e-02 9.01106745e-03 8.20535272e-02
      2.98897952e-01 1.46076977e-01 3.11966389e-01 2.19181493e-01
      3.11966389e-01 2.45442405e-01 2.54605204e-01 1.50352523e-01
      1.11074664e-01 3.33346501e-02 1.41861970e-02 8.74257181e-03
      3.90198417e-02 4.55244770e-03 7.85867963e-03 1.80182289e-02
      2.54089125e-02 1.34673733e-02 1.28827533e-02 2.52676345e-02
      2.57553812e-02 9.58249122e-02 5.81994280e-02 4.74166423e-02
      5.49072679e-03 1.44860549e-02 4.40304689e-02 4.33897078e-02
      1.66382357e-01 3.18671353e-02 6.06083535e-02 1.07855447e-01
      1.47192374e-01 5.18978126e-02 7.48595148e-02 8.17153826e-02
      2.37583905e-01 2.83440709e-01 2.50350267e-01 2.14440990e-02
      8.23016837e-02 2.43324451e-02 7.89484475e-03 1.50640588e-02
      2.88675521e-02 4.64519188e-02 1.35996118e-02 1.72797255e-02
      4.22634184e-02 3.73948887e-02 8.76213461e-02 3.89322713e-02
      1.11830592e-01 2.33443715e-02 5.60048223e-02 2.93921749e-03
      4.35225070e-02 3.05090901e-02 2.65069932e-01 2.06941381e-01
      1.80247307e-01 9.15080607e-02 3.50600258e-02 5.81196696e-02
      3.81147042e-02 2.42099632e-02 1.56708211e-02 7.49453763e-03
      8.40204116e-03 5.64070046e-03 2.65999176e-02 4.18748381e-03
      4.29871455e-02 2.38500550e-01 7.52849039e-03 2.76386626e-02
      4.96530756e-02 7.74198622e-02 5.95178194e-02 8.79819766e-02
      1.68950737e-01 1.64544702e-01 1.54757619e-01 1.52454544e-02
      3.99769880e-02 3.69117931e-02 5.58445267e-02 4.19888238e-04
      5.61327450e-02 2.46846266e-02 2.65069932e-01 2.65069932e-01
      2.65069932e-01 2.31743306e-01 1.71269238e-01 2.65069932e-01
      2.63129503e-01 2.65069932e-01 2.65069932e-01 6.48531551e-03
      5.04122442e-03 5.52200852e-03 1.81048084e-02 5.98211947e-04
      4.35225070e-02 2.35288233e-01 1.31407473e-02 4.43162164e-03
      1.30746746e-02 1.85893581e-03 2.60154903e-02 3.34596969e-02
      1.26579538e-01 3.30298901e-01 3.30298901e-01 1.06773339e-01 0.
      7.00826244e-03 3.16425413e-02 1.90617610e-02 9.95087903e-03
      2.71321665e-02 1.61680719e-03 7.96947919e-04 5.40956901e-03
      2.11927737e-03 4.71700402e-03 1.76477786e-02 2.84025464e-02
      3.30298901e-01 2.52919674e-01 4.63517830e-02 0. 2.86890147e-03
      1.07036727e-02 1.14370594e-02 5.97052742e-03 1.00116571e-02
      1.52689097e-02 0. 0. 0. 0. 3.73431593e-02 7.49437734e-02
      3.30298901e-01 3.30298901e-01 1.47165716e-01 1.19957305e-01
      5.33463731e-02 2.41327986e-01 2.23095808e-02 6.64124545e-03
      1.13208838e-01 7.54984852e-04 1.93534384e-03 1.20401606e-02
      4.29909793e-04 4.28449392e-04 2.42809821e-02 5.94696365e-02
      3.30298901e-01 3.30298901e-01 5.08068055e-02 6.25174940e-02
      1.07020168e-02 3.62154767e-02 3.81748541e-03 3.98474745e-03
      5.95189407e-02 4.89893518e-02 1.57926325e-03 9.82491206e-03
      2.72532348e-02 2.71606874e-02 2.53007933e-02 1.26173627e-02
      4.59747791e-01 4.59747791e-01 2.97277421e-02 2.35997885e-02
      2.30978150e-02 2.31763627e-02 1.56588503e-03 2.51697435e-04
      4.89893518e-02 8.32378194e-02 1.03025194e-02 1.40355888e-03
      4.83702086e-02 4.82061803e-02 3.61439912e-03 5.80962456e-04
      6.16027378e-02 6.16027378e-02 9.69013479e-03 6.02852218e-02
      6.14707693e-02 6.16798215e-02 2.17461698e-02 6.85688183e-02
      7.33743533e-02 4.29628864e-02 1.86527167e-02 1.16042279e-01
      1.35156428e-02 1.34697491e-02 4.91246656e-02 6.77505806e-02
      4.59747791e-01 4.59747791e-01 7.43852034e-02 5.74049391e-02
      2.17914041e-02 2.18655150e-02 0. 0. 4.29628864e-02 6.57676309e-02
      2.66467384e-03 1.65774692e-02 5.44577911e-02 5.42732030e-02
      2.94748042e-02 4.73772455e-03 1.19412154e-01 1.19412154e-01
      1.13671413e-02 7.07183927e-02 8.62773433e-02 8.65707621e-02
      1.54071092e-03 9.54384916e-03 6.57676309e-02 7.38804638e-02
      2.32134070e-02 0. 5.38814925e-02 5.36989085e-02 2.82263625e-02
      4.53704083e-03 9.83527303e-02 9.83527303e-02 2.50310749e-02
      1.55725807e-01 1.36303619e-01 1.36767149e-01 8.74309838e-02
      1.63957998e-01 5.11587486e-02 7.83438385e-02 1.32254139e-01
      3.60512584e-02 3.11951227e-02 3.90909687e-02 2.05778554e-01
      3.17592844e-02 8.76955539e-02 8.76955539e-02 4.74211797e-02
      1.46383807e-01 1.17050193e-01 1.17448248e-01 2.65876770e-01
      6.41512722e-02 3.35677564e-02 3.65110263e-02 0. 0. 8.69216174e-02
      8.66270810e-02 5.22080064e-02 3.95503677e-02 2.30910882e-01
      2.30910882e-01 5.88364387e-03 3.66039127e-02 1.59082711e-01
      1.59623727e-01 3.54921748e-03 2.19854359e-02 3.65110263e-02
      8.93575326e-02 2.13119060e-01 4.90269475e-02 1.27012610e-01
      1.82593092e-01 4.22814161e-01 2.76852608e-01 1.61634475e-01
      1.61634475e-01 2.32342537e-02 1.44547239e-01 1.06560968e-01
      1.06923357e-01 1.60624143e-02 9.77473482e-02 5.12035787e-02
      4.12774831e-02 6.72360286e-02 1.12163499e-01 3.16803865e-02
      2.74666753e-02 5.43642938e-02 6.87644482e-02 2.10040212e-02
      1.56262033e-02 1.85848940e-02 5.26642837e-02 4.94185649e-02
      4.95866276e-02 6.32697120e-02 1.01698330e-02 1.69683844e-02
      5.88643104e-02 7.55255297e-02 2.74026066e-01 7.97445625e-02
      1.91060394e-01 1.71918884e-01 1.91405833e-01 3.22906137e-01
      2.30948925e-01 1.52735962e-02 3.01289465e-02 1.47036880e-01
      1.47536919e-01 6.58874121e-03 3.85373719e-02 1.71403922e-02
      4.64842357e-02 1.09775186e-01 1.46896720e-01 8.69236961e-02
      1.65790468e-01 1.72523424e-01 8.14289823e-02 2.60197446e-02
      2.27930546e-02 1.22177918e-02 7.60105401e-02 8.51904415e-03
      8.54801480e-03 1.40244598e-02 1.04673259e-01 3.65764461e-02
      2.14242004e-02 1.22980028e-01 2.57900745e-01 1.13954447e-01
      2.09401011e-01 1.55658379e-01 1.43662453e-01 3.22906137e-01
      3.22906137e-01 9.50597599e-02 2.45223548e-02 9.65402946e-02
      9.68686044e-02 1.33341104e-02 9.85488072e-02 2.45308653e-02
      8.59934487e-04 3.74468369e-03 8.13761726e-03 8.66871327e-03
      1.80476625e-02 2.66667213e-02 4.61059883e-02 2.03269497e-01
      2.42882475e-01 1.14632759e-03 0. 5.02320658e-03 5.04029077e-03 0.
      4.78154561e-03 1.04527781e-03 4.13269885e-02 3.51433717e-02
      7.09591135e-02 4.22759950e-02 4.42423113e-02 1.13168754e-01
      7.27864951e-02 3.94528031e-01 3.94528031e-01 4.00360161e-03 0.
      6.88027241e-04 6.90367073e-04 0. 2.86892755e-03 2.35112961e-02
      1.02707672e-04 2.07400532e-03 3.89901968e-03 1.31333177e-03
      2.99833668e-03 2.09544413e-03 5.13722701e-03 2.90665060e-01
      3.93220216e-01 9.34891868e-03 0. 4.34503937e-03 4.35981527e-03
      7.87184254e-05 4.87616984e-04 1.02707672e-04 1.94480421e-03
      5.85383277e-05 3.64178617e-04 0. 2.19163689e-04 2.24431438e-04
      2.20606197e-03 3.94528031e-01 3.94528031e-01 5.47749456e-03 0.
      6.18139806e-04 6.20241975e-04 0. 0. 1.94480421e-03 4.98207426e-03
      0. 0. 0. 0. 3.63166700e-03 8.66278913e-03 1.85764417e-01
      3.20157021e-01 1.40896454e-01 1.81899354e-01 1.96443461e-02
      1.01809479e-01 1.50405988e-02 1.75565411e-03 3.08730956e-02
      5.57384046e-05 8.69709766e-04 5.41063771e-03 3.50062910e-04
      3.48876783e-04 3.52642662e-03 1.31779816e-02 2.54508525e-01
      3.20157021e-01 2.10587047e-02 6.15916215e-02 6.04012562e-03
      1.63754225e-02 2.14865711e-03 1.05339254e-03 1.55903511e-02
      4.41695796e-03 0. 0. 0. 0. 6.86300627e-04 8.79533123e-04
      3.20157021e-01 3.20157021e-01 3.20157021e-01 3.20157021e-01
      6.43006060e-03 8.67125485e-03 2.14865711e-03 0. 4.41695796e-03 0.
      8.09271005e-05 5.03463671e-04 5.83438261e-04 5.81461354e-04
      4.99659404e-03 6.18767226e-03 3.20157021e-01 3.20157021e-01
      6.35493994e-02 5.67291230e-02 4.35028272e-03 4.48018359e-03
      3.06950998e-04 0. 0. 2.25436650e-02 1.03481552e-02 6.43779337e-02
      1.35865891e-02 1.35405529e-02 4.35800850e-02 2.65389234e-02
      4.56030518e-01 4.56030518e-01 7.50112385e-02 5.70184328e-02
      2.51337271e-02 2.52192020e-02 0. 0. 2.25436650e-02 5.57124875e-02
      1.47830800e-03 9.19684861e-03 5.01252152e-02 4.99553420e-02
      3.74763645e-02 6.02385076e-03 6.30460382e-02 6.30460382e-02
      2.46595172e-03 1.53414235e-02 2.79720295e-02 2.80671529e-02 0. 0.
      5.57124875e-02 2.46718582e-02 9.62903083e-04 5.99041255e-03
      2.68095229e-02 2.67186463e-02 2.72541437e-02 2.79498138e-02
      4.56030518e-01 4.56030518e-01 2.02639490e-01 1.06524788e-01
      4.54904251e-02 4.56451289e-02 0. 0. 2.46718582e-02 1.09630026e-01
      1.37557581e-04 8.55773163e-04 8.12372044e-02 8.09616819e-02
      2.26159524e-02 3.63519718e-03 8.22014213e-02 9.00445580e-02
      1.41319232e-02 3.80685106e-02 6.19217940e-02 6.21323809e-02 0. 0.
      1.09630026e-01 3.26477364e-02 0. 0. 8.04598555e-02 8.01871493e-02
      9.04482082e-02 4.35204878e-02 1.94123730e-01 1.94123730e-01
      4.13534261e-04 2.57272040e-03 4.14503105e-02 4.15912792e-02 0. 0.
      3.26477364e-02 8.71317368e-03 2.68278997e-02 6.17162138e-03
      5.23074195e-02 7.12961182e-02 2.48320013e-01 2.39634976e-01
      2.49902084e-01 2.49902084e-01 1.62798706e-02 1.01281956e-01
      4.71353456e-02 4.72956486e-02 2.10520774e-02 2.36266330e-01
      7.85398632e-02 1.11789934e-01 0. 0. 1.32741734e-01 1.32291466e-01
      1.24647059e-01 2.41755340e-02 2.16842294e-01 2.16842294e-01
      3.33161512e-03 2.07269751e-02 1.28029883e-01 1.28465280e-01
      1.83647196e-03 1.13759246e-02 1.11789934e-01 2.65437718e-02
      6.22429792e-03 3.87230664e-02 4.95300256e-02 4.93619516e-02
      2.37178415e-01 6.71056509e-02 2.82220423e-01 2.82220423e-01
      2.32569594e-03 1.44688506e-02 1.41730532e-01 1.42212525e-01
      1.60219848e-01 2.43047878e-01 7.36676902e-02 3.46620046e-02
      3.03235240e-02 2.46614125e-02 3.07350587e-02 7.16524348e-02
      1.05390199e-01 4.82734032e-02 3.92271020e-02 7.36711770e-02
      4.36589830e-02 5.26916012e-02 3.56763639e-02 3.57976966e-02
      1.94472838e-02 2.36761540e-01 9.16366056e-02 5.08625731e-02
      1.12468906e-01 5.35180606e-02 2.20030453e-02 6.13864101e-02
      5.34241572e-02 1.13616787e-01 3.20471644e-01 3.30240846e-01
      1.75700039e-01 1.84796341e-02 1.14034101e-01 1.14421904e-01
      1.57229584e-02 1.80634022e-01 8.14712346e-02 3.90709601e-02
      5.44954091e-03 2.05025319e-02 3.45297568e-02 3.44124585e-02
      1.21920668e-01 2.51441430e-02 4.64418009e-02 1.03848584e-01
      5.98589852e-02 7.52737140e-03 1.08402245e-01 1.08770899e-01
      8.03398415e-02 1.67827368e-01 8.38398188e-02 6.23404272e-02
      1.59421880e-02 5.37682837e-03 2.63006408e-02 2.62112990e-02
      7.10331351e-02 1.30836472e-01 3.36597204e-01 3.36597204e-01
      2.47166187e-01 7.77411759e-02 1.61744773e-01 1.62294805e-01
      1.29748955e-02 2.33128980e-01 1.36144280e-01 2.79115775e-04
      1.69264607e-03 7.33669847e-04 1.77693903e-04 3.06019676e-04
      1.74821689e-04 1.25891529e-02 2.23499000e-01 2.77364552e-01
      6.94927154e-03 4.49825107e-04 3.64904059e-03 3.66145023e-03
      7.86979508e-05 8.72853445e-04 4.09079978e-04 3.69372778e-04
      7.92024002e-06 4.92733961e-05 0. 0. 0. 7.55349081e-03
      4.06343281e-01 4.06343281e-01 2.29530479e-03 6.42607265e-05
      5.13785577e-04 5.15532971e-04 0. 0. 3.69372778e-04 3.46513873e-04
      2.33886327e-04 3.77566030e-05 4.84866250e-05 4.83219155e-05
      4.42880031e-04 1.15018347e-02 3.17673147e-01 3.27318162e-01
      6.67302869e-03 3.14877578e-03 1.66986964e-03 1.67554838e-03
      1.12425660e-05 2.76718452e-03 1.25626323e-03 3.35011398e-04 0. 0.
      0. 0. 0. 6.35244465e-03 4.06343281e-01 4.06343281e-01
      8.75671802e-04 4.49825107e-04 6.47353590e-05 6.49555077e-05 0. 0.
      3.35011398e-04 3.30139254e-03 0. 0. 0. 0. 1.23997347e-03
      1.58909615e-03 1.88752279e-01 2.68541396e-01 2.37581789e-01
      2.68541396e-01 2.95723043e-02 0. 1.10904325e-03 7.57092843e-04
      3.30139254e-03 8.59192281e-04 0. 0. 5.24818897e-05 5.23040580e-05
      8.67981464e-03 1.11236740e-02 2.57331043e-01 2.68541396e-01
      3.11000980e-02 9.00484025e-02 6.83645299e-03 6.16762554e-04
      6.93082437e-03 1.28153525e-03 3.01805022e-03 2.87650945e-03 0. 0.
      0. 0. 7.43984070e-04 9.53457842e-04 8.92220661e-02 2.68541396e-01
      9.75793004e-02 2.68541396e-01 2.17191428e-01 2.17978746e-01
      1.94774084e-02 3.86302918e-02 2.87650945e-03 8.57001022e-02 0. 0.
      0. 0. 5.20788878e-03 6.67420402e-03 1.47207230e-01 2.60549724e-01
      2.25294214e-02 2.68541396e-01 1.10655941e-01 2.68541396e-01
      1.06825866e-01 2.42285237e-01 1.73326433e-01 1.08355293e-02 0. 0.
      2.03192979e-03 2.02503079e-03 9.81286354e-03 1.06259007e-02
      9.82939675e-02 9.58746448e-02 1.59923732e-02 1.95216704e-02
      4.23430698e-03 3.49873095e-03 6.44644862e-03 7.32739642e-03
      1.04059651e-02 4.60452102e-02 1.71948527e-03 0. 1.08985938e-02
      1.08616306e-02 1.25384834e-02 2.01541139e-03 1.06049124e-02
      1.17126452e-02 2.78533529e-03 1.02877384e-02 9.00321454e-03
      9.03383270e-03 0. 6.70951372e-03 1.52332643e-02 4.63597268e-01 0.
      0. 9.59461031e-04 9.56201751e-04 7.74335209e-03 6.67381193e-03
      8.55632946e-02 7.54529610e-02 1.84870232e-03 6.68809041e-02
      6.70289760e-03 9.99552906e-02 9.50077325e-02 2.68300503e-01
      4.63597268e-01 4.63597268e-01 1.20363962e-02 0. 1.03306863e-02
      1.02956686e-02 2.02959981e-02 3.26234056e-03 2.92370468e-02
      2.93952916e-02 1.11017539e-03 5.90092409e-03 1.91498804e-03
      1.92150054e-03 0. 3.33091803e-02 4.63597268e-01 4.27784175e-02
      2.50561722e-03 0. 9.65502206e-03 9.62229446e-03 4.77927271e-03
      7.68209167e-04 3.83181055e-03 3.83181055e-03 4.63465491e-04
      2.88335723e-03 6.55208342e-03 6.57436531e-03 2.55474093e-04
      8.89298413e-03 2.07671598e-02 4.88668606e-02 1.94754847e-03
      5.38681820e-03 3.58296838e-03 3.57082323e-03 3.32292425e-03
      5.34119259e-04 4.61088168e-03 4.61088168e-03 0. 0. 5.77435642e-03
      5.79399383e-03 1.18875839e-02 2.77410075e-02 5.63234724e-02
      5.21954000e-01 1.75393224e-02 0. 9.39255673e-03 9.36072879e-03
      6.53454382e-03 1.05035037e-03 1.30691305e-02 1.30691305e-02
      2.78079329e-04 1.73001457e-03 9.36011958e-04 9.39195103e-04
      1.53284462e-04 1.31336190e-02 4.06473726e-01 5.21954000e-01
      8.09126813e-03 3.23209097e-03 2.44393083e-03 2.43564975e-03
      2.83100118e-04 4.55049812e-05 1.12017980e-02 1.12017980e-02 0. 0.
      7.91840896e-04 7.94533757e-04 1.32811265e-02 3.69544700e-02
      5.21954000e-01 1.90010611e-02 3.15027311e-03 7.63506070e-03
      2.25661974e-03 2.24895403e-03 6.72728941e-03 1.08132930e-03
      2.85018049e-03 3.55133717e-03 7.16329494e-04 0. 3.83016351e-03
      3.84318875e-03 9.86914057e-03 2.80316155e-02 5.39462455e-02
      1.51102711e-02 1.77235212e-02 2.97405366e-02 2.72354833e-03
      2.71429657e-03 1.02643324e-02 8.73409677e-03 2.19878983e-02
      3.04002706e-02 1.09802242e-02 2.54535349e-03 7.61388475e-03
      7.63977738e-03 1.32365187e-03 3.34385373e-02 8.12006518e-02
      4.69512701e-01 4.40310407e-03 7.45349331e-03 7.70386716e-04
      7.67769699e-04 1.32237177e-03 2.12553990e-04 1.17932912e-02
      1.17932912e-02 0. 0. 2.76402017e-04 2.77341984e-04 1.15624908e-02
      1.12579137e-01 4.69512701e-01 4.69512701e-01 1.89843699e-01
      1.29115105e-01 1.28397788e-03 1.27961615e-03 4.73807892e-03
      4.72798757e-03 2.67165415e-02 3.84514481e-02 4.03093128e-03 0.
      7.24387530e-04 7.26851053e-04 1.60004932e-03 1.73460066e-01
      4.69512701e-01 4.99720685e-03 5.04007051e-03 2.12172847e-02
      1.33180438e-04 1.71795934e-02 9.61665995e-03 1.82705112e-02
      2.76934355e-01 1.90325886e-01 5.97019913e-03 1.17049948e-03
      9.94541566e-04 9.97923780e-04 0. 2.87062605e-03 1.41191464e-02
      1.60658464e-03 1.25692203e-03 1.02370828e-02 0. 2.84114443e-02
      1.40003003e-02 4.41144183e-02 3.36511850e-01 3.36511850e-01
      1.85153738e-03 1.67214210e-04 0. 0. 0. 0. 1.94988516e-03
      2.71614075e-01 2.08935529e-01 2.20010564e-01 3.31479162e-02
      1.22728400e-01 7.10207745e-02 4.52662595e-02 2.15695992e-01
      7.30077997e-02 4.17961460e-03 0. 1.22546131e-04 1.22962883e-04 0.
      1.30750481e-02 1.86887145e-01 2.99443174e-02 1.22416146e-01
      2.17739791e-01 5.51133417e-02 2.22125098e-01 1.78429484e-01
      2.35821426e-01 3.36511850e-01 2.45211348e-01 2.27919826e-03 0. 0.
      0. 0. 0. 1.25127351e-02</_>
    <_>
      5.84028801e-03 0. 3.36006400e-03 1.80087052e-02 2.75959894e-02
      7.72983879e-02 9.41434801e-02 3.57562631e-01 3.38740766e-01
      1.91603806e-02 5.90766035e-03 0. 0. 0. 0. 5.84028801e-03
      6.57948405e-02 3.30601037e-02 2.43868697e-02 1.29075870e-01
      4.59933169e-02 1.28830642e-01 2.27044016e-01 3.57562631e-01
      9.30931643e-02 1.42321840e-01 4.39054482e-02 6.04930054e-03
      8.57395760e-04 0. 0. 8.96210875e-03 5.00857458e-03 0. 0.
      5.93214412e-04 1.49632629e-04 6.16692286e-03 6.28012493e-02
      3.57562631e-01 3.57562631e-01 3.11962031e-02 1.11538935e-02 0. 0.
      0. 0. 5.00857458e-03 0. 0. 1.23774997e-04 4.58320742e-03
      1.04742846e-03 1.02782045e-02 8.16940442e-02 3.57562631e-01
      1.01311937e-01 2.50626653e-01 1.05966814e-01 7.66603872e-02
      3.22236127e-04 0. 0. 0. 3.18433732e-01 1.35299861e-01
      3.88557948e-02 2.01604307e-01 2.54076831e-02 7.24874064e-02
      2.22265735e-01 2.22809792e-01 3.56977805e-02 2.46501610e-01
      7.25143179e-02 3.06856912e-02 9.51338653e-03 2.04552111e-04
      1.26710720e-03 2.15957344e-01 3.18433732e-01 2.46909987e-02
      2.32375581e-02 6.07423158e-03 0. 1.06777865e-02 1.59059167e-02
      2.03314126e-02 1.59114376e-02 7.56119005e-03 1.48803007e-03
      9.60668270e-03 6.59983000e-03 4.56487481e-03 1.77197680e-02
      3.18433732e-01 2.76512257e-03 5.21312933e-03 5.12697641e-03
      7.99363572e-03 1.02686733e-02 1.16017861e-02 1.01324022e-01
      3.18433732e-01 4.45263311e-02 3.18433732e-01 2.63758302e-01
      3.15170288e-01 3.57542746e-03 3.40920204e-04 2.11184518e-03
      3.48103145e-04 3.24216634e-02 3.86023261e-02 3.56718563e-02
      8.67747352e-04 1.44930268e-02 1.49611970e-02 6.69136792e-02
      2.77320836e-02 5.72837982e-03 8.34508240e-02 4.45594639e-02
      4.71865349e-02 2.68033543e-03 1.90689508e-02 5.82649224e-02
      2.63200961e-02 4.32861239e-01 2.28968468e-02 6.15889989e-02
      2.66862661e-02 5.65979490e-03 8.67164321e-03 1.76111069e-02
      1.40316440e-02 1.38362069e-02 0. 0. 4.32578335e-03 4.34049498e-03
      8.74771271e-03 2.63007674e-02 4.32861239e-01 4.32861239e-01
      6.47893995e-02 3.23299021e-02 2.31550373e-02 1.05149383e-02
      3.70238005e-04 1.27780177e-02 3.82336266e-02 2.94131991e-02
      3.87165286e-02 9.63934585e-02 2.59547005e-03 5.95314801e-02
      1.84018701e-01 1.45592958e-01 4.32861239e-01 8.35528448e-02
      4.35505509e-02 3.92610133e-02 3.81232379e-03 4.32049390e-03
      7.27591943e-03 2.08645891e-02 2.18242873e-03 8.14369065e-04 0. 0.
      2.59547005e-03 2.60429666e-03 4.68061604e-02 1.63611770e-01
      1.06176533e-01 1.80837110e-01 6.79958612e-02 2.10572612e-02
      4.96216584e-03 3.15081817e-03 2.22142800e-04 7.66681042e-03
      8.83197878e-03 8.42790527e-04 7.42250774e-03 2.55385488e-02
      1.55728217e-03 1.56257814e-03 1.96256563e-02 1.06762052e-01
      2.45253101e-01 3.27092968e-02 6.08686404e-03 8.13283434e-04
      8.12606886e-04 8.09848541e-04 0. 5.47238253e-03 1.15541089e-02
      1.26186647e-02 7.10292384e-02 2.96452135e-01 1.42517388e-01
      2.97130123e-02 9.45005193e-02 2.65036952e-02 9.72800106e-02
      3.88482847e-04 8.04220443e-04 7.10903187e-05 3.39987309e-04
      3.38832353e-04 0. 3.28342966e-03 1.07887425e-02 3.43622118e-02
      3.47578645e-01 3.93481225e-01 3.38817447e-01 1.78278089e-02
      5.66908009e-02 3.77220521e-03 9.16113425e-03 3.16083692e-02
      2.28828844e-02 8.22202652e-04 9.79546458e-04 9.76219308e-04 0.
      3.28342966e-03 4.60983021e-03 1.42522510e-02 6.93830550e-02
      1.69417888e-01 2.75517311e-02 1.07645069e-03 1.11038280e-04
      1.62679574e-03 1.91836357e-02 1.43173011e-02 2.05385163e-02
      1.79549941e-04 5.66645467e-04 5.64720540e-04 0. 1.97005784e-03
      2.76589836e-03 6.92360476e-02 3.93481225e-01 3.93481225e-01
      3.38362932e-01 7.53515493e-03 0. 0. 1.47593475e-03 0. 0. 0. 0. 0.
      0. 0. 1.14368163e-02 8.52394029e-02 3.52931857e-01 3.52931857e-01
      1.18294813e-01 0. 3.28774884e-04 5.28462369e-05 0. 1.02312083e-03
      0. 0. 1.08652678e-03 1.08284515e-03 0. 0. 2.17568073e-02
      9.03140455e-02 1.66047633e-01 4.84585539e-02 3.72916763e-03
      1.12920557e-03 2.30142404e-03 3.69923655e-04 1.02312083e-03
      8.70633346e-04 2.62867729e-03 2.60876350e-05 0. 0. 0. 0.
      3.83920819e-02 2.87483126e-01 3.52931857e-01 3.52931857e-01
      3.35821360e-01 3.90329491e-03 0. 0. 0. 2.00579059e-03 0. 0.
      1.55218120e-04 1.54692185e-04 0. 0. 7.05374032e-02 3.12623590e-01
      3.52931857e-01 1.12357132e-01 3.78691033e-02 2.95535894e-03
      6.54589559e-04 0. 2.00579059e-03 2.41249800e-03 0. 1.42385706e-03
      5.01137786e-03 2.06325063e-03 1.23441960e-05 6.62653819e-02
      3.95830691e-01 3.54827255e-01 1.13648046e-02 2.15687416e-03 0. 0.
      0. 0. 2.41249800e-03 0. 0. 2.77621187e-02 4.03522030e-02
      1.44427540e-02 1.49102719e-03 5.60287572e-02 3.95830691e-01
      9.23644826e-02 1.02479666e-01 3.75548415e-02 6.02909848e-02 0. 0.
      0. 0. 1.34224677e-03 0. 2.37309514e-03 6.90237759e-03
      1.19931847e-02 4.87126235e-04 6.03623986e-02 3.95830691e-01
      3.95830691e-01 7.09534390e-04 0. 0. 0. 0. 0. 1.34224677e-03 0. 0.
      4.62701991e-02 5.71042337e-02 8.39523003e-02 1.32422075e-02
      1.02626055e-01 3.95830691e-01 1.56342611e-01 1.32623212e-02
      4.82319854e-03 6.45342143e-03 5.21042198e-03 1.49732071e-03
      6.37368590e-04 2.49377675e-02 1.09492766e-03 9.00837872e-03
      1.02878697e-01 8.36956799e-02 3.74206044e-02 2.79154219e-02
      1.69273555e-01 3.05831194e-01 6.86606467e-02 3.05831194e-01
      1.93107158e-01 2.68174857e-01 0. 5.68150754e-05 3.51943483e-04 0.
      8.19398686e-02 7.29395226e-02 6.51374981e-02 2.32399553e-02
      3.94027866e-02 3.35672386e-02 2.28967384e-01 9.39693823e-02
      1.40430480e-02 1.44441620e-01 7.36059025e-02 3.83106954e-02 0.
      7.48533197e-03 3.01839039e-02 4.15205657e-02 0. 4.38943645e-03
      1.61410838e-01 1.22884952e-01 1.46548778e-01 1.26011923e-01
      3.05831194e-01 3.05831194e-01 1.09723434e-01 1.08428620e-01
      5.16933128e-02 2.87048779e-02 2.31760051e-02 6.66009635e-03
      2.83502135e-03 1.10923424e-01 8.52111280e-02 5.93434088e-02
      4.83964086e-02 4.42607440e-02 6.15752712e-02 1.30526394e-01
      3.05831194e-01 3.05831194e-01 4.18841988e-02 6.01808354e-02
      2.92537771e-02 4.10069712e-03 3.31085827e-03 3.82528780e-03
      3.33754066e-03 3.19055803e-02 3.40654463e-01 1.51407659e-01
      5.84315062e-02 1.98778417e-02 2.79716626e-02 1.22319041e-02
      7.78809041e-02 8.32710043e-03 1.32468311e-04 0. 0. 0. 0.
      2.97271628e-02 1.78752556e-01 2.41531268e-01 3.40654463e-01
      1.17608353e-01 1.28548434e-02 2.68439483e-03 2.67527578e-03 0. 0.
      0. 0. 5.14732266e-04 3.20230355e-03 0. 0. 1.46900564e-02
      1.73669353e-01 3.40654463e-01 3.40654463e-01 2.06787735e-01
      5.17005175e-02 5.01943417e-02 7.10856393e-02 6.32313937e-02
      1.37267277e-01 8.20033029e-02 1.61761567e-02 8.72488134e-04
      5.42800920e-03 0. 0. 2.08816659e-02 2.14459039e-02 1.06888026e-01
      3.40654463e-01 1.50396198e-01 6.35854304e-02 2.18599830e-02
      2.17857249e-02 0. 0. 2.84476113e-02 2.84476113e-02 1.92623923e-03
      1.19837113e-02 0. 0. 2.37061512e-02 7.63139799e-02 3.40654463e-01
      9.93874669e-02 4.81706485e-02 2.23506172e-03 4.15617018e-04
      4.14205133e-04 0. 0. 0. 4.54002665e-03 2.69316640e-02
      5.57867251e-02 6.42588595e-03 7.45425280e-03 1.87628006e-03
      9.42432974e-03 8.57904777e-02 5.61122708e-02 5.92008084e-02
      9.66291642e-04 1.49172964e-04 1.48666208e-04 0. 0. 1.12284757e-01
      3.89436483e-01 3.89436483e-01 3.89436483e-01 2.93237507e-01
      5.21797687e-02 6.93384930e-03 1.07988820e-03 1.38197178e-02
      6.81491122e-02 2.07778979e-02 1.21399509e-02 1.47613860e-03
      1.47112412e-03 0. 0. 7.04566482e-03 1.49667850e-02 5.66944713e-03
      8.98692757e-03 1.84825750e-03 6.75790198e-03 7.69794686e-03
      1.28596211e-02 7.00140446e-02 4.98607643e-02 2.58049108e-02
      2.13136524e-03 0. 0. 0. 1.21734723e-01 3.89436483e-01
      3.89436483e-01 2.08059400e-01 1.73111141e-01 3.69848721e-02
      4.51426804e-02 1.43783623e-02 2.25340459e-03 1.84819605e-02
      1.55752315e-03 3.17697693e-03 4.62821554e-05 0. 0. 0. 0.
      1.12600073e-01 3.28271270e-01 3.28271270e-01 3.28271270e-01
      1.25890896e-01 9.06897523e-03 1.11315888e-03 0. 3.31662304e-05
      5.06825978e-03 1.82286545e-03 0. 0. 0. 0. 0. 7.55257756e-02
      3.28271270e-01 2.20964223e-01 5.08944280e-02 2.22559106e-02
      4.04111575e-03 1.16130954e-03 0. 3.28400568e-03 1.90689322e-03
      1.56259642e-03 2.77692943e-05 3.38124315e-04 1.25433388e-03
      2.72285589e-03 9.25223827e-02 3.28271270e-01 3.28271270e-01
      1.52426809e-01 7.22199380e-02 1.54888518e-02 7.77166337e-03
      1.85526465e-03 0. 2.32163598e-04 8.24267790e-03 3.03810881e-03 0.
      2.36687041e-03 8.78033694e-03 1.90599915e-02 5.55638075e-02
      3.28271270e-01 3.28271270e-01 8.18204805e-02 2.12246664e-02
      1.38108600e-02 4.32289951e-03 2.52307858e-03 0. 5.26892021e-03
      1.42089324e-03 0. 3.37686652e-04 2.16762954e-03 7.40294531e-03
      5.38297184e-03 1.20978557e-01 3.39082092e-01 3.39082092e-01
      7.26217637e-03 0. 0. 0. 0. 0. 1.42089324e-03 0. 0. 6.58415491e-03
      1.64238662e-02 5.18206134e-02 4.14840020e-02 2.32714236e-01
      3.39082092e-01 9.26124975e-02 1.21036265e-02 0. 0. 1.48920687e-02
      4.27953899e-03 6.70159701e-04 2.62207575e-02 2.45545548e-03 0.
      1.67234731e-03 1.41019362e-03 1.16371671e-02 1.14490278e-02
      1.20425031e-01 3.39082092e-01 3.39082092e-01 1.62415043e-01
      1.01691253e-01 6.48854009e-04 0. 0. 0. 2.45545548e-03 0. 0.
      1.17064314e-02 9.87135526e-03 8.14601779e-02 8.01431909e-02
      2.12874487e-01 3.39082092e-01 2.46928558e-01 1.76506758e-01
      1.45256832e-01 1.08142325e-03 8.93524196e-03 2.56772339e-03
      9.57371085e-05 3.74582270e-03 0. 0. 1.84825063e-02 2.53599491e-02
      7.13426396e-02 8.84748399e-02 3.58239591e-01 3.58239591e-01
      5.86014278e-02 6.39419630e-03 0. 0. 5.40757887e-02 1.55397775e-02
      2.43347068e-03 9.52123031e-02 7.76757998e-03 7.69376196e-03
      6.42060162e-03 9.24408063e-03 1.95597708e-02 5.16366512e-02
      2.68688440e-01 3.58239591e-01 5.97825237e-02 3.12304543e-03 0. 0.
      7.72511307e-03 4.68676398e-03 7.44143617e-04 1.36017585e-02 0. 0.
      1.56378802e-02 1.31865162e-02 1.08963624e-01 1.07491963e-01
      3.23222697e-01 3.58239591e-01 2.40587249e-01 6.38278574e-02
      6.46856576e-02 5.31440368e-04 3.24454755e-02 9.32386704e-03
      3.47638706e-04 1.36017585e-02 6.40253420e-04 3.96509015e-04
      2.46679131e-03 1.02456613e-03 2.04404606e-03 3.03629250e-03
      1.50237992e-01 3.58239591e-01 1.63753137e-01 2.28984021e-02
      6.45200582e-03 0. 4.63506812e-03 1.68438046e-03 1.06306230e-04
      2.58336170e-03 2.04808936e-01 1.64763346e-01 5.10340445e-02
      8.36744010e-02 1.32168368e-01 1.44781083e-01 1.65860131e-01
      3.99417132e-01 1.77880406e-01 2.30423175e-02 5.71452156e-02 0. 0.
      8.08741823e-02 1.29994610e-02 4.42864671e-02 2.31776759e-01
      1.09584086e-01 9.05957595e-02 7.37235621e-02 9.29127857e-02
      2.13178415e-02 8.74043722e-03 1.72190040e-01 1.72190040e-01
      2.02791411e-02 1.26162589e-01 0. 0. 6.44495785e-02 4.03016694e-02
      1.89576253e-01 8.58829543e-02 4.78228414e-03 2.97519006e-02
      2.32522488e-02 2.77122036e-02 1.34719806e-02 1.06526002e-01
      3.99417132e-01 2.55825132e-01 1.15017794e-01 1.12104587e-01 0. 0.
      1.77375693e-02 2.85108876e-03 8.58829543e-02 1.95874199e-01
      6.83183491e-04 4.25027171e-03 3.81308943e-02 7.04008862e-02
      1.20872423e-01 7.36912936e-02 1.45407513e-01 1.45407513e-01
      1.39543740e-02 1.14987321e-01 2.75117178e-02 0. 5.02208620e-02
      8.07239767e-03 1.95874199e-01 5.99246938e-03 9.99193988e-04
      3.81607283e-03 1.10462320e-03 3.52149666e-03 2.65449798e-03
      1.08835928e-03 1.82810500e-02 2.87197754e-02 4.81687440e-03
      7.94176850e-03 9.59226047e-04 1.30960369e-03 2.16320087e-03
      1.69034465e-03 5.98356221e-03 5.12321433e-03 2.87343166e-04
      5.45153336e-04 0. 1.45237567e-03 1.59269886e-03 2.37800866e-01
      5.11087298e-01 2.54350901e-01 1.35178268e-02 1.12184882e-02
      1.59870996e-03 4.03395528e-03 2.45126989e-03 3.87187320e-04
      2.45297723e-03 2.18660524e-03 0. 0. 9.58255550e-04 4.98938188e-03
      1.14446897e-02 8.59635603e-03 6.68149814e-02 4.70358320e-02
      4.67855809e-03 7.20912125e-03 4.35417471e-03 9.31572518e-04
      7.29500432e-04 1.17258533e-04 2.18660524e-03 0. 0. 0.
      3.12474003e-04 2.73204129e-03 7.92395789e-03 5.11087298e-01
      5.11087298e-01 2.84795731e-01 7.30660558e-03 5.21863159e-03
      3.60281463e-03 1.55262090e-03 0. 0. 0. 2.98971718e-04
      1.45215527e-05 0. 9.12704214e-04 1.82056625e-03 2.70385761e-03
      1.84660941e-01 4.38527316e-01 1.65880620e-01 4.31178464e-03
      1.74061174e-03 2.92251527e-04 5.96891914e-04 2.49330886e-04 0.
      8.48122945e-05 5.78811998e-03 4.08294523e-04 0. 6.38892921e-03
      1.27439629e-02 1.94147509e-02 9.67408419e-02 4.38527316e-01
      1.22232437e-01 8.34306609e-03 4.12245747e-03 8.99194367e-03
      2.08084960e-03 1.81355013e-03 0. 5.38847363e-03 0. 0. 0.
      5.47622563e-04 6.75903342e-04 6.91507536e-04 3.42239559e-01
      4.38527316e-01 9.60798785e-02 1.91317685e-03 8.06764467e-04
      1.12510657e-04 1.12893293e-04 0. 0. 0. 6.32659020e-03 0. 0.
      3.83335771e-03 4.73132357e-03 6.11807965e-03 9.23446938e-02
      4.38527316e-01 6.66352063e-02 9.78672132e-03 4.76799207e-03
      4.65593673e-03 4.38911229e-04 2.59078603e-04 0. 6.32659020e-03
      1.18762476e-03 0. 1.36934943e-03 4.61344694e-04 4.33629332e-03
      3.99570214e-03 9.67550185e-03 2.67927557e-01 2.67927557e-01
      2.33766511e-01 2.21365362e-01 5.80674782e-03 0. 0. 0.
      1.18762476e-03 0. 0. 9.58544575e-03 3.22941318e-03 3.03540528e-02
      2.79699173e-02 3.05552669e-02 2.41547406e-01 1.43323839e-01
      2.36832902e-01 2.67927557e-01 9.67791397e-03 0. 0. 0. 0.
      9.75529605e-04 0. 1.95621353e-04 6.59063808e-05 8.10532016e-04
      4.41333605e-03 2.04737880e-03 2.67927557e-01 2.67927557e-01
      2.67927557e-01 2.67927557e-01 3.70040797e-02 0. 0. 0.
      9.75529605e-04 0. 0. 1.36934943e-03 4.61344694e-04 5.67372376e-03
      1.15390727e-02 8.87375996e-02 2.04476535e-01 2.33619288e-01
      2.67927557e-01 2.67927557e-01 6.16734661e-02 0. 0. 0. 0. 0. 0.
      1.34791303e-02 4.54122573e-03 4.26841155e-02 3.93315256e-02
      6.74448907e-02 3.31227243e-01 2.51025349e-01 8.48207101e-02
      1.19129054e-01 5.27066225e-03 2.65030365e-04 1.86364661e-04
      1.15442567e-03 0. 6.66578067e-04 9.29033908e-04 5.77977439e-03
      8.12493206e-04 8.09740101e-04 0. 2.87849922e-02 3.31227243e-01
      1.39404386e-01 1.56414676e-02 7.33848568e-03 1.84892467e-03
      1.85521250e-03 1.30455266e-03 8.08097981e-03 6.66578067e-04 0. 0.
      1.92559010e-03 6.48746558e-04 7.97843654e-03 1.37756607e-02
      3.13462585e-01 3.31227243e-01 3.31227243e-01 3.31227243e-01
      3.31227243e-01 3.37535366e-02 1.85521250e-03 3.10607749e-04
      1.92404271e-03 0. 1.30379468e-03 5.57420368e-04 3.46786529e-03
      4.87495912e-04 4.85844124e-04 7.05867307e-04 5.00504747e-02
      2.59308904e-01 2.26301298e-01 4.92904522e-02 3.67431231e-02
      1.96433086e-02 1.45500582e-02 2.17425427e-03 1.34682981e-02
      1.30379468e-03 8.77400711e-02 1.49019100e-02 9.27088633e-02
      3.54262032e-02 3.53061631e-02 0. 8.50763619e-02 2.78116584e-01
      1.55179486e-01 7.47869685e-02 1.09095275e-01 2.86427420e-02
      2.87401527e-02 4.00696173e-02 5.28881475e-02 8.77400711e-02
      1.49079934e-01 2.12884438e-03 1.32441251e-02 5.20096980e-02
      5.68598993e-02 9.85174254e-02 4.01403643e-02 8.42294842e-02
      8.42294842e-02 2.47414503e-03 4.76881079e-02 9.85151678e-02
      6.72052577e-02 2.26601377e-01 3.64234820e-02 1.49079934e-01
      7.24110529e-02 5.42729460e-02 1.31244615e-01 2.12557204e-02
      2.11836956e-02 4.16522985e-03 3.99717651e-02 1.70316115e-01
      1.77751586e-01 1.45821840e-01 3.94323111e-01 2.20940813e-01
      1.38923809e-01 4.62279283e-02 8.48429650e-02 7.24110529e-02
      2.00980172e-01 1.34009838e-01 2.05892667e-01 5.01086526e-02
      4.99388650e-02 1.27435690e-02 2.04837765e-03 1.53319031e-01
      1.53319031e-01 1.22141121e-02 9.26686376e-02 2.20449597e-01
      2.16912389e-01 2.46133134e-01 3.75782549e-02 1.56326264e-01
      8.20670277e-04 0. 0. 2.91492604e-03 3.30342841e-03 5.17683476e-03
      3.01973661e-03 6.91714808e-02 2.33608633e-02 4.13988135e-04
      2.62648310e-03 4.28437442e-03 1.79086917e-03 2.43057963e-03
      3.90686822e-04 8.20670277e-04 0. 0. 0. 2.25825282e-03
      2.48962827e-03 3.87743674e-03 3.99621606e-01 5.17565548e-01
      1.51164487e-01 6.89980225e-04 1.64717552e-03 2.79073487e-03
      1.29538041e-03 0. 0. 0. 4.15171077e-03 2.14082934e-03
      3.68607510e-03 3.75642977e-03 3.74370138e-03 6.34108670e-04
      1.89352017e-02 1.51557460e-01 3.23754773e-02 0. 3.65664746e-04
      4.20727208e-03 4.81894892e-03 3.48626659e-03 4.03073209e-04
      2.84973998e-03 5.71751385e-04 4.50716849e-04 1.62186357e-03
      3.10268649e-03 3.09217325e-03 4.90656064e-04 4.83420491e-01
      5.17565548e-01 1.13354854e-01 0. 2.19398862e-04 1.27258466e-03
      1.63533352e-03 5.87176590e-04 0. 3.85755528e-04 0. 0. 0.
      8.60017171e-05 3.18395236e-04 1.02167553e-03 3.26262116e-01
      4.33726221e-01 7.60117471e-02 2.79765751e-04 1.12007794e-04
      1.26065090e-04 1.26493804e-04 0. 0. 0. 1.86321035e-03 0. 0. 0.
      1.62879459e-03 7.06008635e-03 6.36360943e-02 4.33726221e-01
      4.75819893e-02 1.43638428e-03 6.99791941e-04 0. 0. 0. 0.
      1.86321035e-03 0. 0. 0. 1.43336190e-04 5.30658814e-04
      1.19836640e-03 3.30239087e-01 4.33726221e-01 7.89428130e-02
      2.20782764e-04 0. 7.56390509e-05 7.58962851e-05 0. 0. 0.
      1.42055145e-03 0. 0. 0. 2.71465746e-03 1.41015593e-02
      7.22483844e-02 4.33726221e-01 6.20433576e-02 4.48104646e-03
      4.73888096e-04 5.81969274e-04 5.83948451e-04 0. 0. 1.42055145e-03
      3.44926142e-04 0. 0. 0. 0. 3.16036399e-03 1.68338127e-03
      2.77869910e-01 3.11465681e-01 1.57193825e-01 2.24328905e-01
      1.61942039e-02 0. 0. 0. 3.44926142e-04 0. 0. 0. 0. 0.
      1.89621875e-03 5.82965128e-02 9.68388766e-02 2.05032304e-01
      3.11465681e-01 3.11465681e-01 6.09393939e-02 1.97402332e-02
      9.86613985e-03 3.57422419e-03 0. 5.19284455e-04 0. 0. 0. 0.
      4.51480591e-04 6.75457483e-03 3.11465681e-01 3.11465681e-01
      7.08309337e-02 1.09067656e-01 3.32829892e-03 0. 0. 3.11882817e-03
      1.29997137e-03 0. 0. 0. 0. 0. 2.70888355e-04 1.72058940e-02
      1.02773845e-01 1.76441327e-01 2.43762746e-01 3.11465681e-01
      1.86387599e-01 1.38181627e-01 6.90629780e-02 1.35989308e-01
      8.82142410e-02 5.30740712e-03 0. 0. 0. 0. 9.24080523e-05
      6.91802427e-02 1.04420014e-01 1.39564469e-01 2.00132579e-01
      3.20338488e-01 3.92483547e-02 2.45715436e-02 3.31471413e-02
      1.24573493e-02 2.94836350e-02 5.26585840e-02 0. 0. 0. 0.
      6.46856381e-04 1.36700002e-02 3.45634110e-02 4.33840528e-02
      3.18158604e-02 2.55163293e-02 8.87098443e-03 6.52080588e-03
      2.03810837e-02 1.13376714e-02 1.01428807e-01 8.41734186e-02 0. 0.
      0. 0. 5.54448307e-05 9.63214226e-03 3.79845649e-02 5.36489151e-02
      1.66928962e-01 3.66159827e-01 2.11672500e-01 1.70390218e-01
      2.31595725e-01 2.41014197e-01 3.66159827e-01 3.66159827e-01 0. 0.
      0. 0. 3.88113782e-04 3.46564432e-03 1.21612130e-02 1.37245059e-02
      3.79478671e-02 2.78791543e-02 2.98335850e-02 2.52011716e-02
      1.39627606e-01 1.03681736e-01 3.66159827e-01 7.42670149e-02
      2.52823415e-03 2.61995476e-03 6.80725032e-04 3.89936817e-04
      2.70521035e-04 1.67575455e-03 5.98246057e-04 1.48726744e-03
      2.57148012e-03 7.30825821e-03 4.44036117e-03 2.47789081e-03
      2.96020386e-04 3.91273107e-03 8.83743614e-02 1.29792690e-01
      9.71677247e-03 9.21793561e-03 2.77384673e-03 7.45075871e-04 0. 0.
      1.10461423e-03 1.10461423e-03 2.39825080e-04 1.78034592e-03
      1.81081390e-03 2.75679072e-03 2.59981491e-03 1.58248853e-03
      9.38657820e-02 4.88776922e-01 1.40627811e-03 1.19969388e-03
      1.13454170e-03 6.49894704e-04 1.62312645e-04 1.00545282e-03
      6.21073996e-04 1.06179621e-03 1.00952282e-03 1.31733681e-03
      1.25557021e-03 9.77330026e-04 3.06544709e-04 6.07399503e-03
      4.88776922e-01 4.88776922e-01 7.73449754e-03 6.22407906e-03
      4.46390314e-03 1.08315772e-03 0. 0. 1.64156652e-03 1.64156652e-03
      3.05183676e-05 2.31052763e-04 1.79367184e-04 1.34149939e-03
      2.65386840e-03 2.50507239e-03 4.88776922e-01 6.57095909e-02
      2.13534404e-02 1.27476016e-02 3.61443777e-03 5.57319913e-03
      1.83473788e-02 3.87426652e-02 5.90383448e-02 1.38369100e-02 0. 0.
      5.74469857e-04 3.00450297e-03 4.31544287e-03 2.13575859e-05
      3.10766920e-02 2.02481374e-02 2.88626328e-02 1.66337937e-02
      1.94784179e-02 3.70096266e-02 5.60953990e-02 3.17416698e-01
      3.17416698e-01 2.94135809e-02 0. 0. 5.66363560e-05 1.51367660e-03
      2.50954228e-03 0. 6.19162526e-03 3.17416698e-01 1.22482844e-01
      6.75343648e-02 2.02724617e-02 3.68961841e-02 3.05789635e-02
      4.20003273e-02 2.16796529e-02 7.90778827e-03 0. 0. 0.
      2.38746055e-03 5.27174259e-03 0. 3.17416698e-01 3.17416698e-01
      1.97866738e-01 1.09776735e-01 1.49992555e-01 2.66920537e-01
      9.34923366e-02 3.17416698e-01 3.17416698e-01 1.87629387e-02 0. 0.
      0. 1.43247645e-03 3.16304551e-03 0. 3.06735873e-01 0.
      7.71355443e-03 4.28617699e-03 1.43543473e-02 3.01280487e-02
      3.65189426e-02 4.02226299e-01 4.02226299e-01 6.12968430e-02
      9.10032715e-04 0. 0. 0. 0. 0. 0. 2.11480819e-03 3.57704179e-04
      2.22537597e-03 0. 4.97806026e-03 1.45400856e-02 7.66034797e-02
      4.02226299e-01 6.61883801e-02 1.08215557e-02 7.18576717e-04
      2.39878823e-03 2.40694592e-03 0. 0. 2.11480819e-03 4.41231616e-02
      5.39948791e-02 3.00032403e-02 1.30995467e-01 2.14988545e-01
      6.11969084e-02 4.02226299e-01 4.02226299e-01 4.40915227e-02
      5.46019641e-04 0. 0. 0. 0. 0. 1.18120126e-01 2.40617618e-03
      5.96173631e-04 3.70895932e-03 4.38870536e-03 1.00828018e-02
      2.17348486e-02 1.31660402e-01 2.47377113e-01 4.60736379e-02
      8.90936609e-03 8.21230526e-04 1.43927301e-03 1.44416781e-03 0. 0.
      2.40617618e-03</_>
    <_>
      7.30695156e-03 0. 1.32694058e-02 2.25162655e-02 7.85316080e-02
      2.78140634e-01 2.48994380e-01 2.19812512e-01 2.51515597e-01
      9.18879360e-02 4.01540985e-03 1.58067630e-03 0. 0. 0.
      1.46283871e-02 6.66380003e-02 7.08338991e-02 9.28858370e-02
      1.07227527e-01 1.24307893e-01 2.78140634e-01 2.78140634e-01
      8.57534781e-02 1.18252896e-01 6.12183735e-02 2.59734411e-02
      1.10647334e-02 0. 0. 0. 1.36547750e-02 1.13306362e-02 0. 0.
      5.14360443e-02 4.20124978e-02 2.78140634e-01 2.78140634e-01
      2.78140634e-01 1.03945576e-01 4.34218310e-02 1.15299458e-02
      1.53415604e-02 0. 0. 0. 2.35330313e-02 1.49818591e-03 0. 0.
      7.34800566e-03 6.00178540e-03 2.78140634e-01 2.78140634e-01
      1.80844814e-01 1.80129215e-01 1.29883796e-01 7.90864825e-02
      1.07390933e-01 0. 0. 0. 3.24138487e-03 3.32889885e-01
      2.54317820e-01 1.22684762e-01 1.40240967e-01 6.01015277e-02
      1.48691565e-01 2.88761973e-01 1.23333231e-01 2.11352557e-01
      1.19514480e-01 4.05488200e-02 1.46144386e-02 0. 0. 0.
      2.51756966e-01 3.32889885e-01 4.01328057e-02 6.13711367e-04 0. 0.
      2.55922880e-02 1.76276751e-02 5.33079877e-02 4.20544818e-02
      1.30319092e-02 4.38698521e-03 2.67923786e-03 2.68834922e-03 0. 0.
      3.32889885e-01 3.47940397e-04 0. 0. 0. 0. 3.59368324e-02
      1.12007990e-01 1.34011120e-01 3.32889885e-01 3.32889885e-01
      1.11963779e-01 1.41843289e-01 0. 0. 0. 3.47940397e-04
      9.98837594e-03 5.43097791e-04 8.76730483e-05 0. 0. 1.35640148e-02
      2.07296517e-02 4.20516022e-02 9.08880532e-02 1.08543031e-01
      1.46915372e-02 1.98438065e-03 1.99112925e-03 0. 0. 9.98837594e-03
      4.95621026e-01 1.75453685e-02 2.83237384e-03 0. 0. 1.62086114e-02
      4.45721019e-03 2.45807189e-02 2.45807189e-02 0. 0. 4.54886630e-03
      4.56433604e-03 0. 0. 4.95621026e-01 4.95621026e-01 1.05272215e-02
      1.69942447e-03 4.39184392e-03 4.37692506e-03 1.70638249e-03
      2.74280726e-04 4.38926518e-02 4.38926518e-02 0. 0. 6.93787122e-03
      6.96146488e-03 4.56680870e-03 7.34054367e-04 4.95621026e-01
      2.70324908e-02 2.50648102e-03 4.04624850e-04 0. 0. 4.59212158e-03
      3.82458675e-03 1.89717766e-02 1.91984419e-02 5.90610364e-03
      4.77692345e-03 4.46848664e-03 4.48368303e-03 9.38929524e-03
      1.50920555e-03 2.70324908e-02 3.21545564e-02 1.50388875e-03
      2.42774913e-04 6.27406291e-04 6.25275017e-04 2.43768925e-04
      3.91829599e-05 2.72615198e-02 2.72615198e-02 0. 0. 5.84602589e-03
      5.86590683e-03 2.13638283e-02 3.43395397e-03 3.21545564e-02
      3.14540297e-01 0. 0. 5.80787985e-03 5.78815350e-03 0.
      2.02124519e-03 1.91439465e-02 2.60470118e-02 3.92585015e-03 0.
      4.85476293e-03 4.87127295e-03 1.99374743e-02 5.60493954e-02
      3.14540297e-01 2.35257462e-01 0. 0. 9.07866377e-03 9.04784445e-03
      0. 1.41487177e-02 3.75936851e-02 2.53019899e-01 3.14540297e-01
      3.14540297e-01 7.77528062e-02 2.87964374e-01 6.30799606e-02
      3.14540297e-01 2.02235907e-01 8.49001855e-03 0. 0. 4.02753893e-03
      4.01386200e-03 0. 1.21274730e-03 6.85334485e-03 7.52787665e-03
      5.60835761e-04 0. 7.29131978e-03 7.31611578e-03 8.45086016e-03
      1.35836517e-03 8.49001855e-03 3.41073750e-03 0. 0. 1.59848817e-02
      1.59306116e-02 1.29995374e-02 1.86011177e-02 7.01545831e-03
      3.04710388e-01 3.14540297e-01 2.21052572e-01 7.72791309e-03
      7.75419362e-03 1.18472092e-02 1.90428703e-03 3.41073750e-03
      5.35820983e-03 0. 0. 5.63408481e-04 5.61496592e-04 0.
      1.46383536e-03 6.01401646e-03 7.52025992e-02 3.77882391e-01
      3.49640965e-01 2.12594327e-02 8.03762674e-02 5.38073294e-03
      3.91363017e-02 4.61674016e-03 2.09468836e-03 0. 0. 0. 0. 0. 0.
      5.21965697e-03 6.35465905e-02 3.77882391e-01 2.25385964e-01
      3.03421053e-03 1.14794625e-02 0. 0. 2.09468836e-03 8.73285535e-05
      0. 0. 1.44280377e-03 1.43790583e-03 3.65592749e-03 3.72212008e-03
      5.50622528e-04 1.09431528e-01 3.77882391e-01 2.93210089e-01
      2.35727246e-04 2.36528896e-04 9.74619994e-04 1.56658207e-04
      8.73285535e-05 3.44018452e-03 0. 0. 0. 0. 5.22275397e-04
      4.06259845e-04 0. 1.17607675e-01 3.77882391e-01 3.48896146e-01 0.
      0. 8.97993159e-05 1.44341739e-05 3.44018452e-03 7.22694537e-03 0.
      0. 3.41857374e-02 5.24768531e-02 2.60742813e-01 2.60742813e-01
      2.60742813e-01 4.21267226e-02 2.48745363e-02 1.34405978e-02
      1.76091213e-02 1.76826697e-02 0. 0. 9.68280714e-03 1.18112809e-03
      0. 0. 7.64754042e-03 1.55360652e-02 1.61100417e-01 1.99510559e-01
      1.04279280e-01 1.43431008e-01 1.95909917e-01 1.56167999e-01
      9.74177346e-02 3.09524089e-02 0. 0. 1.53196533e-03 6.59076273e-02
      2.73223547e-03 0. 4.23216671e-02 1.31343454e-01 2.60742813e-01
      2.60742813e-01 2.60742813e-01 8.13668817e-02 2.60742813e-01
      1.71772838e-01 7.80817419e-02 8.76492783e-02 7.12514017e-03 0.
      3.27849574e-02 5.55413775e-04 0. 0. 2.53929980e-02 7.50389472e-02
      7.12097511e-02 1.09096467e-01 1.36478990e-01 1.06004409e-01
      2.37263516e-01 2.60742813e-01 1.39826685e-01 2.60742813e-01
      6.15568794e-02 1.87135078e-02 5.55413775e-04 3.67361441e-04 0. 0.
      0. 0. 2.19562586e-04 6.52651628e-03 3.09532601e-02 3.30110401e-01
      3.30110401e-01 2.92789310e-01 1.00677744e-01 1.40707055e-02 0. 0.
      3.67361441e-04 7.85278343e-03 2.85495305e-04 1.77612342e-03
      2.49680423e-04 2.48832279e-04 3.65937623e-04 2.74046767e-03
      1.43431025e-02 1.31018043e-01 2.26074189e-01 5.12581877e-02
      4.62563941e-03 4.47847787e-03 0. 0. 7.85278343e-03 2.20416856e-04
      0. 0. 0. 0. 0. 0. 8.34675506e-02 3.30110401e-01 3.30110401e-01
      3.30110401e-01 9.49878097e-02 2.40064397e-01 8.80565122e-02
      5.48747145e-02 2.20416856e-04 6.22576009e-03 1.99846737e-03
      1.24328630e-02 5.34886308e-03 5.33069670e-03 0. 0. 2.53884420e-02
      2.45232403e-01 3.30110401e-01 1.69060707e-01 1.87825374e-02
      6.13250630e-03 4.89322469e-03 7.83924479e-03 6.22576009e-03
      1.26933038e-01 3.52843967e-03 2.19511297e-02 8.38808250e-03
      8.35958775e-03 6.12071075e-04 3.79150151e-03 1.28281966e-01
      1.79847702e-01 1.29368916e-01 1.32097960e-01 5.64343035e-02
      5.66262193e-02 9.74353477e-02 1.56614482e-02 1.26933038e-01
      1.42141536e-01 5.04062802e-04 3.13587557e-03 5.03284996e-03
      5.01575321e-03 0. 0. 1.38685271e-01 1.38685271e-01 1.41255045e-02
      8.78789946e-02 4.04555239e-02 4.05931063e-02 2.84063876e-01
      4.56595309e-02 1.42141536e-01 1.45083591e-01 2.46990807e-02
      1.53657898e-01 1.21046595e-01 1.20635599e-01 0. 0. 1.36915460e-01
      2.50295788e-01 4.57555503e-01 2.70427734e-01 4.94725183e-02
      4.96407636e-02 2.43483335e-02 3.91367404e-03 1.45083591e-01
      2.42532730e-01 3.52843967e-03 2.19511297e-02 1.65883392e-01
      1.65320769e-01 0. 0. 8.99504572e-02 8.99504572e-02 2.35425066e-02
      1.46464989e-01 2.42733154e-02 2.43558642e-02 1.13583542e-01
      1.82570592e-02 2.42532730e-01 3.39163542e-02 0. 0. 4.11897060e-03
      4.10498260e-03 0. 0. 4.11792323e-02 4.11792323e-02 7.93237530e-04
      4.93496750e-03 4.51387502e-02 4.52922583e-02 3.62962596e-02
      5.83414594e-03 3.39163542e-02 2.32189279e-02 0. 0. 2.88327895e-02
      2.87348758e-02 1.04507215e-01 1.37207747e-01 9.96981189e-02
      5.05049706e-01 5.05049706e-01 2.18488902e-01 6.93091676e-02
      6.95448741e-02 5.37673607e-02 8.64245556e-03 2.32189279e-02
      6.10777922e-02 0. 0. 3.72987539e-02 3.71722616e-02 0. 0.
      3.46166864e-02 3.46166864e-02 1.32206234e-03 8.22494645e-03
      2.93197483e-02 2.94194575e-02 1.56240109e-02 2.51135416e-03
      6.10777922e-02 2.91367844e-02 0. 0. 1.31832249e-02 1.31385140e-02
      2.56950166e-02 2.07299039e-01 1.65897697e-01 4.77168977e-01
      2.10703745e-01 1.46150205e-03 7.10081086e-02 7.12495893e-02
      2.73254476e-02 4.39224113e-03 2.91367844e-02 2.50377925e-04 0. 0.
      4.19746473e-04 4.18321026e-04 4.13562497e-03 6.62964350e-03
      6.62167603e-03 7.90323466e-02 4.07376826e-01 1.62871629e-01
      4.67377336e-04 4.68966755e-04 1.84628204e-03 2.96767888e-04
      2.50377925e-04 4.06124955e-03 0. 0. 0. 0. 5.90803626e-04
      1.81489950e-03 3.74095817e-03 1.23464055e-01 4.07376826e-01
      3.31415385e-01 0. 0. 2.57461827e-04 4.13839298e-05 4.06124955e-03
      1.77652983e-04 0. 0. 2.43773800e-04 2.42947790e-04 1.01681927e-03
      1.66031756e-02 1.82825718e-02 6.26758337e-02 3.62401098e-01
      1.11832164e-01 1.85508956e-03 1.86139834e-03 1.08133967e-03
      1.73812514e-04 1.77652983e-04 4.55427216e-03 0. 0. 3.48248286e-05
      3.47068308e-05 1.45259881e-04 8.44653416e-03 1.60811804e-02
      1.59162566e-01 4.07376826e-01 4.07376826e-01 7.92480365e-04
      7.95175496e-04 1.54477108e-04 2.48303604e-05 4.55427216e-03
      4.90474366e-02 1.91220036e-03 0. 1.08964117e-02 3.31714153e-02
      2.86846682e-02 4.57253195e-02 1.14083774e-01 5.51823527e-02
      3.47380251e-01 3.47380251e-01 6.09411038e-02 3.74291167e-02
      9.62407328e-03 4.82539646e-03 2.75899507e-02 4.70174663e-03
      1.43127916e-02 3.39541948e-05 6.53784676e-03 1.92278568e-02
      5.74362185e-03 1.00084003e-02 6.77405670e-02 4.51477505e-02
      2.23443910e-01 2.65352845e-01 8.93237889e-02 1.94196776e-01
      8.95906538e-02 6.93789944e-02 1.20677073e-02 1.56819094e-02
      2.74451170e-03 4.52195946e-03 0. 0. 1.98576599e-04 2.54486135e-04
      1.01470910e-02 1.90758575e-02 3.47380251e-01 3.47380251e-01
      5.80556020e-02 9.55572352e-03 5.88323176e-03 1.49719138e-02
      2.44379826e-02 3.29122283e-02 8.09984058e-02 3.17103080e-02 0.
      8.61290190e-03 2.62280945e-02 2.35790014e-02 1.45360827e-02
      9.23353340e-03 3.47380251e-01 3.43386471e-01 9.46390554e-02
      9.96768028e-02 5.45159020e-02 1.26164109e-01 8.44739601e-02
      1.53297056e-02 8.49968493e-02 3.00927961e-04 0. 0. 4.95369965e-03
      7.09732901e-03 8.99481103e-02 2.31117442e-01 2.41116449e-01
      2.41116449e-01 8.27512518e-02 2.16943309e-01 1.53258458e-01
      1.56589791e-01 1.44745447e-02 3.12486663e-03 4.04350981e-02
      3.73973185e-03 3.91667197e-03 3.90337594e-03 2.97222030e-03
      1.93478428e-02 8.17201361e-02 2.08289534e-01 2.41116449e-01
      1.41567528e-01 2.68082358e-02 2.09149183e-03 1.07603874e-02
      1.91210881e-02 9.34908458e-04 1.07307941e-01 2.41116449e-01
      3.84684168e-02 0. 7.63340965e-02 2.22042173e-01 1.37021825e-01
      2.30072945e-01 1.43409416e-01 1.88859001e-01 2.05177441e-01
      9.24578309e-02 2.00413093e-01 9.28684771e-02 1.95350960e-01
      1.01321802e-01 1.54239694e-02 8.49968493e-02 3.00927961e-04
      1.86689326e-03 4.76610176e-02 1.33768216e-01 1.13912284e-01
      2.41116449e-01 2.41116449e-01 8.79185125e-02 9.10524651e-02
      4.88657616e-02 2.89450362e-02 1.00082997e-02 1.81726906e-02
      9.42634870e-05 6.21559583e-02 5.88116283e-03 3.65878865e-02
      5.60930260e-02 5.59026971e-02 2.31736852e-03 4.93484326e-02
      1.95038632e-01 2.49004230e-01 2.86414832e-01 1.51727349e-01
      1.39327748e-02 1.39801586e-02 8.98709148e-03 5.56709319e-02
      6.21559583e-02 1.19379826e-01 9.52319428e-03 5.92456944e-02
      1.18192546e-01 1.17791615e-01 2.73704976e-02 4.39948263e-03
      2.45776791e-02 2.45776791e-02 2.73569254e-03 1.70195624e-02
      1.75086362e-03 1.75681803e-03 5.39225433e-03 3.34025584e-02
      1.19379826e-01 1.12897366e-01 2.11045844e-03 1.31295836e-02
      2.37239152e-02 2.36434378e-02 2.12305672e-02 1.49865016e-01
      3.62334043e-01 3.62334043e-01 1.25779718e-01 2.68132478e-01
      1.43675163e-01 8.60840902e-02 8.32786262e-02 1.80314705e-01
      1.12897366e-01 2.69114137e-01 1.47732096e-02 9.19070840e-02
      6.51693270e-02 6.49481490e-02 1.91593498e-01 3.07963770e-02
      5.28497137e-02 5.28497137e-02 1.15458751e-02 7.18303472e-02
      2.72852015e-02 7.69772008e-02 1.00758150e-01 1.08188823e-01
      2.69114137e-01 9.57908407e-02 6.73471252e-03 4.18979935e-02
      2.33868867e-01 2.33075365e-01 3.53510678e-02 5.68226399e-03
      5.18274792e-02 5.18274792e-02 4.52311069e-04 2.81396229e-03
      5.91622619e-03 5.93634555e-03 0. 0. 9.57908407e-02 4.69861589e-02
      0. 0. 1.78533405e-01 1.77928060e-01 7.31785409e-03 1.40366986e-01
      1.71585083e-01 1.87983260e-01 6.70239106e-02 3.99703085e-02
      4.80724871e-02 4.82359752e-02 0. 0. 4.69861589e-02 1.55496463e-01
      1.12245204e-02 6.98299855e-02 2.34317392e-01 2.33522192e-01
      2.70483553e-01 4.34770212e-02 1.14789754e-01 1.14789754e-01
      7.07533490e-03 4.40177768e-02 3.10400259e-02 1.33583859e-01
      1.04899637e-01 0. 1.55496463e-01 5.96151799e-02 0. 0.
      2.79367775e-01 2.78420329e-01 3.37342024e-01 5.42236157e-02
      2.35345721e-01 2.35345721e-01 4.95906845e-02 8.23152065e-02
      8.86857882e-03 2.35327780e-02 1.49856629e-02 0. 5.96151799e-02
      1.07444117e-04 0. 0. 1.93672336e-03 1.93016068e-03 6.32983353e-03
      8.90963152e-03 3.08545511e-02 4.37921919e-02 2.00802162e-01
      4.86534499e-02 2.00491725e-03 2.01173546e-03 0. 0. 1.07444117e-04
      4.16513672e-03 0. 0. 3.48286645e-04 3.47106485e-04 1.04112374e-02
      8.06889031e-03 1.17302030e-01 2.90234387e-01 3.64411861e-01
      2.87538350e-01 1.14211754e-03 1.14600174e-03 0. 0. 4.16513672e-03
      9.16754478e-04 0. 0. 3.43023986e-03 4.23036749e-03 5.91562092e-02
      3.99237983e-02 6.70890361e-02 3.87176089e-02 5.63192442e-02
      1.08266203e-02 2.71932717e-04 2.72857520e-04 0. 0. 9.16754478e-04
      5.81759354e-03 0. 0. 1.07016205e-03 6.74880389e-03 3.15811545e-01
      3.64411861e-01 3.64411861e-01 3.48471016e-01 3.64411861e-01
      5.38449325e-02 1.63159653e-04 1.63714518e-04 0. 0. 5.81759354e-03
      2.61933520e-03 2.51134718e-03 4.59516235e-03 0. 0. 5.48525422e-04
      2.11419631e-03 6.60317391e-03 9.32607949e-02 4.13785785e-01
      1.79112002e-01 1.58432405e-02 2.62811827e-03 3.30559240e-04
      4.20827651e-03 7.13066477e-03 1.23037361e-02 3.86976488e-02
      3.21739241e-02 0. 1.26285218e-02 9.13164690e-02 6.67083710e-02
      5.71697466e-02 4.36469167e-02 4.13785785e-01 1.19956858e-01
      3.09533905e-02 3.98669988e-02 2.31391448e-03 2.94579305e-02
      3.15793045e-02 1.31004036e-03 3.58763937e-04 6.56451855e-04 0. 0.
      7.53234432e-04 2.48960741e-02 6.03642538e-02 2.04358622e-01
      4.13785785e-01 1.00178458e-01 2.11226661e-03 3.14522674e-03
      1.05043175e-03 0. 1.31004036e-03 0. 2.51134718e-03 4.59516235e-03
      0. 7.71065103e-03 2.01113448e-01 2.36104995e-01 2.04509810e-01
      1.41546860e-01 4.13785785e-01 1.26237139e-01 1.27333414e-03
      5.69528621e-03 0. 0. 0. 4.24302854e-02 1.04422756e-01
      4.08807732e-02 0. 9.54132676e-02 2.99095422e-01 2.93885112e-01
      2.99095422e-01 7.49455616e-02 1.34736717e-01 3.28330621e-02
      4.40196581e-02 1.37484118e-01 2.93556554e-03 3.73720266e-02
      4.00633290e-02 6.56259945e-03 1.84519831e-02 4.37735907e-05
      2.73103896e-03 5.38589507e-02 2.13117138e-01 1.60580739e-01
      2.66024888e-01 1.30068749e-01 1.92043204e-02 2.87654325e-02
      2.95616761e-02 2.38602832e-02 3.44732194e-03 4.90608811e-03
      5.01130184e-04 4.42245888e-04 3.18604009e-03 5.82968816e-03 0.
      3.39997075e-02 2.99095422e-01 2.99095422e-01 2.99095422e-01
      1.88291132e-01 2.93629020e-01 5.14135212e-02 6.19272329e-03
      1.96405891e-02 1.93077349e-03 3.10348929e-04 4.42245888e-04
      3.93093843e-03 0. 0. 1.63862342e-03 1.18482616e-02 1.71607867e-01
      1.25806540e-01 1.85705125e-01 1.27073392e-01 5.39891236e-02
      2.35389695e-02 1.47693874e-02 2.12782174e-02 1.10479482e-02
      4.99221263e-03 3.93093843e-03 1.04231857e-01 3.21755477e-04
      2.00170488e-03 2.30894368e-02 2.30110027e-02 2.45136376e-02
      1.59765765e-01 2.76052952e-01 2.71942616e-01 9.00548026e-02
      2.48928308e-01 1.00760356e-01 3.56752016e-02 8.80993679e-02
      1.14176117e-01 1.04231857e-01 2.70728081e-01 2.25228816e-03
      1.40119353e-02 8.19314830e-03 8.16532783e-03 8.91421884e-02
      7.31067359e-02 3.65547687e-02 3.65547687e-02 2.14741509e-02
      1.18230000e-01 6.16851263e-02 1.17769301e-01 1.66873083e-01
      7.76349679e-02 2.70728081e-01 6.90841451e-02 0. 0. 2.95518488e-02
      2.94515993e-02 2.63709538e-02 9.97493416e-02 8.98603871e-02
      1.98240221e-01 2.63124853e-01 1.92065105e-01 7.44136125e-02
      1.78494960e-01 1.00676194e-01 1.31937265e-01 7.78952539e-02
      2.25840315e-01 1.18144583e-02 0. 2.81427391e-02 2.80473623e-02
      1.62357949e-02 1.00573361e-01 4.80560549e-02 4.80560549e-02
      4.52794656e-02 1.74127325e-01 9.09128487e-02 1.19658947e-01
      1.81230977e-01 1.29317492e-01 2.28961259e-01 8.07589665e-02
      6.40134269e-04 5.89222414e-03 1.58682968e-02 1.39557756e-02
      5.55909164e-02 5.43462373e-02 3.41269076e-02 3.41269076e-02
      8.94966535e-03 5.56785390e-02 5.16729541e-02 9.50159281e-02
      6.18602522e-02 2.83793430e-03 8.07589665e-02 7.90972337e-02 0.
      1.33687444e-02 3.90085019e-02 2.58655008e-02 1.37096778e-01
      1.78466603e-01 1.32617176e-01 6.29360825e-02 5.32001629e-03
      3.30974162e-02 1.31243533e-02 1.93357356e-02 3.93002294e-02
      5.30199567e-03 7.90972337e-02 1.04165003e-01 2.63709929e-02
      5.16244732e-02 2.54101437e-02 3.32279950e-02 4.51643020e-02
      7.79234394e-02 2.08215378e-02 2.08215378e-02 1.37747452e-02
      8.56968164e-02 6.71585649e-02 7.35537186e-02 7.14370906e-02
      1.50203817e-02 8.14146176e-02 9.93583947e-02 2.58044880e-02
      2.09090844e-01 1.32390976e-01 7.57250935e-02 5.02585113e-01
      5.02585113e-01 3.43280375e-01 3.11048687e-01 3.98961129e-03
      2.48205662e-02 1.91649199e-02 2.01110616e-02 6.09770417e-02
      9.65632871e-03 8.47869068e-02 2.33699055e-03 0. 2.13618900e-04
      9.79654258e-04 5.91641478e-03 1.69550732e-01 8.80746245e-02
      3.18251215e-02 1.11447470e-02 2.65422533e-03 3.35858349e-04 0. 0.
      1.43272860e-03 2.30294128e-04 2.33699055e-03 5.74355246e-03 0. 0.
      2.87948264e-04 1.84148755e-02 4.04309332e-01 4.04309332e-01
      2.50294060e-01 5.43149710e-02 3.37112099e-02 2.01515009e-04 0. 0.
      2.04675525e-04 3.28991591e-05 5.74355246e-03 1.89003989e-03
      1.74453569e-04 2.86039175e-03 2.63921730e-03 2.83063110e-02
      4.04309332e-01 2.47686788e-01 2.51426175e-02 1.31829325e-02 0. 0.
      0. 0. 2.38788105e-03 3.83823528e-04 1.89003989e-03 6.28321152e-03
      0. 0. 1.54962472e-04 5.07605672e-02 4.04309332e-01 4.04309332e-01
      9.02357623e-02 3.44264694e-03 0. 0. 0. 0. 3.41125880e-04
      5.48319331e-05 6.28321152e-03 1.11517950e-03 1.11167191e-03 0.
      1.40350108e-04 1.39874552e-04 2.31922138e-03 1.64662953e-02
      4.63843122e-02 1.09104522e-01 2.85726875e-01 1.77059785e-01
      4.47776308e-03 7.05494732e-03 1.12429005e-03 0. 7.40266114e-04
      7.60884082e-04 0. 0. 2.00500162e-05 7.94730382e-04 6.21488057e-02
      1.52123347e-01 1.61933854e-01 1.51998132e-01 2.85726875e-01
      2.85726875e-01 5.73531389e-02 4.03451174e-02 2.30197888e-02
      2.61331145e-02 1.68922506e-02 2.08957531e-02 3.97348590e-03 0.
      9.82450787e-04 9.79121774e-04 2.77566910e-03 2.28518411e-03
      2.93577854e-02 8.40867311e-02 2.38339856e-01 2.38212183e-01
      2.99947392e-02 4.17975113e-02 2.47027911e-03 1.58002716e-04
      1.08475843e-02 1.94390371e-01 3.53449862e-03 0. 1.40350108e-04
      1.39874552e-04 3.80921317e-03 2.73163524e-02 7.53919035e-02
      1.04955092e-01 2.85726875e-01 2.85726875e-01 2.55560488e-01
      2.82415837e-01 1.61138505e-01 1.66691378e-01 2.85726875e-01
      2.15321444e-02 0. 0. 0. 8.55100516e-04 6.93291798e-02
      9.41278860e-02 9.37629119e-02 5.35830483e-02 8.69011655e-02
      9.64899957e-02 4.27643098e-02 1.63814779e-02 2.68957280e-02
      3.63958478e-02 8.43848735e-02 1.02254093e-01 0. 0. 0.
      1.22157231e-04 1.13354335e-02 1.11980308e-02 1.87871587e-02
      1.15387226e-02 4.61804774e-03 4.74233832e-03 8.22126400e-03
      7.21893925e-03 9.45627782e-03 1.73313245e-02 1.64781004e-01
      4.37989205e-01 5.27953147e-04 0. 0. 0. 3.86327947e-03
      2.15710457e-02 3.42414305e-02 2.57930644e-02 7.94530436e-02
      1.47484496e-01 1.35634199e-01 1.14670344e-01 1.78743914e-01
      1.96311668e-01 4.37989205e-01 4.37989205e-01 0. 0. 0. 0.
      5.51897043e-04 2.60379817e-03 4.25791973e-03 2.12938595e-03 0.
      2.69745733e-03 8.28736648e-03 2.46324739e-03 2.82855891e-02
      4.62064929e-02 4.37989205e-01 1.19464904e-01 0. 0. 5.07604389e-04
      5.05884411e-04 2.04219599e-04 3.28104972e-04 9.42988554e-04
      1.52696099e-03 2.63896585e-03 1.76034623e-03 4.06023720e-03
      8.92050564e-03 3.90644418e-03 8.38814862e-03 9.96389166e-02
      1.89045265e-01 1.03844667e-03 0. 8.46007315e-04 8.43140588e-04
      7.10494060e-05 4.40118660e-04 4.88919788e-04 4.88919788e-04
      5.91307878e-04 2.39911047e-03 2.28275405e-03 3.12148919e-03
      5.22858975e-03 6.54604286e-03 1.35857463e-01 4.78651255e-01 0. 0.
      7.25149075e-05 7.22691984e-05 0. 0. 1.15058559e-03 1.15058559e-03
      0. 1.41472381e-04 1.99405989e-03 3.55155952e-03 1.57575321e-03
      7.08470261e-03 4.78651255e-01 4.78651255e-01 6.23068016e-04 0.
      1.20858182e-04 1.20448669e-04 0. 0. 2.43828632e-03 2.43828632e-03
      4.48647406e-05 2.79116939e-04 1.11354550e-03 1.35866646e-03
      2.66430178e-03 3.38597153e-03 4.78651255e-01 1.53254077e-01
      1.53608611e-02 5.33118984e-03 1.43252360e-03 1.41300412e-03
      1.40043010e-03 4.47172264e-04 3.50126735e-04 3.50126735e-04
      3.27191665e-04 2.03555706e-03 5.09849575e-04 5.11583406e-04
      4.29556333e-03 1.21673557e-03 9.75702554e-02 1.40459940e-01
      8.76298770e-02 8.13708454e-02 7.76882842e-02 3.69158462e-02
      9.50145721e-02 5.77900261e-02 2.12242287e-02 1.25615671e-02
      4.55837690e-05 2.83590227e-04 1.27916457e-04 1.28351472e-04
      9.05846769e-04 1.45604092e-04 5.29814549e-02 3.79525244e-01
      8.87158364e-02 1.19017744e-02 6.83796650e-04 2.01857707e-04
      1.89748855e-04 0. 2.75466824e-03 2.75466824e-03 4.55837690e-05
      2.83590227e-04 0. 0. 2.47572851e-03 7.13708869e-04 3.79525244e-01
      3.79525244e-01 3.79525244e-01 3.69238585e-01 1.37811676e-01
      5.75833544e-02 6.36570007e-02 1.87538322e-02 1.75590441e-02
      8.00122693e-03 6.51196615e-06 4.05128958e-05 0. 0. 1.05828093e-02
      1.18026026e-01 3.79525244e-01 2.64109019e-02 4.17800583e-02
      8.10952187e-02 7.96975046e-02 1.11347720e-01 3.14425617e-01
      1.95258439e-01 2.17784438e-02 1.18204160e-02 0. 0. 0. 0.
      3.17251135e-04 5.09943529e-05 6.27229968e-03 3.74136353e-03
      2.60508223e-03 2.03344803e-02 1.43911755e-02 8.84616151e-02
      3.14425617e-01 3.14425617e-01 2.84917317e-02 1.64127699e-03 0. 0.
      0. 0. 4.53215944e-05 7.28490750e-06 3.74136353e-03 1.01920649e-01
      3.10951144e-01 3.14425617e-01 1.67395025e-01 2.02607349e-01
      3.14425617e-01 8.90357494e-02 1.67537890e-02 7.16988370e-03 0. 0.
      0. 0. 2.78815515e-02 1.40877753e-01 1.06715173e-01 4.41923551e-03
      5.10108098e-02 1.26002684e-01 4.57115993e-02 2.31252313e-01
      3.14425617e-01 1.85582861e-01 3.49835381e-02 6.85852859e-03 0. 0.
      0. 0. 1.67289320e-02 3.64597999e-02 5.09257941e-03</_>
    <_>
      4.30336557e-02 0. 2.86132116e-02 9.94017199e-02 1.35255277e-01
      1.66950256e-01 1.21036649e-01 5.29659279e-02 1.00813165e-01
      1.93427578e-01 2.67149378e-02 3.10240015e-02 0. 1.61624700e-02
      1.29030943e-02 4.98383008e-02 2.28985310e-01 1.56969335e-02
      2.05692008e-01 1.69519544e-01 9.16640460e-02 2.28985310e-01
      1.93801403e-01 7.27709085e-02 1.07996233e-01 8.17994550e-02
      7.34049315e-03 7.16814585e-03 0. 1.13137282e-01 2.28985310e-01
      1.12673871e-01 1.23278640e-01 2.80193286e-03 6.64994568e-02
      2.00696737e-01 1.63270012e-01 1.10596940e-01 1.60235897e-01
      1.37962699e-01 1.14376031e-01 1.23683780e-01 2.61663180e-02
      2.28985310e-01 4.47420031e-02 2.30892422e-03 1.84329913e-03
      1.19496554e-01 1.92752481e-01 2.78427135e-02 1.58773586e-01
      1.68267533e-01 1.07493900e-01 1.99943304e-01 2.28985310e-01
      2.28985310e-01 2.28985310e-01 2.64087562e-02 2.56542373e-03
      1.17230387e-02 7.25524966e-04 1.61624700e-02 3.65044437e-02
      3.93696800e-02 3.76496196e-01 2.31547616e-02 7.65256211e-02
      3.53989862e-02 2.14605848e-03 3.81990112e-02 4.31731939e-02
      2.07071211e-02 3.36858481e-02 3.67717110e-02 2.45612300e-05
      1.81289844e-03 3.89394606e-03 4.01867591e-02 1.92868426e-01
      3.25934827e-01 3.76496196e-01 9.65642650e-03 1.45297905e-03 0. 0.
      5.69248863e-04 3.60591500e-03 5.67324506e-03 5.64209232e-03
      5.79245575e-03 1.71928608e-04 3.48183210e-03 1.80178471e-02
      8.90258048e-03 4.16792817e-02 3.76496196e-01 3.55754435e-01
      3.88711281e-02 5.23377173e-02 1.81708336e-02 8.06020014e-03
      4.01194617e-02 6.51215687e-02 7.40050152e-02 9.35818180e-02
      7.14389840e-03 1.71928608e-04 1.89777219e-03 1.90422614e-03
      6.14267075e-03 3.19746658e-02 1.09096222e-01 3.76496196e-01
      1.99896470e-02 6.80329977e-03 1.03739358e-03 1.10766001e-03
      3.14168260e-03 1.23725482e-03 5.50783658e-03 4.43027914e-03
      7.97002949e-03 1.28660025e-03 1.13866350e-03 1.14253582e-03
      1.62213692e-03 2.23606266e-02 3.20212632e-01 3.83313060e-01
      1.25983637e-03 5.80643711e-04 0. 0. 0. 0. 2.13992014e-03
      2.13992014e-03 3.55074997e-04 5.73196921e-05 5.54369763e-04
      5.39850304e-03 8.87699518e-03 2.18588505e-02 3.83313060e-01
      3.83313060e-01 1.23434654e-03 3.32488632e-03 0. 0. 0. 0.
      8.84691603e-04 8.84691603e-04 0. 0. 0. 0. 2.11871578e-03
      1.50637720e-02 3.83313060e-01 3.13307315e-01 9.16267186e-03
      5.13362046e-03 1.27234453e-04 0. 2.25806492e-03 3.62951338e-04
      9.22802312e-04 9.22802312e-04 3.75365000e-03 6.05951005e-04 0. 0.
      3.87694710e-03 9.45246685e-03 2.47628853e-01 3.83313060e-01
      8.60745739e-03 1.01473974e-02 0. 0. 3.22580716e-04 5.18501947e-05
